1.5186e-05 7.8664e-06 -6.5359e-07 -4.5679e-05 3.9989e-05 -0.00080939 -0.0026814 -0.0013939 0.00047755 0.001005 0.00024765 -9.6803e-06 -2.0039e-05 0.00058686 0.00029869 3.5787e-05 2.2984e-05 3.0137e-05 6.0923e-05 2.7574e-05 -4.2994e-05 2.0292e-05 7.9562e-05 -8.0129e-05 0.00031376 0.00078091 -0.014478 -0.03006 -0.016377 -0.010953 -0.0017696 0.00043829 0.00056689 -0.0058302 -0.0029136 -0.00035022 -0.000132 0.00013303 -3.9275e-05 -7.7075e-05 6.6577e-06 8.5212e-05 1.644e-05 -0.0015549 -0.0031408 -0.018225 -0.051795 -0.1266 -0.11717 -0.045951 -0.007409 -0.014604 -0.0056534 0.001622 0.00026673 -0.0066633 -0.0041388 0.0002498 0.0011415 0.00055679 -8.2133e-05 -6.0037e-05 0.00036424 0.0051864 -0.0069945 -0.087778 -0.133 -0.14964 -0.039458 0.024834 0.027963 -0.019318 -0.059085 -0.029308 -0.016475 -0.024699 -0.030081 -0.01906 -0.0059665 0.00034814 -7.6368e-06 -0.00030817 0.0017339 0.023409 -0.01911 -0.16264 -0.19445 -0.066652 0.11606 0.14681 0.12441 0.03046 -0.045953 -0.052864 -0.031471 -0.05883 -0.097924 -0.067897 -0.032706 0.0016864 6.1355e-05 -0.0005286 0.0092128 0.03649 -0.033546 -0.20677 -0.24064 -0.086092 0.12779 0.24268 0.23894 0.11163 0.027427 0.061258 -0.027797 -0.20145 -0.24658 -0.13945 -0.090927 -0.0049643 6.2647e-05 0.0012353 0.03076 0.076926 0.02816 -0.089282 -0.17172 -0.027125 0.1383 0.19153 0.23696 0.26604 0.30182 0.34875 -0.014149 -0.38784 -0.40436 -0.14532 -0.11146 -0.012896 -9.7372e-05 0.0012967 0.051279 0.087287 0.072736 -0.035107 -0.0047902 0.23049 0.26485 0.36372 0.52952 0.59973 0.62944 0.39925 -0.11542 -0.40294 -0.36256 -0.12663 -0.15959 -0.03567 -0.00037503 0.0054653 0.049266 0.026538 0.064247 -0.03017 0.060991 0.2054 0.29468 0.69342 0.87166 0.69852 0.49689 0.21985 -0.15311 -0.27755 -0.16778 -0.086605 -0.10317 -0.024344 -0.00072137 0.012233 0.031271 -0.020445 0.049198 -0.10743 -0.13514 -0.27601 -0.097654 0.41545 0.57355 0.33225 0.037494 -0.10553 -0.17161 -0.035549 -0.060085 -0.055475 -0.092115 -0.034741 -0.00066247 0.012564 0.013572 0.0069018 0.11346 -0.12019 -0.51383 -0.80511 -0.51107 0.093705 0.28639 0.13343 -0.074662 -0.11629 -0.10132 -0.18589 -0.29986 -0.13542 -0.1029 -0.027954 -0.00093665 0.01494 0.036411 0.10688 0.18492 -0.090446 -0.60953 -0.79795 -0.27597 0.29451 0.42503 0.42821 0.34206 0.19339 -0.018431 -0.26615 -0.31504 -0.06429 -0.09662 -0.043892 -0.0013857 0.017803 0.068189 0.13395 0.17553 -0.18907 -0.52541 -0.49445 0.028429 0.39648 0.28988 0.085508 0.16647 0.14379 0.11507 0.11366 0.086339 0.075771 -0.053834 -0.028893 -0.0012085 0.016656 0.063514 -0.065994 -0.081002 -0.29707 -0.36473 -0.1705 0.17725 0.28622 -0.018629 -0.26707 -0.16292 0.04982 0.26011 0.37791 0.29659 0.197 0.037189 -0.004207 -0.00055497 0.010616 0.039761 -0.11429 -0.11805 -0.12906 -0.095911 0.027146 0.11275 0.087791 -0.13062 -0.3067 -0.14769 0.055203 0.22572 0.27976 0.24457 0.20963 0.077387 0.0021011 -0.00021958 0.0052825 0.014903 -0.069583 -0.022221 0.037232 0.028024 0.028751 -0.034133 -0.084727 -0.16561 -0.21464 -0.063024 0.055885 0.12748 0.13658 0.13673 0.10798 0.043889 -0.0067691 -9.6016e-05 0.0013703 -0.00028804 -0.035359 0.023619 0.084772 0.07134 -0.01512 -0.07755 -0.10386 -0.14072 -0.13718 -0.0043178 0.073973 0.10076 0.087824 0.065884 0.049276 0.021667 -0.0011562 -1.0827e-05 0.00025387 -0.0030335 -0.010897 0.022181 0.047179 0.037386 0.015983 0.021991 -0.0086768 -0.065014 -0.048252 0.016994 0.026839 0.038115 0.014981 0.0086975 0.0068412 0.0028761 0.0002548 -1.196e-05 5.5966e-05 -0.00067048 0.0039061 0.016551 0.0033162 -0.0040875 0.004574 0.0042428 0.0041428 -0.007688 0.00061875 0.0098144 0.0048069 -0.0019719 -0.0090495 -0.0022176 -0.00044432 -0.00040154 -6.4498e-05 7.7388e-05 2.2517e-05 -0.00014914 0.00069651 0.0046662 0.0041818 0.00081723 -0.0010522 -0.00068296 -0.00036533 0.00041583 -9.8592e-05 -0.00074695 -0.0023736 -0.00019576 0.00019983 0.00027872 0.00013163 4.231e-05 -3.533e-05 -0.51849
-2.8815e-05 1.7986e-05 4.238e-05 -5.4044e-05 2.1705e-05 -0.00056343 -0.0015474 -0.0012034 0.00012939 0.00046547 6.1752e-05 -4.51e-05 5.177e-05 0.00041755 0.0001826 2.0655e-05 0.00011348 -5.9207e-05 -2.2693e-05 -3.3579e-05 4.626e-05 -7.4213e-05 7.7603e-06 -0.00013282 7.5319e-05 -0.0011328 -0.0084365 -0.017052 -0.010472 -0.0047052 -0.00026747 -0.00021326 -0.00044291 -0.0029574 -0.0010097 0.00063474 6.5522e-06 0.00040818 -6.148e-05 -9.1356e-06 4.5911e-05 1.4235e-05 -8.8683e-05 -0.0014845 -0.0039467 -0.018508 -0.041971 -0.077307 -0.066601 -0.025136 -0.0067218 -0.012867 -0.016462 -0.021358 -0.021465 -0.012975 -0.0063865 -0.005232 0.00094153 0.00073378 -2.7687e-05 5.8137e-05 0.00017268 0.0014341 -0.0071199 -0.053874 -0.087941 -0.1131 -0.045488 0.012962 0.037931 0.023441 -0.02296 -0.04032 -0.053459 -0.032675 -0.031532 -0.023861 -0.003256 0.0006801 6.0936e-06 -7.9568e-05 0.0016552 0.0067066 -0.019366 -0.076241 -0.13074 -0.090176 0.05078 0.11424 0.15684 0.13383 0.053182 0.00065502 -0.035051 -0.068896 -0.096655 -0.061577 -0.019557 -0.0028719 8.4497e-05 -3.6211e-05 0.0042193 -0.0052214 -0.039123 -0.11534 -0.17975 -0.10847 0.060016 0.16942 0.23416 0.21259 0.13452 0.1356 0.030341 -0.14217 -0.17145 -0.080183 -0.055988 -0.011538 0.0001288 0.00056187 0.017894 0.023155 0.0029039 -0.055084 -0.15939 -0.068222 0.10676 0.20936 0.23953 0.2724 0.3089 0.29026 0.065905 -0.16036 -0.17498 -0.068525 -0.084433 -0.018744 -2.3037e-05 0.00033081 0.027035 0.030776 0.057949 0.013257 -0.026267 0.13846 0.27948 0.40881 0.41847 0.42666 0.48474 0.28311 -0.025859 -0.14589 -0.068192 -0.03069 -0.11973 -0.036808 -0.00026619 0.0043487 0.0034089 -0.024273 0.098864 0.087207 0.057987 0.20504 0.35999 0.56573 0.53722 0.41461 0.33155 0.1054 -0.10415 -0.059868 0.11287 0.0030994 -0.098401 -0.033885 -0.00043565 0.0089367 -0.021999 -0.049822 0.16439 0.14111 -0.030104 -0.11383 -0.0068854 0.19288 0.17666 0.008407 -0.13676 -0.21913 -0.15983 0.078784 0.13723 -0.014986 -0.085536 -0.039868 -0.00069312 0.0092789 -0.027742 0.0014925 0.30381 0.21131 -0.2654 -0.59829 -0.48398 -0.14956 -0.041874 -0.16105 -0.25208 -0.2656 -0.18832 -0.064902 -0.095705 -0.037481 -0.063885 -0.029957 -0.0013118 0.011332 -0.0017147 0.069259 0.35743 0.24154 -0.33665 -0.57512 -0.23411 0.15004 0.24192 0.19904 0.095003 0.0010822 -0.058972 -0.13985 -0.18656 -0.0038588 -0.042502 -0.030034 -0.0013523 0.013665 0.050481 0.10962 0.26856 0.060394 -0.34175 -0.32821 0.036346 0.23309 0.12858 -0.0072433 0.049399 0.069686 0.08962 0.07103 0.012623 0.043967 -0.012289 -0.018188 -0.0013052 0.016621 0.056572 -0.026121 -0.011059 -0.2329 -0.33869 -0.13136 0.075849 0.059976 -0.12044 -0.16868 -0.049738 0.06151 0.15187 0.21009 0.14015 0.093381 0.028996 -0.00081552 -0.0005902 0.010963 0.022899 -0.082961 -0.075536 -0.16057 -0.15315 0.033072 0.10996 0.029466 -0.067253 -0.090373 0.01726 0.071643 0.1239 0.15978 0.11649 0.10423 0.048195 0.0026605 -1.6811e-05 0.0044387 -0.0029959 -0.066946 -0.020767 -0.015565 0.012799 0.086237 0.098683 0.081824 0.042666 0.0059408 0.042774 0.066743 0.072574 0.068864 0.06613 0.06316 0.029054 -0.00086584 9.8404e-05 0.0010625 -0.006618 -0.042921 -0.0075065 0.023555 0.043859 0.062354 0.076701 0.090269 0.075625 0.046595 0.051066 0.045579 0.04608 0.036603 0.031834 0.026906 0.011372 -0.00014969 -4.3973e-05 3.1622e-05 -0.0026009 -0.011319 0.0034208 0.015175 0.0098579 0.016685 0.034217 0.043918 0.024975 0.016635 0.015516 0.0057072 0.0038376 -0.0082749 -0.00084117 0.003994 0.0014116 5.0166e-05 1.8634e-05 -6.6974e-05 -0.00038651 0.0032727 0.0044215 -0.011916 -0.015878 -0.0085046 -0.0066484 -0.0018274 -0.0059388 -0.0041099 -0.0027842 -0.0013488 -0.0043352 -0.011092 -0.0033536 -0.00017287 -0.00022575 6.2809e-05 2.5267e-05 -6.9722e-05 -9.1816e-05 0.00068654 0.0026403 0.0009435 -0.0016584 -0.00026335 -2.803e-05 -0.0003954 -0.00011265 -0.00047798 -0.0014204 -0.0024303 -9.0011e-05 0.00076941 0.00019055 9.4185e-06 1.3969e-05 7.1125e-05 -0.49274
8.0642e-05 5.9891e-05 -1.7981e-05 1.2286e-05 0.00010534 0.00043657 -0.00010875 4.6177e-05 -0.00010379 -0.00055126 -0.00010703 -0.00024964 -0.0009755 -0.00069154 -0.00032948 -0.0003767 -8.7084e-05 -4.398e-05 -4.2511e-05 1.6256e-05 1.9252e-05 3.2952e-05 3.8284e-05 -0.00028933 -0.00076093 -0.00033445 0.0016711 0.0044199 0.00081307 -0.0024818 -0.0023643 0.0023123 0.010347 0.0053 0.0010628 0.0024305 0.00037983 -0.00027134 -4.0984e-05 5.4708e-05 4.4276e-06 -0.00010364 -0.00013952 0.0031704 0.016103 0.034556 0.042306 0.036627 0.024172 0.024011 0.018215 0.027056 0.053273 0.074785 0.070011 0.042762 0.015358 0.0068768 0.00027079 0.00010738 9.0271e-06 -0.00028819 0.00021121 0.019854 0.046508 0.053683 0.041746 0.065802 0.070856 0.037003 -0.027228 -0.055293 -0.035751 0.020768 0.10336 0.054866 0.035611 0.013694 0.0079562 0.00035403 -4.7532e-05 -0.00046108 0.0021713 0.041821 0.079473 0.030689 0.056496 0.11108 0.046151 -0.058015 -0.18907 -0.27013 -0.37959 -0.35832 -0.095645 0.00048519 0.022858 0.031374 0.021282 0.00091181 -0.0001082 -0.001752 0.0044769 0.084404 0.10032 0.028838 0.018421 0.0032847 -0.070255 -0.099602 -0.20093 -0.31212 -0.38486 -0.46044 -0.31887 -0.11016 0.035151 0.090694 0.043542 0.0033638 -0.00010759 -0.00343 -0.010406 0.052949 0.039532 -0.10283 -0.17058 -0.19258 -0.10868 -0.11441 -0.22034 -0.30372 -0.16734 -0.29907 -0.35233 -0.18866 0.044508 0.10028 0.060238 0.010018 3.4997e-05 -0.0069301 -0.036953 0.059792 0.022835 -0.18474 -0.16542 -0.1323 -0.09208 -0.24599 -0.41749 -0.33363 -0.14167 -0.32472 -0.4752 -0.28926 0.013134 0.076329 0.0899 0.012213 0.00033156 -0.014062 -0.032427 0.13978 0.048072 -0.18725 -0.17109 -0.2158 -0.19515 -0.24407 -0.19064 -0.071106 -0.1182 -0.4969 -0.6724 -0.30248 0.04221 0.025649 0.11633 0.019252 0.0017217 -0.028934 -0.039176 0.11178 0.080675 -0.045346 -0.20925 -0.22855 0.077075 0.23806 0.35417 0.38614 0.13396 -0.37922 -0.56045 -0.084995 0.16064 0.051326 0.12207 0.033882 0.002934 -0.039944 -0.098466 0.044895 0.08406 0.052462 -0.11739 0.10475 0.59497 0.72833 0.62338 0.3833 0.086927 -0.32065 -0.31891 0.045763 0.12716 0.062701 0.12899 0.030998 0.0034121 -0.04067 -0.14557 -0.062645 -0.0024166 0.1042 0.13355 0.45326 0.68877 0.78194 0.539 0.21262 -0.080012 -0.29026 -0.25772 -0.04327 0.080902 0.10933 0.111 0.013469 0.0034855 -0.04094 -0.18464 -0.20048 -0.10005 0.082426 0.19721 0.44752 0.66689 0.63534 0.39341 0.14871 -0.10649 -0.27859 -0.26559 -0.071455 0.072553 0.15193 0.12523 0.013079 0.0031135 -0.035855 -0.17801 -0.21078 -0.12634 0.12071 0.19154 0.42768 0.71822 0.50233 0.18039 -0.08995 -0.24149 -0.27579 -0.16668 -0.068044 0.051615 0.1192 0.09547 0.01429 0.0013747 -0.016306 -0.12681 -0.26038 -0.24528 -0.054757 0.18997 0.53281 0.58232 0.18649 -0.12315 -0.27823 -0.37263 -0.2314 -0.1163 -0.074232 0.035921 0.091089 0.079565 0.0088152 0.00018576 -0.0022232 -0.04065 -0.21175 -0.32443 -0.26228 0.061838 0.3697 0.17805 -0.11859 -0.27393 -0.32493 -0.35665 -0.27094 -0.14887 -0.08746 -0.023828 0.055048 0.056405 0.0081306 -3.7643e-05 0.00041957 -0.0090968 -0.11707 -0.25467 -0.29864 -0.067453 0.094645 -0.059906 -0.23539 -0.30764 -0.28746 -0.30103 -0.24951 -0.17728 -0.085099 -0.032971 0.019018 0.014098 0.0030091 4.6677e-05 5.3932e-05 0.0010716 -0.045012 -0.17561 -0.25664 -0.15974 -0.041778 -0.052686 -0.11606 -0.12447 -0.11626 -0.14086 -0.11186 -0.071013 -0.028395 -0.0051753 0.0013324 0.00026917 -0.00012409 -4.3706e-05 -4.5496e-06 0.00090084 -0.0074208 -0.041361 -0.075305 -0.073604 -0.026819 -0.0023697 0.00296 0.0036466 -0.004917 -0.015747 -0.0074765 -0.0035908 0.00044257 -3.0105e-05 -0.00020068 -0.00011554 -5.5342e-05 4.4763e-05 8.2381e-07 -2.4595e-05 0.0002755 -0.00081838 0.0034821 0.0029585 -0.0028767 -0.0017209 0.00067775 0.0007877 0.0010882 0.0007042 0.0016368 -4.8307e-05 -0.00058777 -0.00030945 -6.8722e-05 -1.1787e-06 4.9454e-05 -0.45539
-6.2139e-05 -1.9677e-05 -9.2774e-06 -6.7527e-05 2.8467e-05 0.00044211 0.00053833 -5.6437e-05 -0.00019976 -0.0013913 -0.0003418 -0.00012653 -0.00063073 -0.00072656 -0.00084004 -0.00039388 -3.7795e-05 -3.0257e-05 -5.1049e-05 -5.7419e-05 -5.883e-05 -2.3751e-06 -3.0325e-05 -0.00024101 -0.0006244 -0.0020125 0.0045522 0.013108 0.0045683 -0.00017788 -0.0027822 0.0011939 0.0053204 0.0074265 0.0076208 0.0039874 0.00030896 -0.00037433 -7.7436e-05 6.5818e-06 7.2394e-05 -8.0822e-05 -6.2126e-05 0.00045083 0.0043779 0.016041 0.025887 0.03607 0.021506 0.013016 -0.0064834 0.0024339 0.029586 0.052053 0.046539 0.019652 0.0062018 0.0021969 0.00029069 0.00052315 2.6332e-05 -2.2909e-05 -0.0003168 -0.00039614 0.0031966 0.023185 0.041546 0.046585 0.036161 0.033994 0.0087771 0.014625 0.045276 0.053286 0.062715 0.066349 0.046614 0.025896 0.012343 0.002586 2.5645e-05 0.00019765 -0.0004605 -0.017551 -0.019746 0.029291 0.080398 0.099549 0.097445 0.065138 -0.026675 -0.070823 -0.076009 -0.031806 0.05188 0.09708 0.088759 0.076851 0.047051 0.0033744 -0.00011052 -0.00032878 -0.0072522 -0.040014 -0.052193 0.01646 0.062308 0.099723 0.12392 0.080541 -0.10662 -0.22414 -0.22469 -0.087407 0.060224 0.093718 0.14518 0.21809 0.11856 0.0077195 -0.00037917 -0.0045023 -0.018191 -0.069829 -0.09255 -0.04339 0.01159 0.10041 0.085304 0.0056516 -0.15016 -0.27621 -0.253 -0.25931 -0.086057 0.13378 0.27802 0.27007 0.14681 0.011685 1.4341e-05 -0.0073273 -0.035131 -0.076269 -0.083796 0.022615 0.16133 0.18223 0.015715 -0.19105 -0.34268 -0.27796 -0.18026 -0.38386 -0.32339 0.0043076 0.34362 0.30429 0.20032 0.013171 0.00023651 -0.008884 -0.054304 -0.086624 -0.0060494 0.32333 0.41969 0.19996 0.024004 -0.2062 -0.43983 -0.38574 -0.28036 -0.46462 -0.44163 -0.049754 0.41019 0.34469 0.22085 0.010975 0.00091777 -0.016164 -0.0695 -0.11898 0.17911 0.74949 0.47793 0.16197 0.075211 -0.11523 -0.39916 -0.53972 -0.48465 -0.50219 -0.39546 -0.044875 0.33617 0.25487 0.1995 0.018123 0.0017436 -0.027535 -0.11922 -0.15532 0.38366 0.9984 0.51871 0.13515 0.045317 -0.14639 -0.37941 -0.58419 -0.4345 -0.43075 -0.37224 -0.043506 0.14727 0.14031 0.15197 0.031964 0.0024222 -0.03811 -0.14536 -0.20213 0.35387 0.96883 0.47696 0.14112 0.046684 -0.011972 -0.14786 -0.24835 -0.16502 -0.26833 -0.25573 -0.06821 0.034848 0.13757 0.16666 0.024232 0.0031928 -0.041188 -0.13976 -0.20405 0.14237 0.60299 0.37621 0.23533 0.1962 0.034504 -0.061575 -0.030662 -0.019542 -0.058697 -0.058837 -0.12259 -0.047332 0.16064 0.22634 0.018436 0.0024485 -0.028306 -0.14777 -0.19542 -0.051785 0.23778 0.24737 0.31881 0.27476 0.041948 -0.02808 0.026715 0.07442 0.034918 -0.049699 -0.15501 -0.04701 0.10907 0.13907 0.012866 0.00074983 -0.012218 -0.10694 -0.20115 -0.12521 0.12488 0.1863 0.27313 0.28056 0.040604 -0.0081111 0.014068 -0.030644 -0.033511 -0.069241 -0.066145 0.031717 0.087985 0.078377 0.010141 0.00022675 -0.0038388 -0.047612 -0.1224 -0.16662 -0.080944 0.10651 0.23651 0.20992 0.066553 -0.028302 -0.054684 -0.083187 -0.10476 -0.12829 -0.064315 0.0034761 0.072473 0.066574 0.020005 -2.2155e-05 -0.00031341 -0.01275 -0.065747 -0.13071 -0.066694 0.077914 0.16713 0.13338 0.032823 -0.014271 -0.051097 -0.14389 -0.17093 -0.13731 -0.057423 -0.010798 0.010815 0.013196 0.0059409 -3.1735e-05 -0.00018206 0.0044137 -0.013099 -0.037915 0.01852 0.07378 0.037273 -0.0014706 -0.029854 0.00013613 -0.025718 -0.10477 -0.095522 -0.06734 -0.035229 -0.005242 -0.0003379 -0.00023285 -0.00051465 5.5913e-05 -2.8058e-05 7.8202e-05 0.00051509 0.0022459 0.015707 0.020626 0.0043301 -0.0030573 -0.0017536 0.00061822 -0.010846 -0.026013 -0.014917 -0.0093987 -0.01058 -0.0044783 -0.00013462 -3.4286e-05 -6.2893e-05 -1.399e-05 5.7582e-05 -8.4219e-05 0.00032626 0.0017833 0.0026157 0.0011145 0.00045698 0.00046534 0.00057713 0.00062727 0.0011559 0.0008898 5.8689e-05 -0.00026142 0.00061089 -0.00064599 -0.00017445 1.0465e-06 -2.7861e-05 -0.31569
3.8903e-05 4.106e-05 -6.0937e-05 -5.77e-05 5.658e-06 -4.0685e-05 -0.00050313 -0.00025612 4.5402e-05 -0.0001584 -4.131e-05 -6.0957e-05 -0.00022269 -2.3276e-05 -0.00018907 -0.00033952 -0.00020464 -5.7816e-05 9.2215e-06 -1.0493e-05 3.5697e-05 -3.311e-05 2.2488e-05 -0.00015172 -0.00042717 -0.001956 -0.0024476 -0.0023153 -0.00093613 0.00034524 0.00035353 0.0010372 0.0016669 -0.0028999 -0.0026265 0.00095043 8.6255e-05 -0.00032071 1.2509e-05 2.4844e-05 -5.8617e-05 9.3526e-05 -0.00025028 0.0006856 0.0054798 0.0088072 -0.0013716 -0.021263 -0.027054 -0.021632 -0.020398 -0.017906 0.0042411 0.035198 0.057441 0.050414 0.023039 0.0063129 0.00037269 3.3406e-06 -1.0707e-05 -5.7772e-05 -0.00082792 0.0087471 0.03161 0.030873 -0.021057 -0.093312 -0.11216 -0.076288 -0.018578 0.0002421 0.060936 0.17056 0.25158 0.22308 0.10698 0.02175 -0.0060321 -0.0013407 -6.1521e-05 -0.00017029 0.0009716 0.033506 0.095984 0.058837 -0.090307 -0.20279 -0.18359 -0.11063 -0.0048772 0.082739 0.16479 0.21585 0.27856 0.32402 0.21098 0.028221 -0.020515 -0.0038581 -4.5268e-06 -0.0001915 0.0059128 0.068859 0.15914 0.001263 -0.25944 -0.35243 -0.29388 -0.21756 -0.052504 0.13441 0.18042 0.17825 0.13255 0.25334 0.22758 0.023374 -0.044246 -0.0067674 9.6655e-05 -0.00068868 0.012166 0.11121 0.16847 -0.081592 -0.38061 -0.43103 -0.36224 -0.20954 0.01864 0.13185 0.10197 0.10093 0.11883 0.19339 0.17903 -0.022628 -0.066283 -0.010391 0.00016664 -7.8288e-05 0.034571 0.18499 0.19307 -0.10129 -0.37785 -0.46279 -0.30167 0.0037191 0.18855 -0.0016816 -0.10213 0.041944 0.22666 0.22477 0.11901 -0.050775 -0.08534 -0.014853 -4.5643e-05 0.0022841 0.057074 0.22689 0.213 -0.045879 -0.29178 -0.35057 -0.17803 0.063297 0.067218 -0.22763 -0.2508 -0.0010058 0.20534 0.16562 0.054533 -0.044075 -0.082092 -0.019966 -0.00056813 0.0038761 0.074824 0.2991 0.30052 0.070482 -0.10735 -0.18589 -0.18659 -0.094135 -0.16429 -0.39495 -0.39575 -0.18198 0.061369 0.077582 0.03211 -0.058192 -0.080265 -0.022115 -0.00093697 0.0097266 0.09731 0.32616 0.34911 0.18988 0.037613 -0.0091764 -0.15679 -0.22687 -0.3172 -0.47901 -0.49243 -0.25257 0.038648 0.13031 -0.010401 -0.13475 -0.093652 -0.015058 -0.00074814 0.015716 0.11685 0.28397 0.37561 0.2437 0.083526 0.029832 -0.19932 -0.34769 -0.37591 -0.43772 -0.32468 -0.007296 0.23017 0.16912 -0.070834 -0.16873 -0.07381 -0.0090595 -0.0012535 0.015414 0.11259 0.18948 0.28851 0.20864 0.077021 0.046097 -0.23748 -0.35009 -0.2586 -0.18884 -0.0152 0.25402 0.28748 0.10017 -0.061656 -0.13502 -0.045487 -0.0049336 -0.0010439 0.012863 0.073018 0.076817 0.13071 0.093715 0.088943 0.094994 -0.10881 -0.22248 -0.10837 0.048747 0.21774 0.26168 0.18534 0.08694 -0.04474 -0.086573 -0.023224 -0.0021143 -0.0002755 0.0085057 0.023125 -0.024367 0.00018269 -0.014838 -0.021831 0.0085958 -0.0037786 -0.054521 -0.031812 0.074502 0.21325 0.21583 0.14651 0.050289 -0.079861 -0.076229 -0.01936 -0.00023041 5.654e-05 0.0037297 -0.018653 -0.084901 -0.091047 -0.1086 -0.11595 -0.034139 0.069562 0.068823 0.059211 0.10015 0.16337 0.15407 0.090376 0.014069 -0.055258 -0.039652 -0.011644 -0.0030603 -5.5675e-05 0.0019035 -0.013723 -0.068713 -0.1343 -0.15794 -0.13901 -0.023444 0.098416 0.14789 0.14694 0.13068 0.11042 0.067739 0.030903 -0.014276 -0.024691 -0.010029 -0.0042468 -0.0014873 -5.8828e-05 0.00060936 -0.0047145 -0.024147 -0.081502 -0.11855 -0.09374 -0.021843 0.035624 0.090907 0.086848 0.059959 0.041525 0.024191 0.0051225 -0.0081051 -0.0066542 -0.00076171 -0.00058035 0.00012892 6.4671e-05 2.0144e-05 0.0003472 -0.0021135 -0.018905 -0.038986 -0.031162 -0.013258 -0.0031949 -0.00019781 -0.001525 0.00053347 0.0082895 0.008735 0.0068723 0.0048418 0.0012988 7.2799e-06 0.00012652 7.6023e-05 -5.7878e-05 -4.9965e-05 1.8366e-06 0.00019569 -0.0012355 -0.00023687 -0.00088463 0.0002029 0.00023351 -0.00016051 0.00037399 0.00063198 0.00039154 -0.00079931 0.00016234 0.00049426 0.00023749 -8.771e-05 -2.2122e-05 3.9157e-05 -0.34721
-5.6634e-05 -5.662e-05 4.1896e-05 3.2822e-05 7.201e-05 0.0011267 0.0012482 0.00045447 0.0002337 0.00010543 -5.3923e-05 0.00011717 0.00017876 0.00021734 2.1294e-05 -0.00012481 -7.5065e-05 -2.9081e-05 -3.9736e-05 -8.0372e-05 -1.628e-05 2.3753e-06 3.8516e-05 -3.9207e-05 -0.00055065 -0.0020998 0.0046891 0.010953 0.007994 0.0059189 0.0012619 -0.0010188 -0.0019579 -0.001239 -0.00075828 0.0014373 0.00042959 -1.6277e-05 -3.5067e-05 2.7828e-05 -1.3412e-05 5.7176e-05 -1.7852e-05 0.0007495 0.0023265 0.0025308 0.015389 0.044036 0.041127 0.007718 -0.0014698 -0.0058902 -0.020859 -0.027994 -0.014806 0.0079142 0.006143 -0.00081688 -0.0001475 -4.6841e-05 5.2408e-05 0.00010452 -0.00064448 -0.0013509 0.0059711 0.033707 0.052402 0.038088 -0.0054333 -0.015762 0.044969 0.060919 0.031697 -0.014743 -0.019748 0.049548 0.033627 0.0075348 0.0007515 0.00026885 3.7306e-07 0.00024919 -0.00089665 -0.009334 0.0089414 0.083671 0.081803 -0.020396 -0.059985 -0.0053315 0.15575 0.24526 0.15641 0.028707 -0.063884 0.020841 0.065649 0.018394 0.013922 0.0032584 -0.00011746 -3.5207e-05 -0.0068613 -0.020239 0.035944 0.10151 0.066213 -0.014785 -0.037533 -0.019403 0.13901 0.29144 0.15528 0.0065333 -0.11358 -0.098658 0.017517 0.057546 0.06055 0.01396 -0.00030741 -0.0053692 -0.023255 -0.03032 0.027989 0.061449 0.060416 0.044503 0.016411 0.093487 0.15059 0.15957 0.0013698 -0.15854 -0.1786 -0.11206 0.055502 0.11624 0.086666 0.019886 -0.00032807 -0.0065245 -0.038633 -0.020057 -0.0004788 0.01578 0.036699 0.032583 0.094765 0.23495 0.19992 -0.018041 -0.22455 -0.30089 -0.17728 -0.033724 0.22138 0.17482 0.064501 0.026059 -4.233e-05 -0.0029892 -0.047389 -0.044324 -0.094222 -0.10769 -0.014942 0.11721 0.12793 0.088595 -0.02058 -0.31791 -0.48376 -0.38254 -0.12186 0.077883 0.32355 0.15473 0.0079174 0.019938 1.5695e-05 -0.0050582 -0.059805 -0.046246 -0.18793 -0.26585 -0.026046 0.10328 -0.081254 -0.23584 -0.44797 -0.6759 -0.61506 -0.29908 -0.039688 0.038418 0.2662 0.090595 0.0046061 0.017787 -0.00018909 -0.011756 -0.084166 -0.068237 -0.31292 -0.3835 -0.034704 -0.0085651 -0.33708 -0.59921 -0.68418 -0.53954 -0.28391 -0.087788 -0.059125 0.045471 0.21665 0.10879 0.041593 0.017632 0.00065768 -0.015416 -0.0939 -0.091461 -0.25393 -0.23312 0.049508 0.079568 -0.23097 -0.41208 -0.25377 -0.062868 0.038702 0.027951 0.032957 0.086618 0.11832 0.052437 0.051717 0.023076 0.0018452 -0.021266 -0.090514 -0.089141 -0.13695 0.020143 0.26064 0.40353 0.13634 -0.00049019 0.087839 0.1705 0.1345 0.072372 0.026663 -0.052754 -0.029386 -0.053727 -0.019543 0.011965 0.0011649 -0.011436 -0.079082 -0.069975 -0.00042903 0.17088 0.40074 0.4964 0.21634 -0.030246 0.032665 0.15976 0.13223 -0.03649 -0.16793 -0.16866 -0.11535 -0.11209 -0.054321 -0.0018795 0.00033908 -0.004144 -0.050164 -0.032713 0.12038 0.19921 0.24236 0.26694 0.078539 -0.12502 -0.046481 0.056797 0.031571 -0.060202 -0.1557 -0.13164 -0.12155 -0.12839 -0.06242 -0.0037383 0.00026396 -0.0019349 -0.032264 -0.006055 0.15299 0.17606 0.15151 0.14516 0.11652 0.069071 0.075695 0.029678 0.019946 -0.019962 -0.082911 -0.05594 -0.069626 -0.067121 -0.032676 0.003473 7.1383e-05 -2.113e-06 -0.013982 0.0091762 0.074463 0.060364 0.048704 0.091744 0.14924 0.18862 0.17163 0.088936 0.011509 -0.066347 -0.080041 -0.05243 -0.03818 -0.027399 -0.012245 0.00025173 5.5788e-05 -5.1869e-05 -0.0013195 0.0097511 0.015474 -0.019807 -0.037097 -0.01232 0.0047991 0.06432 0.074013 0.038773 -0.0099671 -0.03469 -0.042791 -0.027799 -0.010712 -0.0034196 -0.0022746 -0.00014348 7.0689e-05 3.2207e-05 0.00021771 -0.0013393 -0.012696 -0.025685 -0.022595 -0.014947 -0.0091492 -0.0077385 -0.007316 -0.0067895 -0.0063651 -0.0012675 -6.8372e-05 -0.0012294 -0.00047531 0.0002892 0.00016227 -4.693e-05 -9.3699e-07 5.2694e-05 -5.0289e-05 0.00017457 -0.0035032 -0.004114 -0.0028684 0.0007155 0.0005881 0.00036779 0.00047758 0.0012561 0.0016643 -0.00023917 0.00055779 0.0010727 -0.00013756 -8.6475e-05 -9.2146e-06 1.1123e-05 -0.14693
-1.0778e-05 -7.2878e-05 1.0288e-05 1.0821e-05 -2.3792e-05 -0.00044526 -0.0011006 -0.00086658 -9.8936e-05 4.0904e-05 -1.2694e-05 0.00027453 0.00075566 0.00049629 0.00023782 0.00034851 5.8568e-05 4.762e-05 -3.3108e-05 -4.4692e-05 -6.1232e-06 3.086e-05 4.0538e-05 0.00015523 0.00097754 0.0022256 -0.00591 -0.012965 -0.0054779 -0.0016879 0.001148 -0.0014517 -0.0070157 -0.002548 0.00017798 -0.0019933 -0.00015476 0.00079394 0.0002268 0.0001288 -3.6885e-05 5.5463e-05 3.2922e-05 -0.0035518 -0.01365 -0.033887 -0.058096 -0.066828 -0.054308 -0.042498 -0.029138 -0.03075 -0.047969 -0.070441 -0.07053 -0.045264 -0.019351 -0.0088204 0.00067218 -0.00047872 -6.2316e-05 0.00011749 0.00046312 -0.0067642 -0.031743 -0.071297 -0.08293 -0.077209 -0.067647 -0.067703 -0.057351 -0.070366 -0.065578 -0.074905 -0.11146 -0.090967 -0.07374 -0.055904 -0.02758 -0.0045953 -4.8277e-06 -6.8941e-05 0.0020912 -0.0026462 -0.053881 -0.077129 -0.092566 -0.074163 -0.023765 -0.012743 -0.020463 -0.034697 0.075003 0.16864 0.082022 -0.0014625 -0.094953 -0.14166 -0.080717 -0.0042765 0.00017315 0.0014363 0.0071156 -0.044054 -0.11853 -0.090847 -0.05396 0.01606 0.03705 0.0032762 0.014831 0.019515 0.14449 0.44178 0.39935 0.11459 -0.14749 -0.22546 -0.15358 -0.0063187 0.00042802 0.0064952 0.023231 -0.047321 -0.074504 0.089932 0.21466 0.21263 0.086227 0.017321 0.048747 0.14177 0.2787 0.66485 0.6248 0.1385 -0.16553 -0.15278 -0.17458 -0.01218 -7.1199e-05 0.012887 0.044647 -0.070514 0.019797 0.24772 0.29036 0.30147 0.19469 0.12525 0.19681 0.33955 0.51454 0.73639 0.62876 0.22809 0.088165 -0.017931 -0.2136 -0.01497 -0.00027196 0.020672 0.032335 -0.1047 0.1057 0.18874 0.15925 0.33135 0.37625 0.37178 0.3579 0.41726 0.44917 0.56322 0.52922 0.2921 0.3452 0.11711 -0.22065 -0.018621 -0.0014372 0.030585 0.044989 -0.020063 0.10891 -0.12505 0.049997 0.246 0.12651 0.050372 0.045009 0.14478 0.038464 0.18469 0.32431 0.22536 0.30959 0.16823 -0.19334 -0.027875 -0.0018299 0.042429 0.087478 0.12335 0.14527 -0.31623 -0.14295 -0.27111 -0.56001 -0.44344 -0.19482 -0.035727 -0.16604 0.076359 0.15809 0.028537 0.125 0.15611 -0.16626 -0.027997 -0.0018048 0.044721 0.11378 0.2318 0.11259 -0.39749 -0.39663 -0.61406 -0.64857 -0.40649 -0.23131 -0.2122 -0.10402 0.17446 0.13795 0.034709 0.080567 0.088659 -0.12946 -0.018033 -0.003242 0.044544 0.13065 0.2708 0.13557 -0.39458 -0.40634 -0.53317 -0.52726 -0.38587 -0.42094 -0.49195 -0.16061 0.12652 0.177 0.17538 0.13132 -0.0052454 -0.11904 -0.010394 -0.0025511 0.034059 0.12254 0.16488 0.076625 -0.28921 -0.2468 -0.33353 -0.37666 -0.37971 -0.44946 -0.40793 -0.23442 0.045982 0.14326 0.18288 0.080675 -0.046733 -0.080696 -0.011739 -0.0011859 0.017386 0.077083 0.10865 0.12208 -0.075723 -0.10287 -0.19155 -0.28546 -0.24168 -0.24591 -0.17462 -0.0083168 0.036022 0.063208 0.075328 -0.017862 -0.064036 -0.068675 -0.008399 -0.00031677 0.0061755 0.017496 0.069626 0.25193 0.28564 0.16455 -0.043142 -0.055505 0.0083749 0.014152 0.077596 0.20782 0.1908 0.13186 0.084022 0.021838 -0.047916 -0.057879 -0.017931 -8.0332e-05 0.0012518 -0.00052524 0.031151 0.23865 0.42522 0.3206 0.10068 0.082124 0.16708 0.18702 0.18498 0.25283 0.22943 0.15899 0.074802 0.014897 -0.020932 -0.018267 -0.0052294 -9.2617e-05 -2.1191e-06 -0.0027541 0.01634 0.15316 0.29436 0.24774 0.10275 0.080502 0.1217 0.12019 0.12271 0.14705 0.10399 0.061797 0.013196 -0.0073782 -0.0057343 -0.0029411 0.00079794 1.0912e-05 1.6692e-05 -0.00077476 0.0059676 0.040606 0.072429 0.060444 0.018604 0.008616 0.0080876 -0.0022309 0.010965 0.021774 0.0094849 0.00010741 -0.0040513 -0.00034598 0.00049803 0.00016033 2.7694e-05 5.751e-05 -4.7224e-05 -0.00013686 0.00021868 0.003939 0.0057628 0.0024005 5.8381e-05 0.0024787 0.00051416 -0.0008812 -0.000652 0.00094008 -0.0017683 -0.00013422 0.00079884 0.00045248 0.00010283 -4.8316e-05 -7.9815e-05 -0.41716
5.4796e-05 -2.6437e-05 2.6226e-05 -8.9546e-06 -5.3795e-05 0.00019928 -0.00059802 -9.288e-05 -4.1593e-05 -0.00048203 -0.00017439 -1.164e-05 -0.00038533 -0.00011003 -0.00021056 -0.00018091 -7.7143e-05 -4.5091e-05 -7.7952e-05 -3.8976e-05 3.4097e-05 5.1948e-05 -3.6844e-05 0.00018114 0.0005555 0.0010588 -0.0034441 -0.0051036 -0.0028472 -0.0027171 -0.00023745 0.0021896 0.0031063 -0.001799 -0.0013741 -0.00046083 5.6204e-05 -0.00044317 0.00013727 0.00010138 1.6969e-05 -7.3495e-05 -0.00028879 0.00094454 0.004633 0.010849 0.0047941 -0.015884 -0.029794 -0.030623 -0.028905 -0.0045159 0.032537 0.05335 0.050282 0.029953 0.018823 0.014965 0.0002717 -0.0013071 8.125e-05 -4.6906e-05 -0.0006823 0.0070725 0.022792 0.038016 0.016861 -0.031173 -0.086052 -0.11984 -0.1308 -0.090094 0.027185 0.15177 0.23191 0.16456 0.072002 0.013166 -0.019845 -0.0053331 -1.3173e-05 -0.00056891 0.00082362 0.036046 0.085526 0.073384 0.015626 -0.071863 -0.18168 -0.23583 -0.23241 -0.16116 -0.01811 0.085257 0.22559 0.26555 0.14593 -0.034186 -0.058454 -0.0036083 -8.3391e-06 0.00048295 0.0097946 0.064756 0.10931 0.073142 -0.041359 -0.17199 -0.34105 -0.37127 -0.24572 -0.11222 -0.003326 0.15809 0.21339 0.25547 0.13341 -0.07787 -0.11447 -0.0063675 0.000386 0.0047305 0.027878 0.085555 0.10895 0.062694 -0.046498 -0.23284 -0.40269 -0.36794 -0.15689 -0.047505 0.12049 0.40247 0.35444 0.1577 0.067538 -0.073012 -0.1301 -0.0099889 0.00061041 0.015829 0.073061 0.1455 0.14804 0.032168 -0.072216 -0.27461 -0.39499 -0.39107 -0.17826 -0.060935 0.22811 0.48892 0.41739 0.18857 0.10201 -0.067897 -0.13837 -0.0071495 0.0010043 0.022581 0.11332 0.24092 0.23428 0.02843 -0.12693 -0.3208 -0.35683 -0.22703 0.031154 0.12346 0.1816 0.32885 0.32769 0.18877 0.12275 -0.034103 -0.12053 -0.012313 -6.9045e-05 0.026533 0.17718 0.37498 0.33049 0.0013826 -0.060531 -0.16812 -0.095351 0.15318 0.40476 0.42539 0.086101 0.031596 0.15403 0.20501 0.19419 0.075473 -0.095371 -0.0091066 0.00035277 0.037916 0.2032 0.47637 0.37647 -0.0076115 0.006264 0.05952 0.19146 0.36763 0.43698 0.27094 -0.17958 -0.13939 0.176 0.23739 0.1354 0.025875 -0.086138 -0.0069727 0.0025021 0.039335 0.19431 0.50301 0.30382 -0.15461 -0.1875 -0.12172 -0.078023 0.015843 -0.11672 -0.33737 -0.36598 -0.012087 0.24173 0.1991 0.066858 -0.015375 -0.069193 -0.0088301 -0.0018038 0.044897 0.16741 0.39206 0.26445 -0.17047 -0.24313 -0.27186 -0.26122 -0.23765 -0.37192 -0.5001 -0.20454 0.17883 0.22481 0.13111 0.026841 -0.033745 -0.045958 -0.0034156 -0.0015086 0.026682 0.10127 0.23856 0.19177 -0.061219 -0.13651 -0.12458 -0.0032161 -0.12764 -0.27274 -0.24928 0.038379 0.24147 0.21448 0.10665 0.027149 -0.02882 -0.026023 -0.00086073 -0.0012238 0.012697 0.03905 0.020889 -0.0081863 -0.12808 -0.09163 0.057925 0.10737 0.015716 -0.090729 -0.019033 0.13851 0.16234 0.10916 0.00047751 -0.064521 -0.077667 -0.036047 -0.00036459 -0.00037486 0.0051981 -0.00084316 -0.11032 -0.14818 -0.13518 0.0029889 0.14294 0.1335 0.095101 0.0098099 0.077552 0.22352 0.20642 0.12436 0.022508 -0.045411 -0.06132 -0.02574 -0.0041135 1.7346e-05 0.0021924 -0.0077579 -0.11804 -0.19254 -0.13235 0.024223 0.13397 0.12442 0.098697 0.040497 0.061409 0.17082 0.19103 0.10744 0.029685 -0.011236 -0.025272 -0.013091 -0.0013905 2.1468e-05 0.0005431 -0.0029655 -0.04845 -0.12215 -0.1379 -0.049248 0.032755 0.06959 0.069639 0.04653 0.059848 0.10187 0.095278 0.047515 0.019533 -0.0037499 -0.0060376 -0.0037648 0.00065468 -3.1878e-05 -3.8028e-05 0.00036024 -0.0031739 -0.015922 -0.041539 -0.035198 -0.011886 0.014207 0.016828 0.0065571 0.025311 0.032126 0.017974 0.0060136 0.0087083 0.0032838 0.00039825 0.00015366 -4.627e-05 2.9322e-05 -6.7446e-06 3.901e-05 6.2859e-05 0.0054775 0.01124 0.0057949 -0.0021214 0.00067014 0.0013717 0.0013779 0.0031109 0.0042174 0.00044327 -0.00048167 -0.00038815 0.00034429 0.00011965 6.3255e-05 -1.2285e-05 -0.49954
-2.3105e-05 5.2311e-05 4.6469e-05 7.2448e-05 0.00010024 0.00034689 0.00025222 -0.00021179 3.2171e-05 -0.0002842 -0.00014447 -2.3365e-05 -0.0002952 -3.0283e-05 -0.00012843 -0.00033349 -1.9085e-05 4.7761e-05 1.4842e-05 1.8777e-06 -1.6396e-05 -2.9647e-05 1.1577e-05 -0.00045722 -0.00092055 -0.0012833 0.00068117 0.003894 0.0028787 0.0017344 -0.00060895 -0.0001631 0.0012381 -0.0024622 -0.0019472 0.0021216 -0.00016312 -0.00047314 -1.9128e-05 -4.6416e-05 -7.5609e-05 -2.7947e-05 -0.00011857 9.1738e-05 0.0060103 0.023921 0.032763 0.032975 0.019956 0.012156 0.0070892 0.011223 0.027068 0.043092 0.045964 0.031203 0.013197 0.0062901 0.00017566 9.0764e-05 6.0572e-05 -9.2559e-05 -0.0011194 0.012331 0.041018 0.08957 0.11473 0.0704 0.025871 0.00095632 0.022995 0.075143 0.14357 0.16785 0.15228 0.11446 0.051616 0.025305 0.0061988 0.00099002 8.3243e-05 -0.0002023 0.0020813 0.035964 0.10333 0.19075 0.1969 0.065379 -0.026619 -0.023695 0.066551 0.18359 0.2328 0.22734 0.17808 0.1106 0.049687 0.035244 0.021769 0.0022173 -0.0005848 -0.0029907 0.0078925 0.06572 0.17847 0.24455 0.1638 -0.015536 -0.10202 -0.047262 0.12117 0.24713 0.1617 0.13634 0.081517 -0.031322 -0.011786 0.095065 0.057681 0.0041024 -0.001556 -0.011307 0.010274 0.097275 0.20742 0.20759 0.021994 -0.15184 -0.19137 -0.048771 0.13103 0.15076 -0.035868 -0.18922 -0.1449 -0.097542 -0.038595 0.08057 0.07489 0.0052543 -0.0011157 -0.016729 0.012575 0.15174 0.24445 0.1714 -0.019976 -0.22238 -0.24384 -0.057097 0.16624 0.14535 -0.15715 -0.38622 -0.30485 -0.15243 0.019176 0.092324 0.10331 0.0076806 -0.00090409 -0.011346 0.03099 0.17747 0.21221 0.15569 -0.00054241 -0.21719 -0.25178 -0.14171 0.088955 0.07621 -0.15475 -0.25979 -0.21724 -0.093021 0.12438 0.15319 0.11254 0.0087575 -0.00075048 -0.009514 0.031165 0.14654 0.12945 0.1641 0.0023251 -0.22717 -0.34045 -0.3695 -0.26593 -0.23302 -0.23876 -0.13572 -0.10091 -0.10141 0.077115 0.14007 0.11067 0.0068576 0.00030541 -0.030796 -0.051191 0.04145 0.072401 0.19368 0.077256 -0.14837 -0.35086 -0.57004 -0.49 -0.29048 -0.075782 -0.030398 -0.13076 -0.13728 -0.00011053 0.12113 0.089153 0.0099456 0.0030888 -0.030621 -0.095471 -0.069029 0.071563 0.33289 0.34558 0.25744 -0.0031831 -0.18936 -0.01846 0.24723 0.36998 0.14004 -0.068189 -0.12144 -0.055693 0.055303 0.070709 0.011774 0.0038394 -0.04302 -0.09252 -0.1467 -0.025932 0.33384 0.4706 0.49881 0.25788 0.13187 0.26995 0.41792 0.34556 0.10117 -0.045293 -0.086978 -0.050547 0.012319 0.044846 0.0084598 0.0029827 -0.032865 -0.12695 -0.25166 -0.18472 0.1548 0.35288 0.42976 0.2497 0.080086 0.21001 0.33201 0.19207 -0.026671 -0.060967 0.017694 0.025566 0.010045 0.021465 0.0038446 0.00085602 -0.014127 -0.09753 -0.24632 -0.15961 0.12036 0.30582 0.35212 0.19165 0.0031984 0.056069 0.11405 0.027866 0.016091 0.11119 0.15217 0.053373 0.0089502 0.010607 0.0027103 0.00026651 -0.0047964 -0.05063 -0.1449 -0.090968 0.04501 0.21843 0.24417 0.12518 0.030657 -0.0069049 -0.011888 0.056282 0.12963 0.13921 0.13458 0.042978 0.018431 0.010099 0.0054865 -3.0015e-05 0.0005292 -0.017422 -0.068294 -0.073491 -0.015702 0.078913 0.11187 0.056016 0.015787 0.010682 0.021689 0.071166 0.066217 0.047926 0.048747 0.017564 0.0071131 0.0010375 0.0011632 -7.3586e-05 0.00056256 0.0033955 -0.0073681 -0.027718 -0.024603 -0.0012693 0.010828 -0.018327 -0.025581 -0.0073026 0.032951 0.056162 0.035556 0.0077578 -0.0037781 -0.00063019 0.00072067 -0.00028514 -0.00021724 4.5656e-05 4.3259e-05 0.00029753 0.0011063 -0.0050078 -0.0044424 -0.00027751 -0.0063443 -0.0022666 -0.0056109 -0.0093143 0.013642 0.024299 0.014326 -0.00055535 -0.010085 -0.002679 0.00015229 8.8015e-05 -2.9073e-05 -8.918e-06 -3.198e-05 -9.8085e-05 0.0002394 -0.0028446 -0.00045314 0.00075981 0.00041294 0.00011844 0.0010472 0.0029796 0.0051245 0.005123 -0.0015918 3.7073e-05 0.00087453 0.00018872 -8.761e-05 2.8285e-05 -7.7619e-05 -0.2422
-6.989e-05 -2.0196e-05 -4.5415e-05 4.6042e-05 -0.00017582 9.4509e-05 0.0014809 0.00072195 -0.00012121 -0.00049922 -0.00019252 6.5262e-05 0.00013339 0.00017268 0.00039056 0.00020536 0.00011753 1.0536e-05 7.5653e-05 -4.6991e-05 -7.9992e-05 -3.2527e-05 6.4676e-05 1.0377e-05 0.00040905 0.0044089 0.0075234 0.012153 0.0094966 0.0031549 -0.00040154 -0.0012019 -0.0021347 -0.0014668 -0.0048224 -0.0025302 -0.00096999 0.00013318 6.101e-06 3.1447e-05 -7.2784e-05 1.2008e-05 -2.7759e-06 -0.00079905 -0.0030053 0.0046683 0.021715 0.050087 0.051258 0.017629 0.0050963 0.0041203 -0.0017141 -0.0064252 0.0020119 0.01483 0.00064253 -0.0044195 -0.0013349 -0.00048593 -3.0042e-05 1.8745e-05 -0.00020961 0.004764 0.0089877 0.043499 0.073351 0.07576 0.025707 -0.019041 -0.022517 -0.011053 0.0071101 0.01939 0.036636 0.046016 0.020155 -0.0072468 0.0023634 0.0018642 7.2647e-05 -0.00028208 0.0015742 0.019729 0.040937 0.077972 0.078618 0.0080709 -0.084828 -0.14727 -0.11317 -0.0026137 0.035604 -0.024174 -0.022819 0.025456 0.026227 0.0019135 0.018195 0.0077998 -1.7231e-06 0.00017398 0.0098543 0.034983 0.047909 0.04421 0.051588 0.008848 -0.12782 -0.21354 -0.095416 0.10258 0.051421 -0.14407 -0.19611 -0.037373 0.032492 -0.00038128 0.053784 0.017731 0.00013736 0.0025554 0.032004 0.084289 0.026055 -0.052954 0.047572 0.044246 -0.12155 -0.22636 -0.10894 0.13109 0.069279 -0.10358 -0.16865 -0.076391 -0.071401 -0.042589 0.093564 0.028348 -1.2137e-05 0.0073048 0.066441 0.10519 -0.071075 -0.12493 0.028231 -0.050847 -0.33459 -0.53645 -0.35887 -0.049163 -0.010661 0.0594 0.10078 0.014306 -0.2405 -0.10777 0.14035 0.048525 0.00013358 0.011739 0.091343 0.11155 -0.16093 -0.17942 0.020381 -0.11914 -0.62056 -0.86373 -0.56406 -0.14313 0.04311 0.29003 0.42536 0.11482 -0.46479 -0.21506 0.14314 0.060482 -0.0008075 0.023001 0.13806 0.16212 -0.21202 -0.15687 0.17748 -0.023566 -0.47769 -0.63541 -0.34899 0.029585 0.27302 0.44087 0.50888 0.074515 -0.53478 -0.26595 0.12957 0.06902 -0.0017172 0.038951 0.20082 0.17658 -0.25673 -0.087396 0.34008 0.25014 0.0082923 -0.16577 -0.032579 0.17206 0.29162 0.37302 0.41418 0.029124 -0.33969 -0.1578 0.13913 0.057827 -0.0018372 0.050746 0.23583 0.14225 -0.29312 -0.12504 0.23632 0.2712 0.11496 -0.118 -0.094103 -0.0028605 -0.02428 0.082277 0.20852 -0.0061383 -0.21752 -0.082256 0.12713 0.048151 -0.0045116 0.057865 0.23203 0.13231 -0.22514 -0.12731 0.12191 0.15433 0.0046877 -0.11114 0.0088238 0.039816 -0.069274 0.02508 0.022089 -0.16722 -0.29727 -0.10957 0.069123 0.029708 -0.0031685 0.03788 0.17841 0.14549 -0.10478 -0.10697 0.0036566 -0.010897 -0.064236 0.048141 0.13099 0.08978 0.049157 0.032616 -0.031514 -0.20879 -0.29234 -0.13186 0.00014594 0.0046086 -0.0010481 0.019402 0.10606 0.11978 -0.095146 -0.18513 -0.16021 -0.12487 -0.01269 0.15491 0.21252 0.16798 0.13704 0.045781 -0.0024183 -0.10292 -0.17389 -0.11253 -0.030945 0.00037802 -0.00028352 0.007474 0.028883 0.0072385 -0.13175 -0.26549 -0.32009 -0.16815 0.039538 0.14065 0.19619 0.16545 0.089319 0.050709 0.033768 -0.016677 -0.060748 -0.068839 -0.017748 0.007942 -9.6943e-05 0.0022728 -0.0026939 -0.035215 -0.16554 -0.34466 -0.37732 -0.18613 -0.0043316 0.065709 0.080232 0.084897 0.10041 0.10431 0.068839 0.0008079 -0.021808 -0.024022 -0.0077242 0.0018845 1.5005e-07 0.00071975 -0.0051838 -0.023877 -0.11763 -0.26167 -0.30105 -0.13116 -0.021882 0.019668 0.024257 0.03357 0.079368 0.088495 0.054035 0.018858 -0.00089023 -0.0024977 -0.0011633 -0.00023523 3.5943e-06 -4.4786e-06 0.00020619 -0.0054009 -0.035215 -0.085914 -0.095275 -0.041652 -0.0081023 0.0052296 0.011966 0.030395 0.038931 0.022499 0.016923 0.0091968 0.0021415 0.0002172 0.00013356 5.3771e-05 -4.8203e-07 -3.1026e-05 3.7794e-05 0.00012917 -0.0027299 -0.0069499 -0.0053429 -0.00086295 -0.0015095 0.0001653 0.00072838 0.0026257 0.0030033 -0.00022818 0.00077037 -9.818e-05 2.3915e-05 -1.0881e-05 -3.1076e-06 4.6869e-05 0.070837
9.3886e-06 7.7946e-05 5.9536e-05 -4.0913e-07 4.8236e-05 -0.00063388 -0.0016286 -0.00032551 0.00057258 0.0016932 0.00054978 9.7684e-05 0.00087919 0.0012905 0.00099317 0.00036311 0.00014975 1.3745e-05 5.6036e-05 -2.5381e-05 -7.0071e-05 -2.6861e-05 4.0447e-06 0.00015608 0.00055408 0.00094837 -0.0082718 -0.021427 -0.0090545 -0.0025121 0.002089 -0.0022192 -0.0094945 -0.013869 -0.01022 -0.0037268 -0.00040086 0.00080078 0.00013065 -2.8381e-05 -2.9906e-05 -4.4452e-05 9.4297e-05 -0.0017779 -0.010353 -0.033828 -0.055098 -0.085307 -0.058531 -0.019922 0.016415 -0.0023388 -0.037172 -0.059619 -0.055761 -0.025552 -0.014627 -0.013548 6.0277e-06 3.8194e-05 1.5768e-05 3.9378e-05 0.00075521 0.00026444 -0.013297 -0.057552 -0.087887 -0.11428 -0.050342 -0.0012176 0.041022 0.011108 -0.03234 -0.049959 -0.080776 -0.072803 -0.062658 -0.048438 -0.0094577 -0.00052738 7.1208e-05 -0.00039455 0.0029189 0.02517 0.0063287 -0.064729 -0.14212 -0.15484 -0.050533 0.034213 0.1653 0.19308 0.1264 0.018129 -0.098122 -0.12836 -0.13826 -0.10244 -0.043922 -0.0024034 0.00019346 -0.00038803 0.013641 0.04407 0.052426 -0.050588 -0.15284 -0.17424 -0.088319 0.025366 0.27373 0.39787 0.26009 0.045981 -0.14048 -0.17697 -0.2235 -0.23725 -0.11477 -0.009728 7.8829e-05 0.0024886 0.037934 0.11748 0.15386 0.038386 -0.1385 -0.1701 -0.017955 0.08387 0.16482 0.31391 0.29404 0.25312 -0.016082 -0.22894 -0.34275 -0.27972 -0.13756 -0.013334 -5.8098e-05 0.0031229 0.058013 0.16338 0.15069 -0.063265 -0.27721 -0.18957 0.066633 0.32697 0.39319 0.29292 0.25692 0.34699 0.10125 -0.12735 -0.3562 -0.30691 -0.20846 -0.019771 -0.00047417 0.0068366 0.062648 0.15288 0.041457 -0.40924 -0.52181 -0.22653 0.0099959 0.36294 0.59451 0.50317 0.39336 0.41824 0.22107 -0.032094 -0.37519 -0.35041 -0.22442 -0.01633 -0.0011396 0.015156 0.068133 0.17566 -0.1951 -0.88133 -0.63704 -0.34574 -0.20635 0.0924 0.37225 0.46278 0.41085 0.34772 0.22453 0.068806 -0.31412 -0.28108 -0.19915 -0.026013 -0.0015162 0.022702 0.086011 0.16645 -0.4086 -1.1048 -0.75703 -0.46415 -0.2981 0.019602 0.27405 0.42584 0.3268 0.29483 0.25004 0.01366 -0.22091 -0.15319 -0.13134 -0.039855 -0.0020908 0.030949 0.10307 0.19488 -0.32559 -0.92386 -0.59734 -0.28189 0.0032514 0.14286 0.2804 0.3956 0.28559 0.2774 0.24104 -0.032425 -0.1875 -0.16403 -0.14776 -0.034283 -0.0029199 0.033588 0.12836 0.24631 -0.04906 -0.55347 -0.47802 -0.2425 -0.036021 0.12637 0.16662 0.10862 0.050816 0.014115 0.044864 0.073942 -0.036272 -0.17313 -0.2259 -0.024532 -0.0022627 0.025843 0.15274 0.19176 0.060386 -0.3459 -0.4186 -0.35785 -0.24249 0.0010766 0.042904 -0.081761 -0.14456 -0.081259 0.060534 0.17675 0.028766 -0.10581 -0.13327 -0.013247 -0.00086676 0.012901 0.13224 0.19978 0.10779 -0.17136 -0.24903 -0.2734 -0.23688 0.0039977 0.049896 -0.06492 -0.025554 0.0048311 0.095744 0.10739 -0.010686 -0.060381 -0.054389 -0.010248 -0.00046541 0.0061008 0.056664 0.11664 0.18402 0.093157 -0.099732 -0.20165 -0.15225 -0.0065036 0.067869 0.0052016 -0.030803 0.045736 0.13779 0.090771 0.0099806 -0.049705 -0.052764 -0.024567 -6.3153e-05 0.00096909 0.0063257 0.057222 0.14582 0.043625 -0.12406 -0.17761 -0.11972 -0.017875 0.029981 0.037911 0.096115 0.14154 0.15636 0.083114 0.023193 0.0049832 -0.003876 -0.0069812 -4.8636e-05 0.00036283 -0.0098711 0.0027905 0.028236 -0.078415 -0.16535 -0.084572 -0.0099866 0.032668 -0.0082594 0.0062557 0.090205 0.09392 0.083432 0.030774 0.0041999 0.005071 0.0023219 0.00050636 1.9525e-05 1.6097e-05 -0.00019497 -0.000248 -0.0042719 -0.045799 -0.060528 -0.025097 -0.0060347 -7.8235e-05 -0.0073131 0.0014924 0.020936 0.016617 0.014379 0.0063804 0.0019227 -0.00027631 -0.00018733 3.2496e-05 -5.6714e-05 6.8473e-05 7.2259e-05 2.243e-05 0.00061812 -0.0016878 -0.0023765 -0.0011011 -0.0012002 -0.00081028 -0.00075379 -0.0011566 -0.0012254 -0.0016051 0.00098266 5.3596e-05 0.00017918 0.00015362 -5.9388e-05 7.93e-05 0.013787
-3.7285e-05 1.737e-05 6.7053e-05 -4.1865e-05 -2.5432e-05 0.00037606 -0.00044679 -0.00079843 -0.00019527 -0.00059789 -0.00017044 -5.1128e-05 -5.6431e-05 -1.7249e-05 -0.00010263 -0.00018508 -4.2181e-05 3.1376e-05 -7.9925e-05 4.0872e-05 1.4993e-05 2.6812e-05 -6.6427e-05 1.7074e-05 0.00053528 -5.9516e-05 -0.0040047 -0.0077299 -0.0048442 -0.003481 -0.00052277 0.0015856 0.0012017 -0.00083322 0.00037681 0.00040204 0.00012555 -0.00042211 4.7878e-05 0.00010497 -6.5955e-05 1.7305e-05 -9.6992e-05 -0.00028919 0.0007221 -0.0024248 -0.017691 -0.037965 -0.044818 -0.034664 -0.030821 -0.020845 0.0025584 0.0171 0.014834 0.010409 0.0095782 0.012262 0.0013331 -0.0007651 -3.2812e-05 7.4779e-05 0.00016084 -0.0017765 -0.0071381 -0.021992 -0.045594 -0.078949 -0.096355 -0.096206 -0.10217 -0.094394 -0.022544 0.065891 0.12016 0.093922 0.043193 0.010525 -0.02028 -0.0055718 2.8332e-05 -0.00013704 0.0010623 0.0016755 -0.0077269 -0.027629 -0.056991 -0.067037 -0.085265 -0.09273 -0.14603 -0.19236 -0.05221 0.15498 0.29313 0.2536 0.090502 -0.052221 -0.061971 -0.0053593 0.00028275 0.0016754 0.0037615 0.0053786 0.0027912 -0.0068279 -0.028184 -0.021606 -0.040548 -0.052455 -0.1396 -0.24486 -0.10531 0.31786 0.48643 0.35297 0.071777 -0.097631 -0.11013 -0.0065358 0.00074691 0.0064807 0.013965 0.016705 0.055527 0.083951 0.078659 0.050168 -0.023573 0.022334 0.065632 -0.06867 -0.056068 0.36511 0.5379 0.30624 0.088708 -0.039223 -0.11034 -0.010357 0.00061541 0.014441 0.03755 0.053326 0.12709 0.10998 0.069127 0.042983 0.061129 0.13253 0.22785 0.094187 0.052715 0.27733 0.44312 0.30391 0.25986 0.036791 -0.12038 -0.010401 0.0010278 0.018622 0.056956 0.11248 0.17957 0.068813 0.00015412 0.050059 0.22726 0.35035 0.28528 0.077311 -0.075106 0.08651 0.31973 0.30368 0.37663 0.1267 -0.11541 -0.019105 8.6901e-05 0.023343 0.10171 0.21202 0.23126 -0.028012 0.0031718 0.14812 0.24188 0.34136 0.21425 0.027595 -0.28795 -0.13856 0.17867 0.25284 0.37117 0.18653 -0.080618 -0.024711 -0.00042473 0.035028 0.13246 0.32715 0.3018 -0.019855 0.086596 0.13498 0.016489 0.064615 0.013263 -0.17729 -0.44432 -0.18708 0.098498 0.18162 0.24573 0.15189 -0.087554 -0.018921 0.00022883 0.033105 0.12775 0.35553 0.27988 -0.05165 -0.036032 -0.14139 -0.33277 -0.26001 -0.2789 -0.47714 -0.36823 -0.0018483 0.15024 0.21099 0.18289 0.10876 -0.050142 -0.010379 -0.0015819 0.03925 0.10437 0.26024 0.22204 -0.07022 -0.084522 -0.31537 -0.4998 -0.43185 -0.45539 -0.5318 -0.19429 0.17617 0.29474 0.25299 0.13599 0.022902 -0.028045 -0.0048896 -0.0012835 0.026244 0.051789 0.10993 0.12343 -0.0062244 0.013069 -0.23514 -0.35743 -0.38908 -0.41855 -0.33351 -0.090793 0.22031 0.30015 0.21221 0.076129 -0.011966 -0.027318 -0.0072244 -0.0010981 0.013039 0.0010477 -0.034177 0.057497 0.096537 0.056886 -0.16912 -0.31922 -0.26905 -0.20519 -0.082731 0.065002 0.17511 0.18958 0.076897 -0.020511 -0.049262 -0.040495 -0.0020867 -6.8693e-05 0.0038734 -0.018772 -0.049012 0.048183 0.19007 0.19398 -0.059985 -0.16302 -0.077674 -0.04272 0.073821 0.22678 0.24149 0.14879 0.052046 -0.0056073 -0.034474 -0.026883 -0.0068317 8.0661e-06 0.0005908 -0.0051375 -0.030954 0.056375 0.31301 0.32806 0.090633 0.023503 0.051547 0.053179 0.069069 0.12742 0.15538 0.092948 0.035811 -0.0015106 -0.020947 -0.011274 -0.0023492 -1.5612e-05 -0.00024986 0.0011327 -6.8906e-05 0.082869 0.26938 0.31906 0.1233 0.048498 0.052743 0.066495 0.069476 0.054743 0.040874 0.018199 7.9273e-05 -0.007117 -0.0053393 -0.0029706 0.00058578 3.0631e-05 -0.0001306 0.00022471 0.0033932 0.039327 0.099287 0.10986 0.040724 0.015629 0.0082894 0.0067759 0.016005 0.016099 0.0045138 -0.00048534 -0.001727 -0.00030668 0.00049219 0.00022502 1.7675e-05 3.2634e-05 -7.1378e-05 -0.0001004 -0.00024572 0.0063874 0.014222 0.011694 0.0013333 0.0023862 0.00029519 0.00028896 0.0018901 0.0031767 -0.00033158 7.0377e-05 0.00060468 0.00017613 1.3953e-05 -6.5863e-05 3.1327e-05 -0.37571
-6.0685e-05 -2.6679e-05 -3.219e-05 -8.3223e-05 -6.9666e-05 0.0002412 -0.00076619 -0.00035121 -0.00011683 -0.00044704 -0.00022213 -2.4105e-05 -0.00035372 -9.6186e-05 -0.00024338 -0.00010835 -6.2784e-05 3.079e-05 2.4388e-05 -1.4247e-05 -8.9044e-06 5.83e-05 1.0198e-05 0.00021751 0.00072381 0.00077472 -0.0043528 -0.0067308 -0.0036069 -0.0027756 -9.3949e-05 0.0023123 0.0028266 -0.0014963 -0.0010531 -0.00066533 7.9161e-05 -0.00041297 0.00012885 3.1154e-05 -5.4396e-05 -9.1291e-06 -0.00030061 0.00036289 0.0022948 0.0036598 -0.0077084 -0.031358 -0.041312 -0.038297 -0.034725 -0.012721 0.023482 0.047292 0.048917 0.030595 0.020345 0.01549 0.00048421 -0.0012498 -6.8418e-05 -3.2482e-05 -0.0002202 0.0058342 0.013459 0.020466 -0.014046 -0.06945 -0.11198 -0.11683 -0.11287 -0.094182 0.0028204 0.14209 0.24823 0.18645 0.076888 0.0067697 -0.021177 -0.00517 -7.1528e-05 -0.00063663 0.0015587 0.037086 0.080151 0.057767 -0.028212 -0.11501 -0.18407 -0.21466 -0.20842 -0.16348 -0.056614 0.056514 0.23754 0.30079 0.15528 -0.050209 -0.066517 -0.0042959 0.0002442 0.0018561 0.011168 0.057469 0.099123 0.042156 -0.094156 -0.19206 -0.32173 -0.35982 -0.25521 -0.14458 -0.024978 0.16894 0.24536 0.29966 0.1352 -0.11161 -0.13752 -0.0075418 0.001156 0.010286 0.032036 0.081086 0.1192 0.056248 -0.059731 -0.21724 -0.37142 -0.33433 -0.1521 -0.047091 0.13444 0.44246 0.41821 0.2309 0.10165 -0.094691 -0.15928 -0.012155 0.0014727 0.024814 0.08435 0.16081 0.19361 0.064947 -0.050455 -0.21631 -0.29542 -0.26861 -0.11499 -0.061215 0.22659 0.51053 0.50135 0.31189 0.18796 -0.069584 -0.1799 -0.012934 0.0015105 0.029188 0.12378 0.2786 0.31466 0.066444 -0.11988 -0.24288 -0.22419 -0.10791 0.044846 0.051932 0.098521 0.31217 0.42292 0.33298 0.22292 -0.045668 -0.16866 -0.020196 -0.00011578 0.031647 0.21004 0.45713 0.41011 -0.018011 -0.089932 -0.14721 -0.052653 0.17133 0.32772 0.2677 -0.094957 -0.04084 0.23691 0.33747 0.2766 0.047881 -0.14378 -0.017065 0.00015189 0.058247 0.25785 0.58091 0.46212 -0.035621 -0.068023 -0.0097758 0.15738 0.349 0.35245 0.13507 -0.3504 -0.18569 0.25258 0.34754 0.18515 -0.0020773 -0.12519 -0.014434 0.0012265 0.054152 0.24804 0.6227 0.42202 -0.18075 -0.31847 -0.23427 -0.099385 0.0087974 -0.18027 -0.44493 -0.47854 -0.0085318 0.32685 0.30011 0.092718 -0.04413 -0.09746 -0.01369 -0.0037745 0.061185 0.22642 0.5102 0.3662 -0.23071 -0.41359 -0.40816 -0.28716 -0.22552 -0.41238 -0.60547 -0.24864 0.22588 0.30664 0.18711 0.018361 -0.069464 -0.068274 -0.0057509 -0.0029047 0.040831 0.15532 0.33911 0.25377 -0.16525 -0.30224 -0.25116 -0.030963 -0.086614 -0.24278 -0.24064 0.092383 0.32726 0.28717 0.14987 0.019894 -0.050997 -0.038432 -0.0022555 -0.0018292 0.021872 0.07816 0.096609 0.019417 -0.23767 -0.24587 -0.055623 0.065444 0.056236 0.0059078 0.075704 0.22713 0.23897 0.15992 0.013822 -0.076731 -0.094396 -0.044951 -0.0016655 -0.0005468 0.0086326 0.016876 -0.068747 -0.13619 -0.2143 -0.12441 0.054982 0.12719 0.14117 0.090591 0.14938 0.28617 0.25939 0.14525 0.011797 -0.054535 -0.067788 -0.032663 -0.0063537 -0.0001709 0.0026619 0.0011409 -0.094096 -0.18291 -0.18017 -0.047263 0.10332 0.1546 0.16997 0.12408 0.11871 0.19842 0.20464 0.10232 0.0099409 -0.020593 -0.026381 -0.015423 -0.0023115 7.056e-05 0.00041448 -0.0011573 -0.042943 -0.12364 -0.16124 -0.073495 0.033813 0.092251 0.11728 0.098964 0.087883 0.10619 0.097744 0.041616 0.007337 -0.0092707 -0.0055586 -0.0038462 0.00067059 -6.7981e-05 8.5538e-05 0.00013081 -0.0038978 -0.019735 -0.053901 -0.044875 -0.014216 0.010822 0.016733 0.010562 0.026491 0.032138 0.016101 0.005503 0.0071991 0.002748 0.00033792 0.00018965 4.2101e-05 -4.8705e-05 3.2372e-05 6.2753e-05 7.8048e-05 0.0061556 0.011163 0.0052824 -0.0020318 0.00089117 0.0011392 0.00067067 0.0026869 0.0040319 0.0001417 -0.00027977 9.469e-06 0.00047797 0.00015411 5.1323e-05 4.6128e-05 -0.52811
3.2929e-05 7.0587e-05 3.6611e-05 7.0864e-05 -5.1431e-05 -0.00030168 -0.0005501 -0.00030007 2.1306e-05 -0.00016064 -5.6756e-05 -1.1283e-05 2.679e-05 4.4231e-05 -3.8739e-05 2.7475e-05 -1.7729e-05 6.5793e-05 -2.3054e-05 -7.3269e-05 7.0348e-05 4.328e-05 -4.1973e-05 -1.2303e-05 -7.5424e-05 -0.00079292 -0.0024903 -0.003283 -0.0022822 -0.00080579 -2.3795e-05 0.00023021 4.5806e-05 -0.00067552 -0.00013443 0.00013384 -8.853e-05 -0.00010046 1.7522e-05 8.755e-05 -2.1129e-05 -8.4319e-06 5.4351e-05 6.6223e-05 0.00027185 -0.0020028 -0.0094758 -0.016782 -0.015754 -0.0094228 -0.0069424 -0.0028642 0.0018488 0.0054061 0.0072386 0.0051142 0.0022386 0.0010178 0.00010874 -7.6284e-05 4.0856e-06 -5.8741e-06 -2.093e-05 0.001118 0.0020695 -0.009514 -0.031124 -0.04717 -0.041586 -0.028513 -0.015602 -0.00013255 0.02633 0.04856 0.051668 0.036499 0.014577 0.0019099 -0.0017121 -0.0004647 -7.5625e-05 -7.1252e-05 0.00022776 0.0039886 0.0059197 -0.018742 -0.067335 -0.090413 -0.072574 -0.055582 -0.042796 -0.012935 0.058856 0.11686 0.12974 0.10076 0.044514 -0.00029706 -0.012736 -0.0034511 -4.8317e-05 -0.00015149 0.0010477 0.0069068 0.012782 -0.037404 -0.13505 -0.17953 -0.17194 -0.16807 -0.14708 -0.086641 0.033482 0.1542 0.19097 0.15113 0.050182 -0.026465 -0.045216 -0.0096534 3.9299e-05 -0.00058316 0.0019868 0.015272 0.029746 -0.05592 -0.20948 -0.27456 -0.26326 -0.23316 -0.2002 -0.15417 -0.020599 0.11251 0.14935 0.10162 -0.010248 -0.085556 -0.083052 -0.015174 1.3704e-05 -0.0009696 0.0058181 0.034783 0.058829 -0.082071 -0.27432 -0.30721 -0.20774 -0.12519 -0.1408 -0.18165 -0.10456 -0.026889 -0.013052 -0.024175 -0.077155 -0.14058 -0.10977 -0.019846 -0.00012215 -0.00055456 0.0089134 0.055417 0.077939 -0.12489 -0.31473 -0.23158 -0.038254 0.026823 -0.10707 -0.26836 -0.26549 -0.22 -0.21262 -0.15894 -0.10075 -0.13427 -0.10583 -0.021671 -2.9509e-05 -0.0004851 0.011304 0.069388 0.07021 -0.18967 -0.33344 -0.1813 -0.049441 -0.096319 -0.29976 -0.4586 -0.47082 -0.41656 -0.34956 -0.21991 -0.11794 -0.12519 -0.10131 -0.022437 9.078e-05 -0.0012769 0.0071382 0.072118 0.05449 -0.24257 -0.36032 -0.2637 -0.24814 -0.33177 -0.47669 -0.58517 -0.57952 -0.4782 -0.34541 -0.1937 -0.1393 -0.13425 -0.097954 -0.019302 0.00029683 -0.0020114 0.0035495 0.070448 0.041051 -0.27546 -0.41035 -0.36324 -0.36361 -0.42566 -0.51214 -0.55327 -0.47349 -0.32035 -0.18652 -0.099999 -0.10792 -0.11577 -0.078759 -0.013872 0.00016285 -0.0017888 0.0008398 0.034744 -0.0026878 -0.286 -0.42968 -0.42024 -0.43795 -0.47983 -0.49509 -0.4317 -0.26096 -0.093785 -0.014463 -1.1158e-05 -0.04551 -0.078616 -0.04878 -0.0077431 -3.9338e-05 -0.00033759 -0.0025278 -0.020992 -0.048189 -0.22213 -0.32927 -0.34808 -0.37451 -0.38721 -0.32555 -0.19832 -0.046258 0.048599 0.059179 0.032832 -0.020193 -0.045151 -0.020223 -0.0023316 8.5632e-05 0.00062027 -0.004952 -0.03682 -0.03292 -0.092373 -0.14696 -0.16872 -0.17437 -0.15308 -0.10511 -0.032782 0.048576 0.07943 0.066012 0.030498 -0.014714 -0.024829 -0.010712 -0.00080681 4.8155e-05 0.00032275 -0.0037607 -0.018953 -0.0093798 -0.0057268 -0.0084524 -0.0089721 0.0043186 0.016951 0.0090741 0.031228 0.07067 0.073224 0.050616 0.020034 -0.0043794 -0.0098463 -0.0056739 -0.00094352 1.9501e-05 0.00014503 -0.00071005 -0.011145 -0.011907 0.013886 0.03163 0.041203 0.050227 0.053593 0.04459 0.044233 0.052544 0.043068 0.024175 0.0084383 -0.00055862 -0.0035853 -0.0015388 -0.00030093 5.2098e-05 0.00011224 0.00016812 -0.0030232 -0.003386 0.014606 0.026245 0.017843 0.019851 0.024473 0.023469 0.022149 0.0214 0.01312 0.004411 0.00010331 -0.00097109 -0.00057395 -0.00013614 5.1316e-06 3.5434e-05 -5.0092e-05 -5.4867e-05 0.00032793 0.0016923 0.005227 0.0058667 0.0012858 0.00055227 -0.00067689 -0.0021006 -0.00026487 0.002046 0.0012044 0.00024931 -0.0003013 6.9483e-05 2.8097e-06 1.3975e-05 1.6561e-05 2.9254e-05 -2.0074e-05 6.3375e-06 -0.0001077 0.00038014 0.00064439 0.00036308 0.00011193 0.00031437 0.00018137 0.00018942 7.3051e-05 8.8121e-05 -0.00048712 -3.6413e-05 8.3872e-06 -1.4692e-05 -2.424e-05 -2.3005e-05 1.6159e-05 -0.7144
-2.3247e-06 6.5712e-05 -2.6446e-05 7.7632e-05 3.2258e-05 -1.8014e-05 0.0002534 0.00028838 0.00024258 1.9971e-05 -1.8786e-05 9.232e-05 7.0656e-05 -3.69e-05 -4.2921e-05 1.6406e-05 1.0904e-05 -5.8061e-05 -6.3945e-05 -1.8137e-05 -6.6772e-05 6.1514e-05 4.4138e-05 -4.3424e-05 0.0001299 0.00061051 0.0016191 0.002853 0.0023316 0.00081832 -0.00010639 -0.0004673 -0.0011055 -0.00012454 -0.00012093 -0.00036216 -0.00024909 7.1628e-06 -4.0479e-05 -5.1527e-05 -7.6255e-05 1.7692e-05 -7.4493e-06 -0.00019247 -0.00097269 -0.0016559 0.0029526 0.011517 0.012544 0.0071749 0.0053015 0.0040705 7.474e-05 -0.00037915 0.0011532 0.0010252 -0.001039 -0.0012861 -7.5863e-05 2.8325e-06 5.2105e-05 8.0712e-05 0.00010975 -0.00012234 -0.00092963 0.0024012 0.016114 0.028631 0.027276 0.018403 0.012358 0.011736 0.0089709 0.0071088 0.0063978 0.0043696 -9.7723e-05 -0.002381 0.00098458 0.00050529 -5.3581e-05 5.0319e-05 0.0002365 0.00093221 0.00089442 0.012344 0.032082 0.040734 0.034691 0.022139 0.023528 0.030786 0.010622 -0.0047913 0.005492 0.012331 0.001595 -0.00086041 0.0047651 0.0016803 9.4925e-05 0.00020218 0.0013659 0.0018184 0.0050583 0.023492 0.057949 0.071163 0.05811 0.048523 0.05518 0.058034 0.01978 -0.022224 -0.011591 0.028988 0.032171 0.01032 0.013835 0.0038285 6.6616e-05 0.0004752 0.0050889 0.013494 0.015567 0.032342 0.077635 0.094409 0.07888 0.051289 0.037906 0.056686 0.048461 0.008588 -0.011238 0.043405 0.060641 0.027978 0.021646 0.005838 -1.7075e-05 0.00095475 0.010176 0.021094 0.0097606 0.030936 0.093359 0.10387 0.044636 -0.0095002 -0.014593 0.039993 0.079752 0.073389 0.030714 0.057595 0.062509 0.040135 0.030139 0.0081943 -0.00016328 0.0020299 0.013475 0.01669 0.003961 0.043022 0.11127 0.084308 -0.0063501 -0.042904 -0.017499 0.074001 0.14161 0.13473 0.10744 0.10708 0.043951 0.025376 0.036141 0.012304 -0.00020866 0.0045795 0.020733 0.018592 0.015489 0.078213 0.12216 0.055156 0.0059474 0.019211 0.073234 0.15369 0.18989 0.15365 0.15651 0.14936 0.034013 0.015873 0.040773 0.015972 -0.00045084 0.0088209 0.037461 0.035114 0.046156 0.11523 0.12836 0.081134 0.09417 0.12461 0.15951 0.18284 0.1768 0.14105 0.16315 0.13307 0.039291 0.023298 0.046478 0.014915 -0.00073403 0.011954 0.049928 0.055062 0.05935 0.12042 0.12885 0.12884 0.15859 0.16615 0.17231 0.16336 0.11903 0.10411 0.13908 0.092681 0.023355 0.019862 0.039963 0.010928 -0.0011004 0.012373 0.053242 0.080886 0.076421 0.09826 0.10543 0.12809 0.15388 0.1547 0.16193 0.12956 0.074822 0.087943 0.10343 0.051794 -0.0024766 0.0069816 0.023915 0.0062183 -0.00079571 0.0089934 0.042067 0.07746 0.082325 0.067554 0.047069 0.063383 0.10257 0.12573 0.12119 0.092766 0.071317 0.07448 0.067893 0.018492 -0.018851 -0.001481 0.008702 0.001455 -0.00036009 0.0045513 0.023538 0.052085 0.051996 0.038534 0.018594 0.04103 0.07649 0.09486 0.097204 0.08282 0.06857 0.053302 0.034529 -0.0038012 -0.015079 0.00090507 0.0033126 0.0001998 -1.1308e-06 0.0014871 0.0089034 0.022001 0.022298 0.004707 -0.0087499 0.035055 0.063173 0.065488 0.067503 0.048461 0.017418 0.0080291 0.0024236 -0.011797 -0.0066375 0.0023028 0.0032934 0.0022101 -4.5716e-05 0.00016622 0.0020571 0.006081 0.0035491 -0.024723 -0.039397 0.002724 0.024609 0.022002 0.014675 0.008533 0.0011187 0.00065296 0.004121 -0.0012756 -0.00053322 0.001022 0.0012195 0.00080032 5.8633e-05 6.2044e-05 -0.00016429 -0.00084218 -0.0064896 -0.036498 -0.056026 -0.017769 -5.4638e-05 0.00042792 -0.0029923 -0.0038618 0.0013819 0.0058837 0.0065758 0.0025098 0.0010091 0.0003984 0.00023661 -6.6238e-05 -3.3046e-05 -6.3662e-05 -6.2496e-05 -0.0006613 -0.0047064 -0.017058 -0.022387 -0.0085557 -0.0023892 0.00076373 0.0013961 0.0020888 0.0033143 0.0017159 0.0014205 0.00024826 5.0379e-05 -8.3556e-05 4.8539e-05 -3.1413e-05 -6.1929e-05 1.3751e-05 -2.5343e-06 8.8113e-05 -0.00025412 -0.0016284 -0.0010195 -0.00025029 -0.00053703 7.8958e-06 -0.00020497 -0.00022656 -0.00037011 -0.00010449 0.00012896 1.476e-06 -4.2628e-05 -4.7693e-05 -7.7605e-06 -3.5524e-05 0.26329
-5.2329e-05 5.7841e-05 -3.8287e-05 8.5068e-05 4.1705e-05 -0.00076505 -0.0012334 -0.00081734 0.00015418 0.00099793 0.00033456 0.00027825 0.0010755 0.00089722 0.00099516 0.0005916 0.00023982 6.5117e-05 3.4995e-06 -4.2083e-06 -2.0433e-05 5.906e-05 4.5451e-05 0.00012128 0.0011232 0.0013328 -0.006236 -0.017787 -0.011174 -0.0042817 0.0004792 -0.0034682 -0.009326 -0.0055088 -0.0048345 -0.0022717 0.00031928 0.0021043 0.00018845 -8.7233e-05 3.3549e-05 -5.6073e-05 0.00023951 -0.0021507 -0.014934 -0.055362 -0.08781 -0.099554 -0.064116 -0.018447 0.0010497 -0.02362 -0.075294 -0.11486 -0.12506 -0.073594 -0.039712 -0.039329 -0.0012481 0.0013568 3.8012e-05 0.00011107 0.0020787 -0.019495 -0.082741 -0.17408 -0.19778 -0.12557 0.023559 0.13492 0.16508 0.066874 -0.14253 -0.28262 -0.33305 -0.2161 -0.13516 -0.11423 -0.013002 0.0031516 1.0381e-06 0.00049493 0.00075291 -0.065467 -0.21736 -0.29193 -0.26828 -0.022656 0.34068 0.47734 0.45742 0.27987 -0.027692 -0.20371 -0.28695 -0.24059 -0.19608 -0.15477 -0.031953 -0.002024 0.00033146 0.0020634 -0.0089624 -0.1545 -0.33513 -0.30933 -0.14117 0.20862 0.57436 0.63659 0.46953 0.25504 0.071555 -0.02436 -0.097763 -0.11868 -0.15827 -0.20423 -0.077885 -0.0094535 0.00058566 0.0070241 -0.016674 -0.1848 -0.28333 -0.1007 0.07625 0.43348 0.67327 0.55733 0.14924 0.1221 0.27655 0.21071 -0.033154 -0.051075 -0.041082 -0.14958 -0.093418 -0.011783 0.00018445 0.0078763 -0.045894 -0.23448 -0.19951 0.016444 0.16771 0.55126 0.71043 0.58059 0.16346 0.20576 0.51428 0.30965 -0.093954 -0.061974 0.06347 -0.021923 -0.12263 -0.033669 0.00010462 0.0089248 -0.10631 -0.30477 -0.12464 0.01719 0.12183 0.51008 0.64779 0.6433 0.28068 0.19489 0.37631 0.14711 -0.10989 -0.028044 0.16645 0.025031 -0.11288 -0.034247 -0.00016567 0.016737 -0.13955 -0.35363 -0.11888 -0.00066144 0.009825 0.15144 0.24591 0.30255 0.0046513 -0.18226 -0.090098 -0.15371 -0.10299 0.10351 0.16873 -0.036589 -0.10443 -0.038017 -0.0019866 0.032817 -0.090267 -0.30431 0.0091942 0.12824 -0.19498 -0.51574 -0.40179 -0.052014 -0.081468 -0.2525 -0.24551 -0.17635 -0.10279 0.025286 0.014647 -0.020454 -0.041231 -0.026788 -0.0059874 0.027537 -0.024085 -0.13602 0.16112 0.25068 -0.33533 -0.69408 -0.27825 0.080251 0.10884 0.055688 -0.10911 -0.11682 -0.073455 -0.046616 -0.061897 0.035249 -0.015316 -0.03578 -0.0036889 0.030257 0.070227 0.093783 0.24831 0.13495 -0.35515 -0.46613 -0.068438 0.09969 0.019516 -0.10267 -0.10435 -0.082556 0.012773 0.079017 0.072072 0.10672 0.014259 -0.024179 -0.0032987 0.040113 0.14897 0.13255 0.11378 -0.16546 -0.39613 -0.29773 -0.11051 -0.0023067 -0.16362 -0.30028 -0.20575 0.0050808 0.073028 0.11901 0.11899 0.14582 0.046865 -0.0042677 -0.0014469 0.023809 0.11775 0.15168 0.051695 -0.17729 -0.33353 -0.19029 0.006899 0.074402 -0.01551 -0.14601 -0.094207 -0.054367 -0.094788 -0.013968 0.093329 0.1643 0.069513 -0.0017246 -0.00032995 0.0082309 0.040598 0.10599 0.10705 -0.026308 -0.15687 -0.011243 0.20356 0.26935 0.21332 0.019023 -0.14051 -0.19678 -0.17777 -0.11389 0.03769 0.091153 0.040433 0.0010555 4.7498e-05 0.00036147 0.0036225 0.051826 0.12309 0.045562 -0.037782 0.062597 0.21461 0.28605 0.2443 0.094239 -0.064115 -0.12202 -0.093589 -0.057709 0.011426 0.031242 0.014768 0.00072852 0.00010845 -0.0004098 -0.0053465 0.0058388 0.062804 0.062195 -0.010162 0.015073 0.075091 0.11837 0.095456 0.0086786 -0.067755 -0.072599 -0.046188 -0.027723 -0.0022239 0.0071258 0.0029742 -0.00026459 -4.5319e-05 4.1786e-05 -0.0006174 -3.3295e-05 0.0057823 -0.006475 -0.024587 -0.013704 -0.01677 -0.0066949 -0.0010436 -0.022595 -0.037925 -0.02541 -0.0098278 -0.011237 -0.003574 -0.00049333 -0.00024053 -3.9625e-05 1.5746e-05 -3.1759e-05 2.7802e-06 9.8583e-05 0.002625 -0.002468 -0.0047465 -0.00036918 -0.00064882 -0.001193 -0.0028552 -0.0038583 -0.005451 -0.0012829 -7.5659e-06 0.00062558 -0.00028166 -0.00023624 -5.7172e-05 4.0614e-05 -0.060736
-6.5771e-05 -4.0112e-05 -5.696e-05 4.5122e-05 6.1631e-05 0.00040309 0.00065811 -0.00042747 -0.00012329 -0.00089765 -0.00037267 -1.2716e-05 -3.5441e-05 -0.00021566 -0.00012167 -0.00011586 3.2663e-05 -4.995e-05 -1.3624e-05 5.3655e-05 7.5201e-06 -5.4018e-05 1.2753e-05 -0.00034977 -0.00025908 -8.0371e-05 0.0028021 0.0074246 0.0039516 0.00031947 -0.0017044 -0.00081529 -0.00025428 0.00028054 -6.2782e-05 0.0010622 -0.00018479 -0.00015264 -0.00010038 -1.4142e-05 2.3862e-05 -6.4518e-05 -9.5751e-05 -0.00092754 -0.00054751 0.0086789 0.016801 0.036603 0.032494 0.013879 0.0010556 0.0051745 0.013702 0.022405 0.021755 0.016585 0.0070201 0.0024383 -7.0331e-06 -0.00033029 7.6441e-05 -1.1181e-05 -0.00060209 0.0069253 0.020063 0.056507 0.087881 0.076412 0.049559 0.017336 0.0090295 0.039063 0.079067 0.094071 0.088208 0.072708 0.028296 0.0097121 0.0014352 0.00022208 2.7461e-05 -0.00033592 0.0014623 0.024826 0.069572 0.1646 0.19776 0.11067 0.025317 -0.0105 0.024541 0.10843 0.16293 0.146 0.11295 0.074954 0.024818 0.0049177 0.0086855 0.0027889 -8.556e-07 -0.00035104 0.0095842 0.039714 0.11907 0.22901 0.23015 0.10721 -0.02629 -0.057777 0.045642 0.14798 0.17609 0.23523 0.12613 -0.0076518 -0.033211 0.050629 0.035623 0.0066082 -0.00021565 -0.0016371 0.028295 0.099519 0.18067 0.25899 0.24255 0.084799 -0.08791 -0.11192 0.00070263 0.10636 0.18536 0.23761 0.12381 -0.033085 -0.073173 0.046121 0.046776 0.0081 -0.00015815 -0.0022474 0.05287 0.16885 0.25889 0.32893 0.29213 0.046653 -0.18953 -0.25624 -0.12829 0.078849 0.19866 0.15252 0.048146 -0.040555 0.015843 0.063985 0.071966 0.014844 -0.00050083 0.0057545 0.068853 0.18408 0.28435 0.33999 0.25026 -0.00085764 -0.19082 -0.28303 -0.17813 0.016476 0.097253 0.093707 0.055637 0.051389 0.15375 0.12171 0.080207 0.016363 -0.00082378 0.011356 0.083491 0.18676 0.23358 0.23737 0.14194 -0.07381 -0.27306 -0.4409 -0.40327 -0.24735 -0.15704 -0.043277 0.04329 0.069895 0.12131 0.12247 0.090134 0.019285 0.00045393 0.0030744 0.046776 0.16073 0.22545 0.177 0.085721 -0.1492 -0.37339 -0.55587 -0.42897 -0.26987 -0.10349 -0.033872 -0.02236 -0.0086645 0.014796 0.1282 0.084494 0.021622 0.002617 0.0071781 0.024905 0.090866 0.18123 0.20891 0.14945 0.06259 -0.058557 -0.12726 -0.015027 0.11124 0.20811 0.14902 0.075133 -0.0065475 -0.044604 0.070881 0.076046 0.020231 0.00073942 0.0058818 0.016612 0.00091116 0.038729 0.10176 0.16597 0.24755 0.18291 0.080465 0.12507 0.19643 0.22045 0.20605 0.14283 0.04418 -0.059885 -0.0093738 0.059136 0.014227 0.00058444 -0.001039 -0.036742 -0.16396 -0.19511 -0.088922 0.088984 0.27068 0.25879 0.090076 0.098862 0.20447 0.19808 0.11492 0.10604 0.10172 -0.024714 -0.040861 0.015978 0.0032348 -0.00019424 0.00068364 -0.046249 -0.21827 -0.21763 -0.073273 0.12306 0.29704 0.26959 0.12481 0.10887 0.16885 0.15899 0.12541 0.19256 0.15346 0.001981 -0.023478 -0.0028007 0.0025178 0.00013423 0.00041892 -0.033043 -0.15231 -0.13601 -0.03793 0.14538 0.23863 0.20068 0.151 0.11628 0.13608 0.19349 0.21545 0.1866 0.12109 0.020855 -0.0010227 0.0047504 0.0092246 6.4915e-06 0.0011168 -0.013971 -0.088387 -0.10551 -0.033682 0.088023 0.13743 0.1178 0.10196 0.094058 0.1251 0.16899 0.15094 0.11092 0.058508 0.0042825 -0.0097445 -0.0021802 0.0023429 -7.4575e-05 0.00036081 0.00067299 -0.021548 -0.042274 -0.033031 0.0070671 0.026769 0.028803 0.03565 0.047684 0.078792 0.10174 0.07588 0.049119 0.013078 -0.0034644 -0.0022593 -0.0008126 -0.00017709 -2.9718e-05 6.0453e-05 0.00015678 0.0012592 -0.0033789 -0.010621 -0.0063638 -0.0082898 0.0040856 0.0096362 0.007357 0.029111 0.0377 0.017505 0.003921 -0.0025627 -0.00094461 0.00022418 1.3693e-06 1.5442e-05 4.5012e-05 6.0011e-05 -0.00012295 0.00045057 2.2814e-05 0.0028321 0.0023151 -5.6764e-05 0.00049763 0.00096766 0.0015407 0.0047457 0.0068835 -0.0018106 -0.0004166 0.00014481 9.7473e-05 -8.1103e-05 5.7669e-05 3.1975e-05 -0.38058
-4.9217e-05 -3.5378e-05 2.7383e-05 -7.2549e-05 4.5286e-05 0.00041335 0.00034456 9.2309e-05 -0.00031386 -0.0016669 -0.00052405 -0.00019269 -0.00093225 -0.00080207 -0.00064492 -0.0002448 -0.00012432 -8.1633e-05 3.9086e-06 -3.2385e-05 -6.4196e-05 5.9752e-05 -5.7099e-05 -1.6551e-05 -0.0003818 0.0010137 0.0037198 0.010757 0.0040738 -0.0034409 -0.004092 0.0024471 0.0079641 0.0046976 0.0030469 0.0010666 -4.2181e-05 -0.00049962 -0.00012795 5.942e-05 -5.2536e-05 -4.9091e-05 -8.9374e-05 0.00048068 0.0054872 0.032294 0.0497 0.056821 0.033381 0.017837 0.0060954 0.031847 0.083564 0.11004 0.096203 0.039803 0.012895 0.0089811 -0.00039855 -0.00050747 -1.9265e-05 -3.8847e-05 -0.0010201 0.0056172 0.028551 0.073472 0.10399 0.10488 0.025708 -0.099779 -0.17957 -0.093679 0.10438 0.23586 0.2562 0.12184 0.044802 0.029977 0.0072037 0.00045639 6.0195e-06 -0.00027718 0.0021358 0.028937 0.081295 0.12589 0.16661 0.083155 -0.17742 -0.38516 -0.50967 -0.38205 -0.061506 0.21357 0.34527 0.24497 0.097242 0.05092 0.024467 0.0050075 -0.00073327 -0.0020645 0.0091687 0.084528 0.15886 0.19124 0.12453 -0.084992 -0.33221 -0.42596 -0.48161 -0.43576 -0.2475 0.099842 0.34055 0.2863 0.14533 0.11908 0.053399 0.0097785 -0.0011091 -0.01746 0.0063992 0.11566 0.15743 0.086115 -0.00068384 -0.19134 -0.33365 -0.3703 -0.33269 -0.37252 -0.31271 -0.021307 0.24388 0.22713 0.13543 0.13963 0.077074 0.014176 -0.0005038 -0.016062 0.04095 0.1429 0.14001 0.081932 0.12211 -0.039983 -0.29631 -0.58408 -0.54928 -0.32947 -0.22651 -0.11565 0.042862 0.052283 0.11351 0.14863 0.1292 0.026849 -0.00045825 -0.0075166 0.10038 0.24727 0.207 0.26736 0.27862 -0.10065 -0.42338 -0.5967 -0.40585 -0.12584 -0.10471 -0.12552 -0.12461 -0.08803 0.069332 0.15429 0.15623 0.033103 0.00083265 -0.025143 0.10754 0.23266 0.28308 0.40696 0.16379 -0.17946 -0.18305 -0.032642 0.24677 0.41624 0.30644 0.093059 -0.16976 -0.20676 -0.01468 0.16307 0.16007 0.043017 0.0039157 -0.044715 0.025428 0.17667 0.31623 0.3615 0.1889 0.21172 0.452 0.45505 0.40331 0.4109 0.37801 0.086233 -0.2395 -0.29977 -0.088233 0.13231 0.11953 0.038507 0.0091064 -0.031161 -0.04644 0.047234 0.13452 0.23823 0.27097 0.41194 0.41652 0.30028 0.1153 0.030389 0.097618 -0.12779 -0.36473 -0.31013 -0.016095 0.16574 0.12227 0.029856 0.0051863 -0.043139 -0.15484 -0.12937 -0.044765 0.1141 0.25309 0.18593 0.10325 0.090016 0.0089274 -0.074895 -0.10535 -0.18793 -0.24984 -0.14866 0.028318 0.13208 0.15365 0.025131 0.0045682 -0.055793 -0.24755 -0.17628 -0.020302 0.18095 0.19721 0.10964 0.18447 0.13808 0.020966 -0.057031 -0.12175 -0.13279 -0.046139 -0.016652 0.013097 0.04784 0.083802 0.011877 0.0019199 -0.028297 -0.18162 -0.17894 0.037592 0.2258 0.22563 0.15729 0.12115 -0.068455 -0.21964 -0.16784 -0.16933 -0.032157 0.15638 0.13951 0.063534 0.022179 0.027731 0.0087267 0.00024011 -0.0084764 -0.043534 -0.058942 -0.01322 0.11122 0.22953 0.1048 -0.16459 -0.32312 -0.41982 -0.282 -0.038287 0.13843 0.19236 0.17432 0.058898 0.016822 0.018102 0.0060273 4.3788e-05 -0.001231 0.0062365 -0.026501 -0.03809 0.11648 0.20338 0.014931 -0.25786 -0.40283 -0.4363 -0.29308 -0.051147 0.13448 0.13594 0.10617 0.022481 0.00042449 0.0009507 0.0021694 -3.4228e-05 -7.9973e-05 0.011108 0.0068208 0.014963 0.10279 0.17371 0.05107 -0.093282 -0.2017 -0.18487 -0.06997 0.047186 0.085796 0.071479 0.044874 0.0046898 -0.0055416 -0.0021625 0.00021471 -3.571e-05 -0.00011621 0.00021421 0.0028522 0.024861 0.063538 0.068294 0.030048 0.028687 0.015464 -0.0049792 0.01774 0.04072 0.030711 0.0086395 0.0029869 0.0006711 0.00019386 0.00011033 -6.8102e-05 1.3125e-05 6.4465e-05 -4.2264e-05 -0.00039139 0.0079404 0.017329 0.013885 -0.00067318 0.00035356 0.0023613 0.0031881 0.0032212 0.0063573 0.00068834 -0.00037043 -0.00049693 -6.9733e-05 4.2432e-05 -4.1852e-05 -9.4796e-06 -0.21971
-6.0241e-05 4.6171e-05 4.6303e-06 -6.2609e-05 0.00012487 0.00069679 0.00010047 -0.00058548 -0.00010899 -0.00082429 -0.00022342 8.5513e-05 -0.0002494 -0.00011696 -0.00035588 -0.00029031 -0.00015905 -6.5013e-05 6.4787e-05 5.3072e-05 6.6537e-05 7.6892e-05 7.3333e-05 -0.00023455 -0.00031183 -0.00062462 -0.0016983 -0.0019507 -0.0015605 -0.002835 -0.0020735 -0.00025924 -0.00012752 -0.001352 0.00057826 0.0010624 6.1961e-05 -0.00062655 -4.7174e-05 -2.8541e-05 -7.0778e-05 -1.9274e-06 -0.00016342 -5.3769e-05 0.0043155 0.018802 0.017559 0.0056306 -0.0092509 -0.010555 -0.010452 0.007293 0.033568 0.047668 0.045926 0.02563 0.013714 0.011916 0.00049249 -0.00065441 -1.1325e-05 -7.8039e-05 -0.00089238 0.0066724 0.023955 0.04482 0.042109 -0.008084 -0.052633 -0.078019 -0.057523 0.020327 0.16165 0.24417 0.23431 0.15252 0.059712 0.025012 -0.0057881 -0.0021694 5.1237e-05 -0.00021332 0.0021477 0.019288 0.0543 0.088909 0.05942 -0.029598 -0.11597 -0.13467 -0.11727 -0.018487 0.23357 0.49481 0.53159 0.34557 0.11604 -0.0016443 -0.017416 2.8811e-06 -0.00040805 -0.0011334 0.0024377 0.024603 0.092093 0.12829 0.054876 -0.046882 -0.13373 -0.15662 -0.1493 -0.13168 0.036278 0.51737 0.68864 0.43367 0.11732 0.014101 -0.01964 0.0023985 -0.00094345 -0.012769 -0.0088725 0.031206 0.13545 0.17534 0.066253 -0.07161 -0.19264 -0.14229 -0.062641 -0.18395 -0.24581 0.10455 0.42329 0.36731 0.17383 0.06398 -0.010047 0.00279 -0.00067877 -0.013221 0.0027664 0.097727 0.25263 0.2338 0.096822 -0.060588 -0.11148 -0.039716 0.078632 -0.044276 -0.29575 -0.2441 0.041611 0.22683 0.38749 0.13908 -0.0015303 0.0098055 -0.00034869 -0.0020635 0.039972 0.19692 0.32892 0.2375 0.080796 -0.015596 0.095525 0.16893 0.16298 -0.07985 -0.3726 -0.29468 -0.095302 0.13491 0.5522 0.24767 0.0070371 0.0065323 -0.0011662 -0.00026407 0.077475 0.2777 0.32118 0.12625 -0.010266 0.022445 0.061081 0.034668 -0.10932 -0.30642 -0.52066 -0.26924 -0.1124 0.014411 0.47542 0.28307 0.03229 0.0032909 0.00013342 -0.019063 0.0041229 0.28718 0.32686 0.066602 0.074961 0.032328 -0.17639 -0.34939 -0.42266 -0.44287 -0.40498 -0.15264 -0.15222 -0.049779 0.3022 0.24481 0.012345 0.004566 0.0031263 -0.034462 -0.10059 0.20558 0.3267 0.14147 0.22851 0.11796 -0.22853 -0.32639 -0.30927 -0.32929 -0.049903 0.066656 -0.072299 0.028016 0.19898 0.14199 0.0073322 0.0053808 0.0045184 -0.05107 -0.16603 0.063331 0.25171 0.21636 0.36231 0.21083 -0.16514 -0.24833 -0.26378 -0.22661 0.066969 0.13083 0.081824 0.1305 0.11754 0.012284 -7.9195e-05 0.0045049 0.003981 -0.044549 -0.21928 -0.1339 0.083743 0.23202 0.41838 0.29233 -0.02475 -0.25983 -0.21146 -0.050605 0.038205 0.083399 0.1345 0.17573 0.052028 -0.03174 -0.0075515 -0.0013845 0.00091279 -0.023288 -0.15699 -0.19288 0.057732 0.2944 0.45515 0.30405 -0.024182 -0.25984 -0.22147 -0.07863 -0.05058 0.093608 0.22982 0.16562 -0.0084646 -0.054338 -0.025016 0.0025816 0.00032475 -0.0089134 -0.055659 -0.085566 0.085016 0.3059 0.44969 0.24931 0.0051152 -0.096219 -0.16409 -0.092217 0.13385 0.27361 0.22854 0.1428 0.018412 -0.025669 -0.018582 -0.00024791 0.00015309 -0.00098025 -0.002528 -0.02289 0.06122 0.31945 0.41294 0.2006 0.038664 -0.010565 -0.037744 -0.0073792 0.12129 0.16456 0.10368 0.073551 0.01207 -0.015506 -0.0098363 -0.00064395 9.1398e-06 8.0867e-06 0.013282 0.014757 0.06726 0.24043 0.31996 0.12815 -0.0060544 -0.028028 -0.0019938 0.037236 0.062195 0.049061 0.022248 0.0078477 -0.0049725 -0.0049373 -0.0029583 0.0002174 -4.0682e-05 -0.0001336 0.00034704 0.0049095 0.023804 0.08654 0.11002 0.043083 0.012019 -0.0042794 -0.012895 0.0022032 0.015734 0.014042 0.00062889 -0.0064934 -0.0015803 0.00055364 0.00014456 7.2502e-05 3.0336e-05 1.6106e-05 -4.2001e-05 -1.3818e-05 -0.0029104 0.0031835 0.0063086 0.0020922 0.0023657 0.00074122 0.0025163 0.0036627 0.0027376 -0.0018794 -0.00031434 0.00090719 0.00027181 -5.8501e-05 6.6855e-05 -1.3338e-05 -0.4554
-2.9062e-05 3.3216e-05 5.3468e-05 -4.6078e-05 1.7774e-05 0.00012538 0.00014669 8.7259e-05 0.00021146 0.00014526 -4.6574e-05 -0.00015415 -0.000457 -0.00061869 -0.00071412 -0.00021491 -0.00011525 -6.089e-05 -5.7312e-05 1.0832e-05 2.1946e-05 4.6298e-05 -2.6002e-05 -0.00021313 -0.00040815 0.00057489 0.0014006 0.0032174 0.0023656 3.3962e-05 -0.00091507 0.00076949 0.0022191 0.0037297 0.0058717 0.0010927 -0.00015994 -0.00053123 -2.6292e-05 -7.0691e-05 -1.5156e-05 -1.6823e-06 6.7939e-05 0.00037033 0.0038216 0.016371 0.021491 0.026779 0.025065 0.023457 0.023819 0.032909 0.048206 0.071109 0.071181 0.028899 0.0091453 0.0067668 -0.00036729 -0.00013195 -5.5063e-05 -0.00013452 9.7424e-05 0.0057442 0.018955 0.043594 0.059627 0.05237 0.036132 0.00036875 -0.019777 0.023043 0.1022 0.1533 0.14337 0.058963 0.021924 0.024613 0.0094642 0.0012401 9.0456e-05 -8.9142e-06 0.0011637 0.016485 0.054 0.0925 0.099679 0.034175 -0.051921 -0.090386 -0.10647 -0.082223 -0.0077806 0.15475 0.22227 0.071996 -0.018281 0.03968 0.028328 0.0035786 -0.00027396 -0.0023577 0.0028096 0.059335 0.14673 0.17412 0.12487 0.0072188 -0.039293 0.0022124 -0.027742 -0.11756 -0.17947 -0.049374 0.18459 0.09572 -0.019839 0.075833 0.057682 0.0044197 -0.0011232 -0.011824 0.003175 0.10341 0.20438 0.17221 0.058885 -0.028527 0.058232 0.17523 0.1081 -0.16077 -0.43907 -0.41116 -0.081863 0.06065 -0.031116 0.072039 0.078711 0.0050321 -0.00092818 -0.016921 0.0082396 0.14601 0.20221 0.085811 -0.025414 0.021261 0.19216 0.22425 0.07879 -0.16031 -0.57574 -0.64807 -0.34588 -0.061444 -0.058109 0.035627 0.09513 0.010108 -0.00082073 -0.013537 0.037557 0.15816 0.11821 0.027483 -0.0061297 0.0080134 0.13957 0.14737 0.064925 -0.073699 -0.39103 -0.48207 -0.30659 -0.080814 -0.091833 0.011775 0.08941 0.017113 -0.00024888 -0.01503 0.036058 0.045979 -0.086821 -0.086644 -0.15625 -0.12437 0.029386 0.09399 0.063864 0.045912 -0.063103 -0.10981 -0.1008 -0.058055 -0.13843 0.0057498 0.089265 0.019383 0.00099559 -0.033635 -0.012775 -0.080292 -0.23148 -0.22231 -0.21565 -0.028986 0.13536 0.082552 -0.0032667 0.10307 0.17357 0.077012 -0.020666 -0.077931 -0.071835 0.022672 0.074632 0.012589 0.0023048 -0.030387 -0.034719 -0.12382 -0.26938 -0.20617 -0.018152 0.20672 0.28875 0.21857 0.17511 0.26898 0.35343 0.1295 -0.0097119 -0.032769 0.0073133 0.010668 0.051186 0.010249 0.0027018 -0.033264 -0.054185 -0.079382 -0.22614 -0.13717 0.035363 0.10901 0.1747 0.25738 0.29632 0.33623 0.24507 0.10058 0.08994 0.078852 0.026422 -0.00091728 0.024918 0.0072616 0.0020536 -0.029126 -0.078233 -0.035562 -0.062853 -0.0034373 -0.02164 -0.14594 -0.12103 0.080837 0.27822 0.31139 0.16452 0.10058 0.13793 0.095649 0.018088 0.00055653 0.010471 0.0015629 0.00082243 -0.016709 -0.043947 0.023949 0.11308 0.20209 0.12212 -0.15093 -0.25635 -0.11137 0.10832 0.17063 0.070818 0.09599 0.16995 0.11518 0.041115 0.01222 0.0061248 0.00061699 0.00015422 -0.0081066 0.014496 0.10503 0.18922 0.23754 0.13153 -0.14194 -0.30517 -0.24965 -0.13222 -0.061289 -0.005663 0.070951 0.09283 0.082839 0.038707 0.014239 0.0065986 0.0032786 8.2292e-05 -0.0026476 0.02424 0.107 0.20232 0.2513 0.10441 -0.13835 -0.26168 -0.29542 -0.25252 -0.16102 -0.06532 0.0051427 0.029635 0.049577 0.02332 0.0065793 0.0037946 0.0013092 4.0569e-06 -0.0004542 0.014093 0.056741 0.14769 0.21343 0.13593 -0.016548 -0.098118 -0.1354 -0.11925 -0.062419 -0.012017 0.0015611 0.011466 0.014883 0.0071489 0.00074305 0.00042399 -0.00012006 -6.1703e-05 -5.7903e-05 -0.00046302 0.005823 0.039789 0.089831 0.071603 0.022327 0.0065255 -0.00071393 -0.0047795 0.0051793 0.01369 0.0088685 -0.0010383 -0.0050147 -0.0015271 2.3657e-05 -0.00011756 -6.4381e-05 -1.199e-05 -6.8195e-05 -7.3392e-06 -0.00034456 -0.00017635 0.0010986 0.0038828 0.0010958 -0.00034234 0.00020256 0.0013897 0.0015457 0.0018402 -0.00042543 -0.00061864 -0.00061447 -0.00030236 -1.5033e-05 -6.8782e-05 -5.7598e-05 0.19605
7.4308e-05 -1.235e-06 -4.0308e-05 -6.4426e-05 0.00012061 0.00046897 0.00043417 -2.2683e-05 0.00016023 0.00045153 0.00015615 7.9066e-05 0.00034844 4.9811e-06 -0.0001907 7.6686e-05 4.188e-05 -4.9285e-05 -1.264e-05 -7.3495e-05 6.7024e-05 5.9912e-05 -3.3348e-05 5.7485e-05 -0.00054493 -0.005864 0.0013679 0.0038592 0.0020052 0.0015396 0.00022372 -0.0014382 -0.0024616 0.0055926 0.006883 0.0024505 0.00055028 0.00048461 -0.00012327 2.4044e-05 -7.3879e-06 -3.4692e-05 0.00011881 -5.238e-05 -0.0055276 -0.025074 -0.023646 0.0024781 0.01685 0.016171 0.012448 -0.012373 -0.059244 -0.08245 -0.081465 -0.059956 -0.023391 -0.011434 0.00023614 0.00054079 -3.4288e-05 0.00013681 0.0015465 -0.01431 -0.045407 -0.074138 -0.041443 0.027684 0.096566 0.13055 0.11791 0.03487 -0.10462 -0.24494 -0.31861 -0.20606 -0.089649 -0.015664 0.012776 0.0023329 -3.5355e-05 0.00082243 0.00093828 -0.064022 -0.13801 -0.094358 0.011495 0.14846 0.27736 0.35534 0.29215 0.083805 -0.11756 -0.15161 -0.24353 -0.26708 -0.16068 -0.0081175 0.038504 0.0025132 9.6235e-05 0.00045037 -0.011806 -0.11856 -0.18608 -0.047289 0.12889 0.29492 0.49637 0.50444 0.27044 0.0072984 -0.088336 -0.0033682 0.0085769 -0.21295 -0.19422 0.071257 0.087151 0.0047635 -0.00040995 -0.0043797 -0.035727 -0.15252 -0.14677 0.064557 0.20756 0.4147 0.58409 0.46024 0.051133 -0.13086 -0.077412 -0.062713 -0.021063 -0.10316 -0.03145 0.19383 0.10596 0.0067016 -0.0010501 -0.011684 -0.099072 -0.21202 -0.11701 0.10662 0.27201 0.58071 0.69365 0.4858 0.047103 -0.039669 0.03608 -0.1684 -0.23839 -0.16424 0.19274 0.3012 0.11752 0.0053135 -0.00074596 -0.013531 -0.14557 -0.27161 -0.12821 0.088951 0.32625 0.65942 0.78007 0.51208 0.1115 0.018883 -0.0065373 -0.29644 -0.36816 -0.081729 0.47036 0.34519 0.10969 0.0088266 0.00092338 -0.020436 -0.20432 -0.35438 -0.17866 -0.018056 0.053742 0.39291 0.45047 0.19557 -0.090971 -0.2073 -0.23657 -0.30582 -0.29668 0.045989 0.51993 0.27349 0.091936 0.0058703 0.00038941 -0.030363 -0.24382 -0.33611 -0.15624 -0.14994 -0.20765 -0.16608 -0.20931 -0.21587 -0.26524 -0.28009 -0.11813 -0.18438 -0.34399 -0.051381 0.30977 0.24484 0.086329 0.0062851 -0.0017605 -0.021587 -0.20644 -0.27437 -0.09067 -0.024489 -0.068165 -0.093498 -0.076807 0.0048679 0.054655 0.12128 0.16336 -0.13482 -0.30843 -0.16382 0.10141 0.18292 0.079723 0.008583 0.0016488 -0.022322 -0.16064 -0.16887 -0.040067 0.089378 0.14052 0.18814 0.20438 0.093826 0.015176 0.038481 -0.037621 -0.25814 -0.20317 -0.12274 0.052633 0.11442 0.046668 0.0036883 0.00094084 -0.0075652 -0.13611 -0.12367 -0.076881 0.066967 0.19625 0.25073 0.10859 -0.073701 -0.087392 -0.12742 -0.22058 -0.19785 -0.1744 -0.078515 0.080626 0.073953 0.022981 0.00010434 7.9126e-05 -0.0035997 -0.085843 -0.029632 0.063676 0.21643 0.28188 0.20624 0.046906 -0.083635 -0.085094 -0.1369 -0.2487 -0.15316 -0.12958 -0.018712 0.098829 0.074032 0.027937 -0.00093783 0.00031881 -0.0038678 -0.019894 0.078735 0.20759 0.32689 0.41523 0.25935 0.11588 0.081764 0.051038 -0.078246 -0.22728 -0.21245 -0.15795 -0.021309 0.039378 0.051259 0.020618 0.002471 0.0002047 -0.0024126 0.011268 0.087361 0.22589 0.37736 0.42075 0.2357 0.10666 0.064271 0.088384 0.015098 -0.19283 -0.24344 -0.14618 -0.031326 -0.0032844 0.011453 0.0079414 0.0013001 8.3877e-05 -0.00091325 0.013969 0.034466 0.13655 0.28009 0.28595 0.086639 -0.016014 -0.027679 0.016061 -0.025194 -0.14822 -0.15947 -0.082387 -0.029172 -0.004026 0.0032984 0.00099245 -0.0001483 2.599e-05 2.9604e-05 -0.00043407 0.0022213 0.026757 0.075418 0.082693 0.023954 -0.016019 -0.021087 -0.013199 -0.045496 -0.058507 -0.036266 -0.014873 -0.015539 -0.0062999 -0.0003955 -8.2403e-05 4.6862e-05 -3.6811e-05 8.3145e-06 -3.0964e-05 0.0004375 -0.0027545 -0.0024945 0.00016366 0.0017525 0.00023568 -0.0016304 -0.0019505 -0.0034393 -0.0024958 0.00047226 0.00051277 0.00090699 -0.0011721 -0.00039807 5.9369e-05 6.6453e-06 -0.0025792
5.2992e-06 7.7132e-05 -5.2772e-05 3.4048e-05 -8.845e-05 -7.5738e-05 0.00098093 0.00096017 0.00024493 0.0005814 0.00021803 -8.2748e-06 0.00027109 -4.9422e-05 0.00018527 0.00033892 2.4923e-05 7.7838e-05 -7.4032e-05 -3.958e-05 2.2064e-05 -7.6924e-05 -7.523e-05 0.00017935 0.00044128 0.0011801 0.0076394 0.011795 0.0078663 0.0037888 0.00099342 -0.00043181 -0.0002636 0.0054078 0.0031512 -0.00067211 0.00034398 0.00097839 0.00014894 -0.00012462 -5.3419e-05 0.00010856 0.00012985 -0.00042443 -0.0058869 -0.019253 -0.012327 0.023745 0.03748 0.014851 0.0053167 -0.0059906 -0.043696 -0.073163 -0.068473 -0.037157 -0.019698 -0.020831 -0.0022602 0.0004579 -1.4647e-05 0.00016976 0.0018443 -0.010254 -0.035812 -0.065629 -0.048973 0.024744 0.071912 0.093815 0.068545 -0.017796 -0.18109 -0.32059 -0.33508 -0.19272 -0.076439 -0.041481 0.0041471 0.004081 -8.9276e-05 0.0004631 9.8384e-05 -0.044759 -0.11457 -0.13895 -0.089046 0.047745 0.18666 0.22985 0.18493 0.012071 -0.31322 -0.52992 -0.53228 -0.37307 -0.16002 -0.019253 0.033165 0.0075469 0.0010848 0.0055521 -0.0077108 -0.095802 -0.21955 -0.22061 -0.059152 0.17044 0.32567 0.34854 0.26329 0.086139 -0.13714 -0.49184 -0.55961 -0.37408 -0.097704 0.023603 0.077289 0.01364 0.0023728 0.019851 -0.0088519 -0.13255 -0.28889 -0.26005 -0.0004054 0.29492 0.44357 0.4084 0.19344 0.10104 0.068992 -0.21394 -0.36659 -0.20853 0.029078 0.084667 0.10515 0.019038 0.00073948 0.020795 -0.037869 -0.18634 -0.39306 -0.31194 -0.010686 0.31327 0.36553 0.25753 -0.035905 -0.11148 0.044279 0.084509 -0.011193 -0.068517 -0.085548 0.061476 0.12805 0.023143 0.00064015 0.0064994 -0.072749 -0.28195 -0.48757 -0.37145 0.042381 0.33001 0.19064 -0.05553 -0.30195 -0.19887 0.1113 0.21176 0.28473 0.071065 -0.32293 -0.091601 0.11555 0.03326 0.00080638 0.010114 -0.079364 -0.35898 -0.55742 -0.30961 0.13076 0.35573 0.21006 0.049498 -0.023116 0.082727 0.31382 0.28972 0.42032 0.20585 -0.37385 -0.21151 0.09902 0.040599 -0.0041875 0.056949 0.080621 -0.31153 -0.58776 -0.28845 0.10226 0.27725 0.24826 0.31743 0.30383 0.21197 0.22731 0.2368 0.37081 0.20233 -0.24935 -0.14016 0.13029 0.034404 -0.011634 0.072868 0.23295 -0.207 -0.60616 -0.32804 0.0052085 0.099625 0.14493 0.216 0.2071 0.040869 -0.13818 -0.060441 0.17031 0.049309 -0.21559 -0.06432 0.11464 0.028221 -0.0079898 0.082732 0.27067 -0.016943 -0.43347 -0.27933 -0.14429 -0.11609 -0.043665 0.028844 0.096593 0.030985 -0.20105 -0.11424 0.010556 -0.21003 -0.29274 -0.034068 0.063795 0.013883 -0.0058641 0.07089 0.2615 0.19605 -0.1464 -0.21238 -0.19802 -0.27612 -0.22253 0.068657 0.15208 -0.004942 -0.10238 -0.038085 -0.17549 -0.40469 -0.27165 -0.046486 0.0057519 0.0024562 -0.001677 0.037493 0.16207 0.25029 -0.0018038 -0.17514 -0.25177 -0.30833 -0.10722 0.22667 0.29961 0.081365 -0.063122 -0.13842 -0.33078 -0.37423 -0.14549 -0.018728 -0.0010272 -0.0033455 -0.00022161 0.010884 0.065803 0.15768 0.03982 -0.10785 -0.24773 -0.23373 0.032014 0.23795 0.30579 0.10921 -0.22648 -0.35832 -0.32873 -0.25363 -0.079048 -0.0027609 0.00526 0.0039295 3.0313e-05 -0.00021063 0.020441 0.094753 0.084797 -0.044277 -0.1762 -0.14171 0.024061 0.11252 0.1522 0.07198 -0.1919 -0.27163 -0.19336 -0.12486 -0.040618 -0.00013541 0.0036639 0.0018804 -1.0726e-05 -0.00092279 -0.0020707 0.023747 0.064234 0.028271 -0.076871 -0.069302 -0.0075024 0.047791 0.071848 0.00082277 -0.13227 -0.1411 -0.085512 -0.036363 -0.0043231 0.0028843 0.0015587 -0.00026221 -3.7813e-05 4.1546e-05 -0.00065965 -0.00072018 0.0097602 0.0059745 -0.017781 -0.013988 -0.018223 0.0078843 0.024268 -0.023421 -0.059221 -0.039218 -0.0080115 -0.0046274 -0.0029573 -0.00036825 -3.8382e-05 6.7008e-05 7.8842e-05 5.1681e-05 -2.4369e-05 6.0798e-06 0.0015985 -0.0042369 -0.0040443 0.00010586 -0.00116 -0.0017754 -0.0056501 -0.0073331 -0.0074327 0.0008593 0.00045257 -0.00016325 -0.00094951 -0.00015136 3.7531e-05 -5.0079e-05 0.56903
-4.1614e-05 -3.9316e-06 -1.0861e-05 -5.24e-05 -6.4771e-05 -0.0010933 0.00031972 0.00054019 -0.00011685 -0.0001295 -1.0622e-05 0.00014452 0.00026042 0.00023744 0.00076908 0.00073194 0.00042287 -1.7333e-05 -2.5001e-05 1.4696e-05 -8.0189e-05 2.4967e-05 -8.4439e-05 2.9304e-05 0.00084256 0.006124 0.003511 0.0023982 0.0025699 -0.00068032 -0.00075416 -0.0013577 -0.0017661 -0.001186 -0.0053478 -0.0055456 -0.0024405 0.0011099 0.00029259 -5.1415e-05 6.1534e-05 4.8517e-05 0.0002455 -0.0012671 -0.0089031 -0.0095711 -0.0016123 0.012351 0.031261 0.025108 0.021285 0.011022 -0.0084628 -0.034574 -0.058529 -0.052836 -0.038624 -0.020943 -0.001597 0.00015356 1.1133e-05 -6.6544e-05 0.00017716 -0.0045183 -0.019831 -0.022216 0.012876 0.10439 0.12891 0.055375 -0.016407 -0.03101 -0.07045 -0.14996 -0.16659 -0.15852 -0.11907 -0.076985 -0.0049823 0.0016028 -5.578e-05 -0.00018641 0.0022354 0.0015459 -0.058347 -0.059036 0.051635 0.15318 0.10524 -0.020832 -0.11455 -0.097499 -0.1811 -0.32437 -0.28751 -0.17419 -0.14111 -0.097575 -0.00055551 0.0045437 -3.4472e-05 0.00052782 0.013724 0.0019145 -0.10602 -0.02525 0.133 0.17291 0.072793 -0.080724 -0.15289 -0.060776 -0.027312 -0.25756 -0.34187 -0.15755 -0.11659 -0.12292 0.0066403 0.010962 -5.4155e-05 -0.0010236 0.032118 0.028412 -0.12699 -0.038038 0.19495 0.18478 0.013587 -0.32609 -0.5672 -0.1293 0.44308 0.26668 -0.11915 -0.10993 -0.1397 -0.12619 0.017733 0.017529 3.7597e-05 -0.0013409 0.047072 -0.0027296 -0.13534 0.024194 0.34343 0.27507 -0.1645 -0.73777 -0.91008 -0.011359 0.82897 0.49119 -0.087366 -0.12382 -0.13825 -0.088626 0.033257 0.022543 -0.00033947 0.00073181 0.049287 0.024449 -0.020481 0.018958 0.16022 2.2049e-05 -0.43654 -0.67185 -0.37685 0.47577 0.89458 0.38619 -0.19054 -0.21814 -0.11729 -0.055421 0.062795 0.03532 -0.00039363 0.00044865 0.036442 0.021703 0.033135 -0.061636 -0.0043199 -0.25981 -0.29875 -0.10981 0.27292 0.72797 0.86032 0.33865 -0.17326 -0.17816 -0.063309 0.033614 0.070844 0.046271 0.00058639 -0.010952 0.0038565 0.041824 0.050733 -0.11229 -0.17299 -0.34496 0.099954 0.44745 0.57572 0.66118 0.58186 0.16709 -0.17507 -0.27744 -0.093133 0.09831 0.096163 0.039312 0.0013247 -0.013394 -0.022691 0.048585 -0.040133 -0.13692 -0.23686 -0.096219 0.41815 0.52494 0.38483 0.46293 0.16915 -0.16842 -0.31377 -0.26594 -0.029085 0.16381 0.072703 0.020528 0.0011025 -0.011594 -0.05724 0.019178 -0.0075939 -0.1128 -0.097404 0.10485 0.44992 0.25726 0.14204 0.20112 -0.076418 -0.34722 -0.32245 -0.069494 0.08337 0.12334 0.049062 0.011409 0.00093657 -0.013298 -0.044122 0.0054779 -0.0010496 -0.020696 -0.039266 0.22237 0.55698 0.32433 0.020683 -0.14793 -0.3422 -0.34789 -0.12299 -0.032839 0.021354 0.053845 0.030878 0.0064995 0.00061934 -0.0077464 -0.017083 0.005412 -0.044176 -0.1195 -0.017965 0.4321 0.67432 0.32835 -0.11708 -0.31148 -0.33566 -0.23907 -0.091178 -0.047324 0.008757 0.048345 0.027876 -0.00023576 -3.8897e-05 -0.0022315 0.0018156 -0.023704 -0.072273 -0.17766 -0.096755 0.29403 0.33424 0.048856 -0.20329 -0.2955 -0.27734 -0.14004 -0.017822 0.0022378 0.024981 0.016672 0.014021 0.0056072 -5.089e-05 0.00030891 -0.0079671 -0.035909 -0.098558 -0.29401 -0.23942 0.0087453 -0.011657 -0.12181 -0.16579 -0.14254 -0.075367 0.031277 0.049065 0.014158 0.012996 0.0089781 0.0040268 0.0025469 -2.8561e-05 0.0003502 -0.0028487 -0.022461 -0.13814 -0.3179 -0.34791 -0.1174 -0.02609 -0.068333 -0.072243 -0.032403 0.025021 0.065581 0.067898 0.032068 0.010597 0.00096736 0.00054921 -0.00011559 -4.1367e-05 7.6867e-05 0.00050161 -0.0061339 -0.05672 -0.13787 -0.16876 -0.066556 -0.010303 0.0036295 0.011761 0.030343 0.03094 0.016928 0.015949 0.009967 0.0021924 -0.00031285 -5.2875e-05 -2.3985e-05 7.6678e-05 5.6078e-06 -1.5673e-05 0.00022976 -0.0026003 -0.0061589 -0.0088961 -0.0054998 -0.0029702 0.00046454 0.0015318 0.0042504 0.0038626 -0.00020048 0.00063919 -0.00046173 -0.00017991 1.0068e-05 2.3617e-05 4.1097e-05 -0.44699
-1.0345e-05 8.1624e-05 -3.4206e-06 1.6677e-05 -6.5853e-05 -3.5788e-05 -0.0011313 -0.00073583 -4.0029e-05 -0.00030782 -0.00010472 -1.3208e-05 -0.0003197 -0.00038557 -0.00062531 -0.00010075 -0.00015717 6.5589e-05 3.8054e-05 -3.3425e-06 -3.0375e-05 -2.7108e-05 1.036e-06 1.1494e-05 0.00023888 0.0017434 -0.0057742 -0.011355 -0.0071555 -0.0075533 -0.0024852 0.00172 0.0026608 0.0014015 0.0042126 0.0003547 -3.5528e-05 -0.00064332 3.1112e-05 5.1309e-05 1.7065e-05 -2.1271e-05 -6.7957e-05 0.00037831 0.0035127 0.0027584 -0.01308 -0.038679 -0.04097 -0.018527 -0.0065002 0.0099091 0.043219 0.072789 0.067942 0.030124 0.013405 0.013173 0.00089353 -0.00033948 -5.2141e-05 -4.5332e-05 -1.672e-05 0.0059886 0.014992 -0.0064525 -0.032055 -0.058381 -0.056871 -0.075081 -0.11035 -0.09007 0.0092773 0.12384 0.17067 0.09185 0.045901 0.028519 -0.009788 -0.002989 9.059e-06 -0.0003254 0.00023347 0.021552 0.041184 -0.0035195 -0.048718 -0.058802 -0.094446 -0.1517 -0.27271 -0.34641 -0.19537 0.06924 0.24784 0.18636 0.06754 0.012212 -0.032127 -0.0018848 3.5504e-06 -0.0005715 0.0055395 0.048469 0.073646 0.00711 -0.069112 -0.062157 -0.056249 -0.055306 -0.23964 -0.48646 -0.41894 -0.0038361 0.29176 0.24129 0.063644 -0.0018087 -0.059808 -0.0049317 -8.1954e-05 -0.00042483 0.019341 0.07888 0.11417 0.02966 -0.051185 -0.019063 0.0036521 0.054175 -0.026776 -0.32033 -0.43837 -0.051987 0.24171 0.15299 -0.00763 0.0065546 -0.050937 -0.0084116 -0.00010956 0.0018581 0.041474 0.1047 0.11983 -0.013476 -0.051187 0.018427 0.047455 0.072725 0.13813 0.010659 -0.18234 -0.049798 0.078459 0.046445 -0.023744 -0.0027015 -0.039781 -0.0079425 6.4641e-05 0.003931 0.064614 0.13486 0.10861 -0.0012331 -0.017499 -0.017138 0.11881 0.32386 0.45214 0.30614 -0.013348 -0.023709 -0.011403 -0.038834 -0.029717 0.029498 -0.015323 -0.0069319 -8.6542e-05 0.0072292 0.094654 0.13539 0.085706 0.015267 -0.010065 0.025892 0.29092 0.6052 0.66611 0.42032 -0.01235 -0.065078 -0.036065 -0.023748 0.0087337 0.095621 0.0087901 -0.007432 0.00047818 0.006983 0.08516 0.11399 0.11192 0.048544 0.026959 0.18002 0.43004 0.61565 0.50581 0.18878 -0.10872 -0.023831 0.033547 -0.023905 0.031847 0.074166 -0.02481 -0.0073764 0.0022059 0.0028767 0.050586 0.086682 0.040508 -0.054476 -0.049897 0.034017 0.19001 0.28672 0.12244 -0.094103 -0.023922 0.09417 0.035575 0.033477 0.11507 0.089885 -0.022165 -0.014573 0.00052617 0.0031105 0.022836 0.066237 0.0063116 -0.14513 -0.13925 -0.24153 -0.13937 -0.001223 -0.085447 -0.16396 0.017031 0.10429 0.11563 0.19579 0.18977 0.081043 0.011729 -0.0041014 0.00036307 -0.0021998 -0.0022584 0.046456 0.039477 -0.056166 -0.12187 -0.30899 -0.23156 -0.099177 -0.13969 -0.18311 -0.087458 0.0933 0.21606 0.23847 0.13729 0.056 0.01934 -0.0025304 -8.5267e-05 -0.0027099 -0.0090334 0.0077979 0.065592 0.08603 -0.048132 -0.33459 -0.37803 -0.25785 -0.22821 -0.21003 -0.078383 0.080033 0.20219 0.16187 0.076853 0.02803 0.0010065 0.0013954 1.5445e-06 -0.0018595 -0.0017384 0.011337 0.081997 0.17409 0.04839 -0.29251 -0.44261 -0.39078 -0.33842 -0.20371 0.027792 0.14802 0.15683 0.11633 0.056919 0.0096747 -0.0036116 -0.0046562 -7.6795e-05 -0.00055611 0.0046896 0.014149 0.11255 0.29574 0.16945 -0.16292 -0.31132 -0.32577 -0.30043 -0.19237 0.010549 0.13169 0.12185 0.082293 0.024901 0.00033382 3.3234e-05 -0.0012836 -5.3482e-05 -0.00014504 0.0034213 0.0185 0.1246 0.28137 0.25826 0.037881 -0.059418 -0.094242 -0.089096 -0.028599 0.041224 0.054987 0.046555 0.019945 0.00042076 -0.0020861 -0.0006299 0.00020537 1.1623e-05 -0.00014183 -0.00032631 0.0071801 0.053661 0.11844 0.11122 0.040657 0.019922 0.011107 0.0030547 0.021043 0.026135 0.011151 0.00050543 -0.0011086 1.2913e-05 0.00013293 -5.9956e-07 1.194e-05 3.7613e-05 -3.9073e-05 -9.6732e-05 -0.00061301 0.0064428 0.011898 0.01092 0.00085095 0.0015543 0.00085645 0.0016464 0.0022083 0.002417 -0.00034755 -0.00034106 -0.00030235 0.00012124 0.00010006 -3.241e-05 3.5568e-05 -0.036471
2.7887e-05 -1.5539e-06 4.5782e-05 5.9687e-05 5.0383e-05 0.00035367 0.00054105 -0.00021984 9.2923e-05 -2.3857e-05 -3.5647e-05 0.00011643 0.00034331 0.00091226 0.0010061 8.4916e-05 5.5199e-05 2.4666e-05 -6.7519e-05 -4.9701e-05 -6.4033e-05 2.1606e-05 1.9505e-05 -0.00019097 -0.00022292 0.0012432 0.0013278 0.00098979 0.0032443 0.0020553 0.00042303 -0.001608 -0.0044923 -0.01007 -0.011558 -0.0019333 -0.0008576 0.00015313 6.4205e-05 -3.4197e-05 -7.8484e-05 0.00010704 -0.0001771 -0.0018587 -0.0040533 -0.0031269 0.0026498 0.0029268 0.0027308 -0.0082275 -0.0082739 -0.013983 -0.021341 -0.034907 -0.028152 0.0016168 -0.00028852 -0.0028262 5.9679e-05 -9.8337e-05 -6.2825e-05 -8.57e-05 -0.0010187 0.010527 0.028462 0.050672 0.064868 0.012329 -0.025247 -0.024427 0.034081 0.05732 0.055681 0.041781 0.034105 0.063398 0.016709 -0.012543 -0.0068536 -0.00046228 5.0754e-05 -0.00045907 0.0016721 0.045976 0.094656 0.13662 0.10336 -0.037555 -0.092004 -0.056873 0.13787 0.30943 0.31218 0.12922 -0.0047144 0.064191 0.049025 -0.029749 -0.012913 0.0022681 3.4525e-05 -0.00039137 0.014884 0.067743 0.13413 0.13516 0.04321 -0.093316 -0.19065 -0.15518 0.18826 0.52972 0.44517 0.1647 -0.147 -0.084956 0.0088495 -0.040572 0.0017274 0.010561 0.00016023 -0.00084879 0.044995 0.14583 0.14227 0.067011 0.010166 -0.10042 -0.25263 -0.23175 0.057 0.45142 0.4603 0.25057 -0.087742 -0.16917 -0.096294 -0.061672 0.026611 0.017569 4.6245e-05 0.00094851 0.08656 0.18833 0.087754 0.02075 0.038458 -0.13842 -0.36779 -0.33653 -0.045088 0.26357 0.3811 0.32838 0.11696 -0.030678 -0.074946 -0.044848 0.030946 0.023176 -0.00062008 0.012064 0.092665 0.1269 -0.025003 -0.031881 0.065791 -0.09129 -0.44633 -0.52011 -0.23478 0.075965 0.25694 0.38107 0.34022 0.13536 -0.058459 -0.044636 0.011456 0.02057 -0.0015093 0.022549 0.090995 0.1423 -0.06717 -0.060305 0.19774 -0.10832 -0.61655 -0.76439 -0.53722 -0.24961 0.029522 0.26052 0.32132 0.061866 -0.15739 -0.09849 0.00081832 0.017421 -0.00096477 0.021849 0.078945 0.14066 -0.067731 -0.010181 0.22391 -0.16545 -0.64696 -0.7989 -0.55056 -0.20526 0.039643 0.16676 0.17211 -0.039444 -0.22242 -0.12046 -0.0023732 0.015738 0.00065509 0.027449 0.087331 0.11066 -0.015964 0.062052 0.19385 -0.022688 -0.29765 -0.44323 -0.22411 0.085832 0.12995 0.14717 0.17357 -0.0094417 -0.21854 -0.13824 -0.0028817 0.016133 -0.0016031 0.028242 0.10915 0.075622 -0.0086645 0.056097 0.20656 0.23602 -0.019171 -0.15389 -0.0018281 0.1076 0.091678 0.13729 0.12811 -0.015075 -0.16102 -0.14873 -0.032669 0.0085385 -0.0013712 0.018764 0.083651 -0.026849 -0.09211 -0.060539 0.13035 0.26981 0.093291 -0.04173 0.016707 0.11526 0.1176 0.019124 0.036842 0.043998 -0.088918 -0.11073 -0.038277 -0.001577 -0.00049483 0.010075 0.046827 -0.044589 -0.088546 -0.10822 -0.014266 0.16096 0.15432 0.091939 0.097478 0.1374 0.17008 0.043426 0.10162 0.10143 -0.066142 -0.088457 -0.039625 -0.0025191 -0.0001331 0.0041467 -0.0073765 -0.061364 -0.066903 -0.12848 -0.13964 0.037295 0.19385 0.2123 0.19879 0.18029 0.18824 0.1732 0.16543 0.096208 -0.018673 -0.059686 -0.030958 -0.0019516 -9.4236e-05 0.0021626 -0.021855 -0.061331 -0.12014 -0.24645 -0.25185 -0.028275 0.15763 0.24695 0.25147 0.23006 0.25635 0.21813 0.14934 0.052457 0.0051686 -0.015832 -0.0095996 -0.0014992 -0.00011876 0.00088347 -0.011947 -0.026774 -0.097444 -0.24179 -0.2683 -0.070052 0.051805 0.11779 0.10121 0.11468 0.1656 0.14432 0.086473 0.020152 0.00022423 -0.00035092 -0.00067457 1.2586e-05 -7.2186e-05 -2.3704e-05 0.00021004 -0.0042421 -0.037788 -0.098828 -0.10215 -0.041368 -0.0035939 0.0083479 0.0066413 0.033949 0.052404 0.029847 0.016902 0.0028908 -0.00011473 0.00023084 4.5523e-05 -1.1e-06 3.7072e-05 -3.6523e-05 0.00012132 0.0006702 -0.0043774 -0.0068598 -0.0076662 -0.00068601 -0.00071259 0.00033172 0.0014219 0.0048687 0.0073823 -0.0011188 0.0011546 0.00099416 0.00023228 -4.093e-05 -8.0129e-05 3.3727e-05 -0.28988
 
-1.483 -2.1669 1.4701 -1.1197 -0.7306 -1.2612 -0.99962 1.0464 -2.0967 0.36323 -0.43555 -0.157 0.78108 -0.91689 -0.28991 -1.3565 -2.0885 1.1961 -1.3632 -0.51471 -1.862 0.32794 1.1389 0.397 -1.4095 1.4413
0.24565 -0.37578 -1.2754 -1.6402 0.081781 -0.61256 0.76413 0.39467 0.50841 0.65675 0.73351 -0.48233 0.063292 0.14992 -0.72206 -1.8682 0.73132 1.3123 0.63612 -0.2761 -2.588 -3.003 1.2066 0.082226 1.6518 -2.3546
0.11325 -0.34936 1.4136 0.33768 0.39811 -0.74564 -1.6864 0.39874 0.87332 -1.3127 -1.612 0.28193 0.37987 0.40836 -0.87308 -2.6094 0.16592 1.1919 1.1992 0.87466 -1.09 -2.0717 -2.2453 0.86266 -0.96425 -2.0334
1.3763 0.38536 -0.25719 -2.1409 -0.6798 -0.015183 -0.46105 -1.9576 0.023027 -1.1134 2.8182 -1.6507 -2.3053 -0.59619 -0.27111 0.62923 -1.1286 -1.7301 -1.0074 0.55121 0.85275 0.02805 0.16869 -0.66755 -0.34013 -0.33358
0.091848 -0.49319 -2.503 -0.26631 -1.0882 -0.86085 1.2623 -1.186 -0.83455 -1.1425 -0.43768 1.3247 -1.2261 0.3634 -0.75753 0.15121 -0.79675 0.20089 1.3066 0.81035 1.0335 -0.21542 -3.1465 1.6379 -1.7673 -0.63656
0.58288 -0.024884 -1.9212 -1.9029 -0.11621 -1.0106 1.3563 0.32009 -1.8085 0.30164 1.2507 0.18567 1.2537 0.11594 -0.29127 1.3017 -0.89222 -2.7564 -1.9038 -1.3883 -1.607 1.0448 -0.8351 -0.25452 0.060907 -1.1654
-2.9034 -1.4355 0.098821 0.82246 -0.84825 0.81233 -1.7254 -1.2451 0.48505 0.85311 -1.8528 -1.6229 -1.7017 -0.86082 -0.093242 -1.4989 0.68883 0.35851 -0.24255 0.089285 0.26905 0.57827 0.09872 -1.6866 0.096596 0.24885
1.2806 0.52169 0.66534 -0.29357 -1.9103 -1.7615 1.4016 0.69361 -0.9237 -2.1537 -0.8077 0.75969 0.5109 0.088575 -1.4658 0.1325 -0.061678 0.93101 0.57106 -1.1143 0.97923 -1.646 2.1031 -0.031168 -1.4983 -3.9458
1.4314 1.1308 0.51535 1.6144 -0.59541 -1.3684 -1.6414 -1.5194 -0.11397 -0.84805 -1.9225 -1.2864 -1.7671 -0.66263 -0.5905 1.2408 -0.3231 0.29617 -0.93316 -0.6734 0.26232 -0.16191 0.45959 -0.43786 -0.57762 -1.2825
-0.96001 0.13954 -2.5387 0.35262 1.4616 1.7112 0.71261 -0.27546 0.72725 -0.97152 -1.0672 0.38012 0.1655 1.0207 -1.0897 0.1949 0.46624 -1.8755 0.8625 -1.8591 0.65622 -1.2901 -2.0238 -1.4968 1.3591 -2.0278
