 
1.592944431354182 -2.356213880973372 1.458327442544491 0.2598377392550623 -1.490620283885632 -1.528815663922101 -1.76675902708078 1.115322273912652 1.343284284035752 -2.539741089741739 -1.122268360262918 -0.6796338678498112 -1.115696577115766 0.2888492470533902 -2.115063795540516 -0.8710576549031844 1.078296789245894 -0.7539677455947577 -0.1719416261947316 -0.03032783152010643 -2.246954495163607 -1.654083791237059 0.9481318401034001 0.1829716670467186 -1.979315421739864 1.06765706452793
-3.671551869043557 0.5513782320499058 0.170691668508205 -0.2689246501996578 -1.360542706536736 -1.011526919779534 -1.316786262226497 1.393488331362277 1.414345058866218 -0.02214346937044402 0.4683475931030833 -0.1028353528425579 1.128060138447977 -2.499275078812881 -0.04230729404150092 -1.546778170295512 -0.6998377065888904 1.438320045626209 0.1070737364867731 1.720703477682252 0.8448556765264227 -2.29030065183327 1.697809400959211 -1.890398639690844 0.817237184118187 -0.6804861597006402
-3.249796400585565 -2.350831627296938 0.6721475337710511 -1.701464728261815 -0.0630386380100435 -0.9523123193593162 1.376699051448233 1.567020873423997 1.661543808844741 0.1472594076035975 -0.3360402269160634 -0.01381204911976864 -1.887847426728094 0.3640774297169125 0.2724271602986545 -0.9748082678720333 -0.5977924604890125 0.5868752498327197 -0.1677679705826228 -1.252129947185007 0.6629813403966479 -2.928192299754317 0.8226008169748369 0.1322558891166301 0.821725656096383 -1.941414758635273
-0.9064037905003776 0.008310575881962521 -1.426104286964635 1.533850085935357 -2.907883662344616 -1.195839615502029 -1.198222250712892 -1.131401326254484 -1.037000871474729 0.3088443118982437 -1.724814502240669 -2.263900079617716 1.405984021143307 0.8761016721467252 1.537319852260389 -0.05931165885776336 -1.722170218639461 -1.782933096367751 -0.9479407465333514 -0.01944313590342782 -0.753180691031514 0.4721425582530194 -0.9361731168511548 1.487430385268812 0.03640638516053787 -0.2715354050756055
-1.308506119977131 0.1437831039057786 0.5378872223719177 -2.454884914249539 0.07372034383892459 -1.268248843715666 0.7041573615253479 1.456502309580564 -0.09358529829246565 0.09852013291188713 -1.507948509203239 -0.6832028592003884 -0.3851475662224214 0.6657937538117105 0.3298582078376816 -0.08430113186917707 -0.7906143087880301 0.3342306716727502 -1.31421072830955 -0.6097289131401351 -1.05857064075342 3.242735837297775 -0.311935951428555 -1.42198593408418 -1.113303301082383 -1.503849726812061
-1.875779036648026 -0.05782899949110545 0.472960184608304 0.6706800678009228 -1.472532120130854 -1.353231411561914 -0.4368554091130633 -1.875088182717598 -0.6995607783027108 0.08920335355675128 -0.8349075522182681 1.335468075296715 1.617374940600502 -0.7765171726990084 0.0997653503292124 -0.4330866818014452 2.305995105884131 -2.731661340388169 -0.3147514467447655 1.967542925271516 -0.9938390531669647 1.150548729375354 -2.142582699455458 -2.454456612873993 -1.386867728891303 0.5042333834165313
-0.1314960103719304 0.3712035234013877 -1.573321212925718 -0.1415286527927131 1.494627194738126 1.858424203118412 -1.112821161820222 -0.3488819639494293 -0.2376144736512678 -1.999406153318625 0.3654915874461243 -1.753990806453609 -2.227283753871845 -0.1726250341472355 -0.7432109889620303 -0.493108259137799 -1.890550436758014 1.140159479486457 -1.069113817061162 -1.62071216806564 0.3675070189800992 -1.984152002526635 -0.8928351417618851 1.195653532166597 -0.5372188634197635 0.009652516993702991
-5.679287445772651 1.588024985287486 1.103812040369479 0.06734609579912763 -0.6183683734116266 -2.181952006549299 1.395276172073979 -0.02593305911196383 1.304371415093277 1.129694159039172 -1.004257349202224 -1.103784081029228 1.711790444534114 -0.03114822198408201 -2.632448980999074 -2.022267104339172 1.219937165944953 1.040106929791992 -1.198629554101732 -1.355214610682282 0.07666791844921583 0.2176814449822772 1.279179772100132 1.102186021560759 -0.1537442315134549 -0.371137631732948
-2.109222592386926 -0.2091275911722686 -1.764461094558573 1.058272855259084 0.8456534156329375 -1.399410081266565 0.9253644753816304 0.5817036106363687 -0.2397130714069168 1.647245510657107 0.7935066957663907 -1.064196567614238 1.133559098692444 0.04130746870974848 -2.383675059422641 -0.4841194122611728 -1.867256178352439 -0.673841863215379 -0.8792671491812529 -2.045297918008179 -0.7624248125505432 -0.8181170985570418 -1.304452761942313 0.2695687949595379 -0.4436197883860146 0.4586978423383168
-2.447461807205396 0.4190675065375671 -0.9337605134670685 -2.442048382783108 1.394175933325074 1.294878931710574 0.6067087458921753 -2.112468379660504 -1.928213682330431 0.02690771493269916 0.3241151725469416 1.1331730948368 0.08440526634589937 -2.68699733902291 1.245786490267129 -0.7030752457386718 -0.4727985764675185 0.6429302369009005 1.221933757680084 -0.9899617162561467 0.2879525890328616 1.020037276690249 -0.3190360840255224 -2.266381375842098 0.1955692148567089 -2.403871789620514
