[ 0.0795112  -0.0038624  -0.00277156 -0.08895517 -0.02696884 -0.00531669]
[-0.00047723  0.2620724   0.2903557   0.12975878  0.01024475  0.0659721
  0.19242178  0.13762642  0.13826178  0.02949963  0.0653324   0.13637038
  0.19824447 -0.30831417 -0.09321295  0.0895093  -0.11955581  0.12227229
 -0.10459551  0.04455205 -0.06264461 -0.22450545 -0.14343219 -0.0669177
 -0.25155222  0.09834089 -0.0810236   0.2696802   0.20648283  0.1787816
 -0.1445253  -0.23335469  0.1476334   0.25074378 -0.02351732 -0.01548421
  0.16299368  0.00978481 -0.20286049  0.17918843  0.27667212 -0.31018412
  0.07532935 -0.14095809 -0.08520913 -0.14829117  0.16518575 -0.16146578
 -0.17941557  0.15782101 -0.08443403  0.17470194 -0.18256155 -0.0783929 ]
[-0.13612035 -0.02649079 -0.0614788  -0.07933652 -0.03876096  0.00337
 -0.0216854  -0.02791692 -0.08142786  0.00619136 -0.0817159  -0.01751429
 -0.00516663 -0.01367544 -0.04314752 -0.04388819]
[-9.55551192e-02 -5.03795557e-02 -1.08081356e-01 -4.98556979e-02
 -1.04793452e-01  1.94291919e-02 -3.09756538e-03 -1.72734067e-01
 -5.36944792e-02  4.75270720e-03 -1.45631447e-03  5.20558003e-03
  1.13497423e-02  7.11798593e-02  1.04806900e-01 -1.61518276e-01
  1.05710268e-01 -5.15519790e-02  6.76027089e-02  1.65624231e-01
  6.13803416e-02  5.43141551e-03 -1.54347226e-01 -1.42287701e-01
 -3.94231342e-02 -1.47918507e-01  1.99719556e-02  6.96348697e-02
 -1.63136691e-01 -8.50172713e-02  2.84673989e-01 -1.89072371e-01
  8.31336975e-02 -9.49957892e-02  8.92644301e-02 -1.67477474e-01
 -1.98232904e-02  8.36316571e-02  3.41176130e-02 -6.65964708e-02
  3.41021270e-02 -1.95379257e-02 -9.53649282e-02  1.10939601e-02
  7.45852068e-02  2.31084209e-02  2.23038673e-01 -1.68573707e-01
 -1.69289857e-01 -7.75834396e-02 -1.38260603e-01 -1.01571955e-01
 -1.16089262e-01  1.38972536e-01 -1.83083758e-01 -2.32937932e-02
 -1.27502978e-01 -1.30089551e-01 -4.26476859e-02 -1.55827597e-01
  1.20849274e-01  1.27764374e-01 -1.15138004e-02  1.21996798e-01
  2.19478514e-02  1.51999205e-01 -1.69512972e-01 -7.78130814e-02
  1.00112177e-01 -1.21989228e-01 -1.74656525e-01  1.27174467e-01
 -9.73879173e-02  1.21422745e-01 -1.62540510e-01  2.16633342e-02
  6.61737621e-02 -1.67358771e-01  7.94836581e-02 -5.34190536e-02
  4.06218469e-02  1.15108848e-01 -8.23611096e-02  8.04855451e-02
 -4.93718311e-02  1.49882525e-01  1.17999464e-01 -1.88059941e-01
  8.38754550e-02  9.18698460e-02 -7.17014223e-02 -8.43434632e-02
  8.97166412e-03  1.00923993e-01 -2.29474545e-01 -1.03041552e-01
  7.15278462e-02 -3.76555622e-02 -1.39357254e-01  3.94522399e-02
 -1.10451028e-01  1.11065537e-01  1.60264269e-01 -1.39538243e-01
  3.86141129e-02  8.45983028e-02  6.88735917e-02 -1.71702113e-02
 -8.92955363e-02 -4.63314578e-02 -3.02776217e-01  2.65037082e-02
  5.74180931e-02 -2.29584306e-01 -1.22529335e-01 -4.22297418e-02
 -1.69421777e-01  2.04351358e-02 -1.36636734e-01 -1.74959168e-01
  1.44908443e-01  1.17612936e-01 -2.76429150e-02  1.33593306e-01
 -9.45059508e-02 -5.59811145e-02  1.81181729e-01  2.03289852e-01
 -8.38039890e-02 -4.41803709e-02  8.44381228e-02  6.24878779e-02
 -5.95894158e-02 -1.56254500e-01  1.78599820e-01 -5.12938015e-02
  2.70038620e-02  8.88491124e-02  1.17785625e-01 -1.61540702e-01
  7.29682818e-02  2.50079576e-02 -1.69280432e-02 -8.75907764e-02
 -7.86996186e-02 -1.68212980e-01 -4.00878824e-02 -3.28656938e-03
 -7.87352696e-02  1.90678872e-02 -1.44098178e-01  1.61442921e-01
  9.77018327e-02 -2.00390428e-01  2.48783156e-02 -3.66627052e-02
 -1.84939012e-01  1.56629771e-01  6.06325688e-03  2.87421513e-02
  6.47710562e-02  1.79516420e-01  8.20469260e-02 -4.23930846e-02
 -9.31432396e-02  1.55172322e-03 -1.14161290e-01 -9.41153988e-02
  1.56828873e-02 -3.20778228e-02 -8.34481698e-03 -1.32237047e-01
 -3.75186675e-04  2.49718111e-02 -5.79575598e-02 -3.99488583e-02
 -7.86193311e-02  7.66098797e-02  8.23601782e-02  9.01304111e-02
  2.56508011e-02  1.53790265e-01  2.26334319e-01 -9.47770923e-02
 -1.43109679e-01  1.36134997e-01  7.45206252e-02  5.86856194e-02
 -1.03929952e-01 -1.61364317e-01 -1.49780825e-01 -5.80289513e-02
  1.51067495e-01  2.22153053e-01  3.14549878e-02 -6.82085454e-02
 -3.19634639e-02 -5.77212647e-02  1.08927414e-01  8.33852217e-02
 -1.09450698e-01 -1.25088736e-01  1.71822365e-02 -5.90315796e-02
  2.86056716e-02  4.14152071e-02 -3.09954315e-01 -2.17138557e-04
  9.57354009e-02  3.00798509e-02  2.50418857e-02 -1.25295654e-01
  2.09499180e-01 -1.17908614e-02  5.19217066e-02 -4.41895053e-02
  1.69331968e-01  7.70898536e-02  1.10076725e-01  1.48893157e-02
  1.44328400e-01 -1.15988344e-01 -2.87386954e-01 -6.25648303e-03
  1.24703415e-01 -2.65431702e-01 -2.16646213e-02  6.22333698e-02
  4.05488424e-02 -5.34499921e-02  1.62714213e-01  1.17085136e-01
  4.62105982e-02  8.82161595e-03 -5.74346446e-02 -1.23647690e-01
  5.26729189e-02  2.12735571e-02 -3.83015513e-01  2.93939579e-02
  7.80002549e-02 -1.30167872e-01  1.04417913e-01  1.21267967e-01
  3.26158889e-02  3.22085842e-02 -4.80368398e-02  1.02895193e-01
  3.41011956e-02 -1.84067026e-01  1.37699485e-01 -1.57541886e-01
  1.04676619e-01  1.59841359e-01  7.74259642e-02 -1.49113089e-01
 -8.67362022e-02 -2.36581713e-01 -4.78906631e-02 -5.22656292e-02
  2.43326724e-01  4.77631167e-02 -1.61654055e-01  1.34501755e-02
 -6.08411580e-02 -1.18312895e-01  9.65861604e-03  1.40039712e-01
 -2.34359652e-01  9.94999111e-02 -8.14679712e-02  2.29270011e-02
 -1.67862862e-01  2.06205677e-02  5.38466237e-02  4.94245291e-02
 -7.79515356e-02  1.67988360e-01  1.39153183e-01 -1.64533958e-01
  6.41532913e-02 -6.60993485e-03 -5.88113405e-02  1.92544356e-01
 -6.85957223e-02 -1.48262739e-01 -1.24530442e-01 -9.23051089e-02
 -6.49856031e-02 -4.90084738e-02  5.79892322e-02  2.38650832e-02
 -9.03854147e-02 -1.24901019e-01  5.79876006e-02 -1.03165954e-01
  9.42140743e-02 -1.78352341e-01  8.88120532e-02  5.83625324e-02
 -1.17128365e-01 -2.72862557e-02  3.51999216e-02 -9.98913720e-02
 -1.07873559e-01  1.09540693e-01  3.89930196e-02  5.46402372e-02
 -1.05156355e-01 -1.02077484e-01 -3.22483182e-01 -6.77900240e-02
 -4.81180400e-02  7.84858540e-02  8.63534287e-02 -9.45068076e-02
  7.07800984e-02  1.65894836e-01  1.06642783e-01 -2.26281241e-01
  4.91244458e-02 -3.02752286e-01 -1.00412898e-01  1.20921575e-01
 -1.38936061e-02 -2.55376268e-02 -4.58385274e-02 -6.76881596e-02
 -1.31872706e-02 -5.41823581e-02 -2.48899199e-02  1.65506199e-01
 -2.12746952e-02  7.45105520e-02 -1.65226627e-02 -1.06945969e-01
  1.16034947e-01  4.84248586e-02 -1.09656021e-01  5.20475432e-02
 -1.21954769e-01 -1.74013644e-01  1.29369542e-01  3.74484397e-02
 -7.04612508e-02 -9.40964743e-03  7.42388964e-02  8.15282762e-02
  8.33358318e-02  4.31856625e-02 -1.15556382e-01 -5.10247983e-02
  1.02281578e-01  1.85058708e-03  6.65740222e-02 -1.38713628e-01
 -1.94811244e-02 -1.08867377e-01  1.67648837e-01  1.35851517e-01
  6.53707683e-02  6.40838891e-02  1.04188889e-01  1.49262905e-01
 -1.16625257e-01 -2.22169515e-02 -1.08000182e-01 -9.80498344e-02
 -1.35227412e-01 -2.52849549e-01 -6.46013916e-02 -9.69809219e-02
  6.59031048e-02  1.69082627e-01  1.24005176e-01  4.90685962e-02
 -8.26358721e-02  4.59695011e-02  1.02937900e-01  2.24612981e-01
  4.72162366e-02 -1.31692424e-01 -1.06024556e-02  4.05492224e-02
  2.80515831e-02 -1.39532536e-01 -3.26172914e-03 -1.22233536e-02
 -1.36449244e-02  2.25380883e-01 -7.46627003e-02  5.41824438e-02
 -1.28558680e-01 -1.00174267e-03 -4.92603481e-02  2.93210391e-02
  2.67185662e-02 -5.86132072e-02 -1.41635686e-01 -1.77786555e-02
  9.94281396e-02  2.42253885e-01 -3.27764750e-02  6.40565157e-03
 -2.44386524e-01  1.81366086e-01 -8.98902193e-02  8.46550316e-02
 -1.04208365e-01 -1.18292168e-01 -1.32507652e-01  4.77793477e-02
  1.68539569e-01 -7.22446665e-02 -1.98636338e-01 -1.87876746e-01
  1.65610895e-01  3.04169599e-02 -1.16009846e-01 -2.60967035e-02
 -2.80680478e-01  9.53220651e-02 -1.74746796e-01  1.51441291e-01
 -6.42146990e-02 -1.73397660e-01  2.02202927e-02 -7.09319264e-02
  1.42920494e-01 -4.22372185e-02 -1.10704498e-02 -1.93939805e-01
 -1.42621070e-01 -6.82903454e-02  2.35377550e-02 -1.39383927e-01
 -1.35610089e-01 -3.91298532e-02  8.39045495e-02  3.46398242e-02
  1.40320778e-01  1.15563765e-01 -8.10497403e-02  1.42093390e-01
 -4.25290912e-02 -1.40574217e-01 -9.47327763e-02  9.44735780e-02
 -1.27547413e-01 -4.63980958e-02  1.96421891e-02  5.61789684e-02
 -1.04748368e-01 -2.73761302e-01  9.88050178e-02  1.12051338e-01
  4.18006778e-02 -4.85845190e-03 -6.00472316e-02 -2.11339101e-01
 -1.41676068e-01 -1.21856324e-01  7.73994774e-02 -2.57660169e-02
  1.72774754e-02 -3.07092458e-01 -1.17517486e-01  1.15919441e-01
  6.59610778e-02  1.44078791e-01  2.70629853e-01  1.17937885e-01
  1.48002774e-01  9.93585363e-02 -9.25861299e-02  1.62552208e-01
  4.59881574e-02  1.02432529e-02 -1.95539281e-01  7.76174963e-02
 -3.92163731e-02 -2.30819091e-01  8.95567164e-02  6.85642511e-02
 -1.28470853e-01 -1.55423313e-01  9.56927091e-02 -1.74300134e-01
 -1.26633823e-01 -6.10508316e-04  6.66366518e-02 -1.76069573e-01
 -9.37560722e-02 -1.00530140e-01 -4.85668425e-03 -1.82210907e-01
  1.43866643e-01 -1.82141573e-03  1.03530250e-01 -1.70467481e-01
  3.99353579e-02  7.04875663e-02 -2.98086405e-01 -6.10845834e-02
 -1.56491533e-01 -1.81994110e-01  8.07036683e-02  6.65182620e-02
  6.13407185e-03 -7.92428404e-02 -1.35782901e-02  1.20341189e-01
  1.56525448e-01 -2.13191867e-01  3.73027027e-02  9.19049140e-03
  6.75858036e-02  5.27666733e-02  1.14746995e-01 -3.67056355e-02
  9.55163687e-02  5.79536743e-02  5.94465397e-02  7.50679746e-02
 -1.63448155e-01  1.59402080e-02 -3.32949311e-01 -1.28430976e-02
  8.53665918e-02  4.96928627e-03  7.68932477e-02  1.12572238e-01
  8.32919553e-02 -1.15362607e-01 -9.13609341e-02 -9.53101814e-02
  6.35532364e-02  1.70089290e-01 -1.72100395e-01  6.54985383e-02
 -8.32303762e-02 -1.33463576e-01  6.97744191e-02  1.35421425e-01
 -1.24560393e-01 -2.07366616e-01 -1.73511580e-01  5.80553897e-02
 -3.79630141e-02 -1.45117313e-01 -4.15815525e-02  4.96293604e-02
 -1.70887142e-01 -9.15101990e-02 -1.67053774e-01 -9.67846438e-02
 -6.60261437e-02  3.36956345e-02  1.54317200e-01 -1.30398124e-01
  8.95229727e-02 -1.43534437e-01 -5.35102151e-02  5.85038448e-03
 -5.68458028e-02 -2.14551643e-01 -1.35654241e-01  6.34479597e-02
  1.22865200e-01  9.17893574e-02  4.68652025e-02 -1.07532255e-01
  1.39009044e-01 -1.59964100e-01 -1.73749447e-01  1.38998628e-01
  4.98520173e-02  2.96106245e-02  1.23959035e-01  9.67768207e-02
  1.18606776e-01 -1.02739587e-01 -2.03491226e-02 -5.42489775e-02
 -1.87215820e-01  4.67631519e-02  4.18105572e-02  1.65851682e-01
  1.12367131e-01 -2.74995752e-02  8.68105143e-02  5.16547225e-02
 -1.23540811e-01  2.90123466e-02 -1.68624863e-01 -2.38961205e-02
 -2.38394644e-03  6.49442822e-02 -1.07551627e-01 -9.54574421e-02
  5.58601618e-02 -1.25182763e-01 -1.77169994e-01 -3.38222682e-02
  6.06159233e-02 -8.13584849e-02 -3.08828969e-02  6.64682686e-02
  7.31972381e-02 -7.05784932e-02 -1.68486267e-01  7.56272823e-02
  2.25381535e-02  2.06766725e-02  7.48775676e-02 -2.66385525e-02
 -2.02013612e-01 -1.57645643e-02 -3.31113636e-02 -1.88792408e-01
  3.27978954e-02  1.78052247e-01 -2.03635037e-01 -1.25239238e-01
  1.21650420e-01  6.74578473e-02 -3.37845422e-02 -1.10648170e-01
  6.71532601e-02 -9.78271738e-02  2.69116759e-02  1.15678390e-03
  1.19270794e-01  1.69466272e-01  1.04991458e-01 -1.05344914e-01
  4.68256362e-02  1.39469327e-02  4.01119478e-02  4.02043425e-02
 -2.29547899e-02  8.75826925e-02  1.32802650e-01  8.72409716e-03
  1.67346060e-01 -2.04386175e-01  1.28500253e-01 -1.88887343e-01
  5.67526855e-02 -1.03533700e-01  1.27796993e-01  1.69485390e-01
 -9.17188451e-02 -1.64249629e-01 -3.53626348e-02  4.88312505e-02
  1.17957495e-01 -2.64606088e-01 -5.54009378e-02 -9.07892436e-02
  1.38102502e-01 -8.96315128e-02 -3.62313166e-02  7.03573748e-02
 -2.61335045e-01  1.24251926e-02 -2.39739329e-01  1.60292874e-03
 -8.86852443e-02  1.27330795e-01 -1.63909808e-01  3.27277891e-02
 -1.49374336e-01 -2.14533746e-01  1.09928727e-01  1.54665187e-01
 -5.85959777e-02 -9.83982161e-02  1.49371386e-01 -1.06052481e-01
  1.29814535e-01 -8.30295384e-02 -1.55812889e-01 -1.28788456e-01
 -1.98069066e-01  1.22474618e-01  9.84938219e-02  6.18714690e-02
 -1.62424862e-01  2.22381517e-01 -3.91070843e-02 -5.41590638e-02
 -1.50237381e-01  1.45021901e-01 -2.07619280e-01 -1.08620293e-01
 -2.78201513e-02  5.30027486e-02  5.58713861e-02  6.95680082e-02
 -1.54007509e-01  1.48356661e-01 -1.66796312e-01 -3.83719150e-03
 -9.88892242e-02 -1.41649082e-01 -2.28616521e-02  5.79026118e-02
 -5.54814637e-02  3.16110663e-02 -6.35861680e-02 -1.27880514e-01
  6.65431023e-02  1.58081613e-02 -1.56647582e-02 -1.59103215e-01
 -6.07799664e-02  4.90602702e-02 -2.08065465e-01 -3.48479971e-02
 -7.98789505e-03 -1.27573699e-01 -7.78451795e-03 -7.11708963e-02
  2.95418710e-03  2.81686950e-02 -3.49337496e-02 -1.53625458e-01
 -1.17778741e-01  8.77306238e-02  8.56814161e-02 -1.85699806e-01
 -1.40936971e-01  1.05156526e-01 -6.36430234e-02 -1.61585286e-01
  7.15463459e-02 -1.65407166e-01 -3.78968529e-02 -7.09577873e-02
 -4.91880476e-02  5.16954139e-02  1.41162490e-02 -1.00637197e-01
 -1.65039346e-01 -1.27296880e-01 -1.52159452e-01 -1.33272693e-01
  2.71205623e-02 -1.64114371e-01 -7.35942498e-02  1.37390330e-01
  2.01117977e-01 -1.42224029e-01  7.88988695e-02  6.46541193e-02
 -1.12304650e-01 -3.26217026e-01  1.25407949e-01 -8.20524804e-03
 -8.30629915e-02 -4.14769389e-02  8.73993784e-02  5.95871592e-03
  1.02135681e-01  1.49642497e-01  6.30133450e-02 -1.24482796e-01
 -1.26576290e-01 -6.86481297e-02  8.17937180e-02 -7.52237141e-02
 -2.38637254e-02 -1.89208850e-01 -7.82477558e-02  1.34075046e-01
  7.00585693e-02 -9.20972377e-02 -1.07615240e-01  2.12049678e-01
  8.26232880e-02 -2.84617059e-02 -5.02014812e-03  8.17501396e-02
  7.80632645e-02 -8.85646194e-02 -1.65383950e-01 -6.57065725e-03
 -1.15762398e-01 -1.92754883e-02 -4.60001524e-04  1.54083863e-01
 -1.32109687e-01 -6.37332909e-03  3.29359155e-03  8.22069645e-02
  1.06849037e-02  7.74664199e-03 -3.31310257e-02 -6.32285699e-02
  4.54926863e-02 -4.55610603e-02  6.54046312e-02  2.68803593e-02
 -1.93096265e-01 -3.30347195e-02 -1.26529783e-01 -1.16851188e-01
 -2.64721811e-02 -7.14381188e-02 -1.55788541e-01  9.07070637e-02
 -4.75560986e-02 -7.32821897e-02 -2.76393354e-01 -4.01316695e-02
  3.18456776e-02  1.78932160e-01 -2.63330471e-02  1.09306663e-01
  2.00434607e-02  5.48205264e-02  9.36575234e-02  7.52045028e-03
 -2.38454640e-02 -1.85585693e-01 -1.35708731e-02 -9.10416022e-02
 -1.40699789e-01 -1.83881998e-01  8.85666683e-02  2.83092223e-02
  7.24366754e-02  1.82995826e-01 -8.80892426e-02 -1.76511556e-01
 -1.08886443e-01  1.31510928e-01  6.06480129e-02 -4.23141681e-02
 -1.48188367e-01  6.33006766e-02 -1.13648362e-01  1.34165511e-01
 -4.22060899e-02 -1.18791498e-01  6.96694404e-02  7.61676803e-02
  1.22772075e-01 -2.50199229e-01  5.08217700e-02 -1.07582845e-01
 -1.18532162e-02 -3.69400457e-02  1.95070043e-01 -8.77042580e-03
 -1.73677370e-01  9.35562775e-02 -9.19616446e-02 -8.30524117e-02
  1.20457403e-01 -3.17907035e-02 -7.61312321e-02  6.80665076e-02]
[-0.00880985  0.0092213   0.00159952  0.01754617 -0.00522961 -0.00810864
 -0.02989841 -0.00129845  0.00020408  0.01652868 -0.00504494 -0.00416023
 -0.02084628 -0.01553313 -0.00263077 -0.0066259   0.00060988 -0.006294
 -0.02611277  0.0111007   0.0123666  -0.01050113 -0.01759297  0.02175826
  0.00378289 -0.00365909  0.00360281  0.00682539 -0.01634474 -0.0118988
 -0.02422157 -0.02118923  0.01367319 -0.01871057 -0.01902403 -0.01353825
 -0.00793091 -0.0109882  -0.01603348  0.01137561 -0.00746593  0.00840145
  0.01856645 -0.00064034 -0.01087849  0.00708913 -0.00732425  0.00779528
  0.00039696 -0.00919682 -0.0059458  -0.0164155  -0.00377593 -0.02006825
 -0.0408303  -0.00757895 -0.01369885 -0.00218099 -0.00487728  0.0067057
 -0.01761775  0.0132134   0.01007654 -0.00813464 -0.00879176  0.01095555
 -0.00481655 -0.02601938  0.00960672  0.02524247 -0.01870322 -0.01515947
 -0.00275879  0.01164315  0.00751714  0.01092908  0.01200757  0.01188214
 -0.02683907  0.02980648 -0.00553428 -0.00498776  0.01118439 -0.03296382
 -0.02448439  0.00468097  0.01012402 -0.03292957  0.0145739   0.00772072
 -0.00602588  0.0126799   0.01261945  0.01108206  0.02295412 -0.01054359
 -0.01144892 -0.00139116 -0.01088067 -0.00920278  0.0023871   0.01289586
 -0.01108895  0.00943493 -0.00902793  0.00933218 -0.00362573 -0.04316096
  0.01466472 -0.01370589 -0.0156259  -0.00096216 -0.00323847  0.00793733
 -0.02524799 -0.04075779  0.00341103 -0.01134547  0.00151751 -0.029244  ]
[ 0.01158172  0.0346261  -0.01327662 ... -0.0945343  -0.03071482
  0.0469765 ]
[ 2.36109588e-02 -2.79547507e-03 -5.79555798e-03  1.23830633e-02
 -8.74513108e-03 -1.63815112e-03  5.16221765e-03  8.91072501e-04
 -2.21201796e-02 -1.96057316e-02 -2.58879028e-02  6.55759266e-03
  1.54676586e-02 -1.36675145e-02  1.41014531e-02  3.95906195e-02
 -2.56764535e-02 -1.11498460e-02  1.73254940e-03 -2.95963958e-02
 -1.24950043e-03 -2.34750081e-02  2.42162118e-04 -1.47825629e-02
 -2.99393833e-02  2.88581178e-02 -2.55835075e-02  1.60405636e-02
 -3.95742012e-03 -8.49978416e-04  7.65357260e-03 -1.31907184e-02
 -8.44514556e-03 -9.80048813e-03 -4.50616255e-02  2.64768451e-02
  2.63959039e-02 -5.49810356e-04 -6.33047195e-03 -3.53747979e-03
  2.98797240e-05 -2.33877972e-02  4.09333557e-02 -1.47351576e-02
 -1.55589008e-03 -3.57568450e-02 -1.44100785e-02 -3.23424079e-02
 -5.45094069e-03  3.55182327e-02 -6.67628506e-03 -2.47549396e-02
  8.51581618e-03  1.71955936e-02  1.74393374e-02  1.66492444e-02
  1.14924638e-02 -1.46107161e-02 -2.93132081e-03  2.78797243e-02
 -1.78675763e-02  2.19713454e-03 -1.27755301e-02  1.13859028e-02
  1.89417507e-02  1.43948346e-02 -4.95252898e-03 -2.74591893e-02
  2.54186918e-03  6.35639019e-03  7.53985578e-03 -8.56096298e-03
 -3.58207412e-02 -1.86955277e-02  1.74328089e-02 -7.69762229e-03
  1.10735709e-03  3.48138176e-02  8.82563647e-03 -2.01806724e-02
 -3.34721915e-02 -1.09197889e-02 -2.83045806e-02  1.22421775e-02]
[ 0.16001882  0.124755    0.05386338 ...  0.0192802  -0.07011094
 -0.01083968]
[-0.02112494  0.01657456 -0.00113059 -0.01635931 -0.01131892 -0.00127325
 -0.02551966  0.02185062  0.03379514 -0.00709131]
[-2.38828495e-01 -5.45516461e-02 -2.15883031e-01 -2.73178130e-01
  1.24885812e-01 -2.04396531e-01 -1.12957433e-01 -1.07313078e-02
  2.09627859e-02  1.68186963e-01 -1.97676420e-01 -4.20568436e-02
  4.43642959e-02  2.19341159e-01 -2.34312788e-01  2.09483549e-01
 -7.98603818e-02  1.68574527e-01 -1.49181888e-01 -2.08127737e-01
  1.99489117e-01 -7.88784772e-02 -1.26224115e-01  1.77327901e-01
  1.67581588e-01 -1.09272212e-01  9.70371664e-02  1.51468605e-01
 -1.44121319e-01 -4.67049815e-02  7.26196319e-02  2.72536188e-01
  1.75692558e-01  9.44904834e-02  2.27568343e-01 -5.23606827e-03
  1.50641352e-01  2.28618547e-01  3.15254405e-02  2.08518669e-01
  6.14327192e-02  2.04511687e-01 -2.42333174e-01 -4.42082994e-02
 -7.10967928e-03 -1.44786835e-02 -1.46948889e-01 -1.19373061e-01
 -8.08330849e-02 -3.76691706e-02 -5.47957607e-02  1.99665695e-01
  7.67009035e-02  1.48102194e-01  2.21076645e-02  1.57394454e-01
  1.06908202e-01 -2.13117436e-01  2.02467009e-01  9.35443565e-02
  6.22203723e-02  1.58405542e-01 -2.33111292e-01 -1.61071226e-01
 -1.32321240e-02  7.86696821e-02  7.47073963e-02  3.40308882e-02
 -2.07985491e-01 -9.91046727e-02 -2.28352576e-01 -9.01189819e-02
  1.26138180e-01  2.76480690e-02  1.58641964e-01  2.09007099e-01
 -1.64443865e-01 -6.94281235e-02 -2.20013633e-01 -2.27236822e-01
 -3.07870805e-01  9.51814055e-02 -6.76690787e-02  3.97652909e-02
 -1.45817339e-01  1.19677231e-01 -6.09272569e-02  6.65164813e-02
 -9.14906412e-02  1.52662724e-01 -5.56353554e-02  2.34020084e-01
 -2.05137640e-01  6.72940463e-02 -1.27433404e-01 -1.51148647e-01
  5.03618307e-02 -1.18684992e-01  6.04656786e-02 -1.73136786e-01
 -2.42147565e-01 -1.91832125e-01  1.96362033e-01  1.23828031e-01
 -1.68494992e-02  1.33109599e-01 -1.16955176e-01 -5.80832316e-03
 -5.38327694e-02  1.01585403e-01  1.01989172e-01  6.61664233e-02
  2.09800020e-01 -2.02000048e-02  1.97285101e-01 -1.15024425e-01
  1.89285919e-01  8.06578249e-02  1.42238036e-01  3.34088318e-02
  1.57787487e-01  1.67259306e-01  2.41542161e-01 -2.08956167e-01
  8.03591032e-03 -1.58046573e-01 -1.65155753e-02  1.53448200e-02
  4.99320067e-02 -2.00582996e-01  2.03755796e-01 -6.02827109e-02
 -3.58736590e-02 -5.73920161e-02 -1.19524099e-01 -1.01637833e-01
 -2.17866108e-01  6.74533146e-03 -1.61311984e-01 -2.60665208e-01
 -4.11310159e-02  1.99511543e-01  2.81180263e-01 -2.38190681e-01
 -8.92049745e-02 -1.57676235e-01 -6.19089939e-02  1.07179172e-02
 -2.03028858e-01 -3.19289695e-03 -9.56571624e-02 -3.80170532e-02
 -4.75192163e-03 -1.88722253e-01  1.59431249e-02 -9.57547724e-02
 -4.58892584e-02  9.88707021e-02  4.38141041e-02  5.79961427e-02
  7.70826964e-03 -1.33737803e-01  1.98501706e-01  6.06388226e-02
  7.08859861e-02  1.53801560e-01  2.79266201e-02  1.46543831e-01
 -1.05354980e-01 -1.44890368e-01  3.40642221e-02 -1.50371596e-01
  2.23136485e-01 -1.66412428e-01  1.50011599e-01  1.55047119e-01
 -2.18913630e-01 -8.17055330e-02  1.11860462e-01  5.19363955e-02
  2.92017851e-02  1.34738488e-02 -1.29200175e-01  1.80606186e-01
  6.77290093e-03  1.75244570e-01  1.74330845e-01  1.57126561e-01
  1.65118441e-01 -1.65929779e-01 -1.95854172e-01 -1.80982322e-01
  1.99488893e-01  2.22559333e-01 -1.88916057e-01  1.33345574e-01
  1.88256517e-01 -1.52961956e-02 -1.02784432e-01 -7.06406236e-02
  2.04175532e-01 -3.52452509e-02 -5.50925173e-02  1.06061995e-01
  6.67959079e-02 -9.51254815e-02 -1.33479491e-01  1.12238541e-01
 -1.31613046e-01  6.34939671e-02  1.54495940e-01  1.76388934e-01
  7.24810734e-02 -1.94603831e-01  1.13171913e-01 -1.05920985e-01
 -2.51391053e-01 -1.73621088e-01  7.40735605e-02  1.92535043e-01
  1.59886226e-01 -1.10606745e-01 -1.51283130e-01  1.39058217e-01
 -2.84844249e-01 -2.11082652e-01  6.77929595e-02 -2.33923361e-01
  2.46862754e-01  2.17225432e-01  1.13451988e-01 -2.35847637e-01
  7.12198913e-02 -1.94844753e-01  2.28239462e-01 -1.23895779e-01
  2.37816170e-01 -1.00823827e-01 -1.58057794e-01  1.40601516e-01
  1.81512967e-01 -1.17670424e-01 -1.31710038e-01  1.20504633e-01
  1.41474143e-01 -2.56509721e-01  1.64535031e-01 -1.46038737e-02
  1.98733881e-01  5.34502752e-02 -2.65357673e-01  1.36713669e-01
 -1.79259792e-01  4.05535251e-02 -2.46353149e-01  5.54122478e-02
 -2.05178544e-01 -1.18437164e-01 -1.67884901e-02 -1.85309216e-01
  1.33738056e-01  4.87391315e-02 -2.01666132e-01  5.21098189e-02
  2.25470513e-01  1.90576185e-02 -2.39768758e-01 -2.33181454e-02
 -6.62527308e-02  1.49895385e-01  5.78950010e-02  6.46474734e-02
 -1.97151765e-01  1.67474806e-01 -1.91579759e-01 -1.24225147e-01
 -1.02705382e-01  5.82020171e-02  2.21048877e-01  2.45694779e-02
 -9.04490612e-03  7.57166296e-02 -1.46978512e-01 -6.24509640e-02
  2.49522015e-01  2.54674822e-01  2.11452872e-01 -1.86846539e-01
 -1.74292132e-01  2.78500199e-01 -1.20958887e-01 -1.68985263e-01
  1.69889078e-01  4.84568179e-02  1.11311004e-01  2.19993412e-01
 -1.39672384e-01 -1.64408237e-01 -1.56656474e-01  1.15726210e-01
  1.03817731e-01  1.75223827e-01 -2.15480149e-01 -2.77609285e-02
 -1.59855738e-01 -9.97224003e-02  1.70707956e-01 -8.69798139e-02
 -6.77674040e-02 -2.23858625e-01  2.65204553e-02 -2.30412900e-01
  1.97296083e-01 -2.54919194e-02  2.39064738e-01  1.66921601e-01
  6.70688003e-02 -1.31462917e-01 -1.91689208e-01 -1.17080599e-01
  1.72530953e-02  9.87742022e-02 -2.06586951e-03  1.77196026e-01
  1.16604075e-01  1.16539642e-01 -2.37499580e-01 -3.32724601e-02
  3.30953598e-02 -5.76630495e-02  1.89504355e-01  1.20368384e-01
  1.15977414e-01 -3.75114754e-02 -1.30513564e-01 -2.64106452e-01
  1.65534228e-01 -6.06502518e-02 -9.55498442e-02  1.51999071e-01
 -1.35313198e-01  1.39293015e-01  1.82731569e-01 -1.06135175e-01
 -5.62047139e-02  2.03809544e-01 -1.75547421e-01  1.11088268e-01
  2.24687263e-01  6.19961545e-02  8.56821463e-02  4.92751226e-02
 -9.19780657e-02 -1.31722763e-01 -9.21552405e-02  1.64826199e-01
 -8.68400931e-02  3.39691639e-02  2.28617579e-01 -5.94080873e-02
  2.42793765e-02  6.04820326e-02 -8.87433216e-02 -4.48775515e-02
 -3.42133380e-02 -1.97160557e-01 -1.52954474e-01  4.81198691e-02
 -9.70798582e-02 -1.45345062e-01 -2.32630312e-01 -2.38522440e-01
 -1.40684620e-01  3.63352336e-02 -8.06940496e-02  1.52193964e-01
  9.25185084e-02 -1.41071051e-01  1.55840972e-02 -2.30476603e-01
 -2.16876134e-01 -7.58201405e-02 -1.93491653e-01 -1.56357959e-01
  1.31076321e-01  2.24505648e-01 -4.27410267e-02 -2.20549971e-01
  1.07711039e-01  1.81805372e-01  2.32511237e-02  1.20391086e-01
 -1.70245320e-01 -3.50585841e-02  2.43368253e-01 -5.17368577e-02
  7.03212619e-02 -1.94794104e-01  1.70146719e-01 -2.09535614e-01
  1.47526920e-01 -9.92840827e-02  4.62856190e-03 -6.24316782e-02
 -1.76288113e-01  2.17720523e-01  1.39339685e-01  1.68732285e-01
 -9.85286683e-02  1.94676165e-02 -5.93615696e-02  2.64939163e-02
  4.78860922e-02  1.12654515e-01 -2.35649645e-01 -2.44167313e-01
  1.33045286e-01 -9.90574807e-02  2.41090417e-01  6.96943998e-02
  5.99546619e-02  1.92000255e-01  1.31908640e-01 -1.58495173e-01
  1.41878992e-01  2.80189030e-02 -9.21332762e-02 -1.50736049e-02
  2.13665619e-01  1.03916369e-01  5.68754598e-02  8.83724242e-02
 -2.34831601e-01 -7.67733231e-02 -5.00682779e-02  6.64271489e-02
  1.96575552e-01 -1.77580193e-01 -1.85529664e-01 -1.74446926e-01
 -7.69969523e-02 -1.38281703e-01 -2.15233788e-01 -1.08286992e-01
  6.06390983e-02 -1.51636213e-01  8.53182375e-02 -1.06444806e-01
  1.39646858e-01  5.66685572e-02  1.36901122e-02  1.96869642e-01
  3.14907730e-02  2.17878401e-01  1.42487943e-01 -8.38303491e-02
 -5.68322465e-02  1.39843524e-01  3.29480995e-03  7.94915184e-02
 -1.63298354e-01 -1.96903348e-01 -6.02545030e-02 -2.50535697e-01
 -2.48509832e-02 -6.56084865e-02 -1.70459345e-01 -2.21458375e-01
 -2.28872478e-01  9.83757526e-02  1.25064775e-01  1.20694578e-01
 -1.80694073e-01 -2.54590511e-01 -3.58725414e-02 -2.54859895e-01
  2.28819177e-01 -1.87582850e-01 -1.00200549e-01 -2.39421755e-01
  8.47305171e-03  1.24498107e-01 -1.82030067e-01  3.99999171e-02
 -1.14330620e-01 -1.17146233e-02 -2.31740907e-01 -4.92992736e-02
 -1.81234092e-01  2.29591310e-01 -1.00507163e-01  4.10778746e-02
  4.37547714e-02 -1.38905108e-01  2.12763906e-01 -8.37253407e-02
  6.64886506e-03  2.09811404e-01  1.29154041e-01  2.19017178e-01
 -1.94892213e-01 -7.27061853e-02 -1.69407262e-03  6.23393953e-02
 -2.40444262e-02 -8.03762078e-02 -8.52129310e-02 -3.10616404e-01
 -1.54016111e-02  1.26570210e-01  1.65259123e-01 -1.12605281e-01
  3.72123234e-02 -1.80799186e-01  1.50407508e-01  1.67289212e-01
  1.52547702e-01  1.39531970e-01 -1.19808994e-01  1.54047400e-01
  2.08212174e-02  2.58344356e-02 -1.45941243e-01  7.05114454e-02
 -1.41917318e-02 -1.16233550e-01  9.05677155e-02  1.77406505e-01
 -1.35417804e-01  2.05180198e-01 -7.05914348e-02  1.76791921e-01
  7.97593296e-02 -5.69930859e-02 -1.98992133e-01 -7.18729496e-02
 -2.77788192e-01  2.05293015e-01 -2.55399823e-01  4.43096831e-02
 -1.10413939e-01 -1.55771598e-01  1.21654078e-01 -2.81396639e-02
  5.04448125e-03 -1.33286119e-01  2.06093758e-01 -2.42136449e-01
  1.56439245e-01 -1.17360860e-01 -2.20159918e-01 -2.42331009e-02
 -1.95071548e-01  1.15766436e-01  2.15822071e-01 -3.80608588e-02
 -1.15619019e-01  1.81026772e-01  9.12681520e-02 -4.36774231e-02
 -2.23602906e-01 -3.06198169e-02  7.61719942e-02  4.09930982e-02
 -5.14905192e-02 -1.06786378e-01 -1.26299381e-01 -1.10323548e-01
  2.58723348e-01  2.02748746e-01 -1.65605173e-01 -1.08015135e-01
 -4.83953245e-02  3.41981128e-02 -7.90144224e-03 -5.30974790e-02
  9.95785892e-02  4.62273695e-03 -1.64375797e-01 -3.24575827e-02
 -8.35875273e-02 -1.53654218e-01 -8.53535905e-02  1.11291148e-01
  2.09268153e-01  1.26122981e-01 -4.19882359e-03  2.15407133e-01
  1.78762615e-01  1.73738047e-01 -4.59305853e-01  1.59713343e-01
  5.08870967e-02 -1.18115745e-01  1.28286704e-01 -1.25727691e-02
 -9.31008980e-02  1.76687896e-01 -1.26069084e-01  2.76627362e-01
  4.45765145e-02 -5.50359152e-02 -4.59696278e-02 -7.54798576e-02
  1.17269360e-01 -1.37215734e-01  1.14080541e-01 -2.42343962e-01
 -1.12572700e-01 -5.02430387e-02 -6.24019429e-02  1.58013940e-01
  2.64153957e-01  1.12217039e-01 -5.51960105e-03 -1.41893506e-01
  1.47035234e-02  1.76212788e-01 -2.02862665e-01 -3.77025455e-02
  1.64283350e-01 -4.84718382e-02 -7.41803348e-02  2.08120778e-01
  3.20465751e-02  2.47132137e-01 -1.22620717e-01 -2.64323235e-01
 -8.84672720e-03 -9.77938026e-02 -7.72873685e-02 -2.25200474e-01
  1.47490516e-01  2.14734033e-01  2.87764035e-02  2.24284604e-01
 -4.02277596e-02  1.46068737e-01 -1.06565626e-02  2.21622184e-01
  1.24898843e-01  1.96626522e-02  1.05157206e-02 -1.75964072e-01
  7.61154294e-02 -5.75447306e-02  4.89845909e-02  1.81786425e-04
  8.53481367e-02 -1.48403361e-01 -8.89352337e-02  9.51320082e-02
  1.37219280e-02 -2.13095009e-01 -1.35628194e-01 -1.54113084e-01
  1.31206945e-01 -1.01739410e-02  1.64745733e-01 -1.70134798e-01
 -9.47662145e-02  1.27970770e-01  2.32156560e-01 -6.13839664e-02
 -1.26002625e-01  1.27588287e-01  5.04231937e-02  6.36706129e-02
 -2.33082920e-01 -2.02010661e-01 -1.34388819e-01 -5.83580397e-02
 -3.82103771e-02  6.57586753e-02 -1.07071809e-01 -8.36346000e-02
 -5.53816706e-02 -2.61557668e-01 -2.31073275e-01  6.88392343e-03
  2.05544859e-01  1.35694027e-01 -1.02177002e-01  8.70241374e-02
 -2.15681300e-01  1.38508588e-01 -1.43299729e-01  2.40065858e-01
 -6.33931682e-02  4.95570886e-04  1.60150751e-02  1.87429816e-01
  1.68712154e-01  2.01271355e-01  8.19131732e-02 -1.59298852e-01
 -1.79404408e-01 -1.03232041e-01 -1.85157150e-01  1.00012831e-02
 -2.08211109e-01  1.38619855e-01 -2.26342827e-01  1.63788646e-01
 -7.59795010e-02 -1.96773652e-02  5.36989346e-02  2.88210571e-01
 -6.90148696e-02 -4.94679697e-02  6.28817230e-02  2.14113854e-03
 -1.31260499e-01 -6.96564242e-02 -1.14511736e-01 -1.87443212e-01
  9.57312062e-02  1.87284425e-01 -4.31475639e-02  2.15777174e-01
 -2.10080057e-01  2.40826383e-01  8.70262757e-02 -2.33725727e-01
  1.65810212e-01  9.96270701e-02 -1.73761845e-01  2.08659861e-02
  1.92610979e-01  3.85646597e-02 -7.36256689e-02 -1.97507888e-01
  1.25216059e-02  1.84466496e-01 -2.44432732e-01  1.86140537e-01
  5.72292097e-02  7.22904783e-03  9.73190442e-02  1.99984640e-01
 -1.04452379e-01 -1.55621432e-02 -1.33981243e-01  1.84823070e-02
  1.74315557e-01 -1.41554162e-01  2.66898066e-01  2.39968598e-02
  2.27006301e-01 -2.46379673e-01 -3.75339687e-02 -1.66688740e-01
  5.15787862e-02  1.33772701e-01  1.47330910e-01  2.13437423e-01
  1.34582028e-01  1.65844783e-01  1.54928491e-01  8.94423947e-02
  1.35639399e-01 -2.51986653e-01  6.27078861e-03  1.30027002e-02
 -7.17216581e-02 -7.15426505e-02  6.02604896e-02 -2.23804727e-01
  5.65168634e-02 -1.01710754e-02 -2.30627686e-01 -1.03837855e-01
 -4.96646669e-03  1.31744146e-01  1.29790604e-01 -2.12522209e-01
 -2.81370103e-01  1.11724183e-01 -1.54507384e-02  1.15913583e-03
  8.84556398e-02 -9.36437622e-02  2.25733727e-01  7.49519765e-02
 -8.43324810e-02  1.42383575e-01 -6.23287857e-02  2.89281726e-01
  6.79659545e-02 -1.69840604e-01  8.48161504e-02 -1.65818825e-01
  1.79750070e-01 -1.15200661e-01  1.92768015e-02  1.31522313e-01
  9.45623368e-02  1.67781916e-02 -2.23434102e-02  1.31963402e-01
  1.39251754e-01  4.44057398e-02  7.62853324e-02  5.62625118e-02
 -8.16066787e-02  1.71152517e-01  1.03371352e-01  2.36874744e-02
  1.64961070e-01 -1.70445055e-01  1.13913968e-01  2.17669323e-01
  2.24085778e-01 -3.86279859e-02 -1.19206257e-01  1.46612108e-01
  1.58905908e-01 -2.77861599e-02  2.64440128e-03 -2.26181954e-01
 -1.65989354e-01 -1.64500892e-01 -6.76957816e-02 -1.54916465e-01
 -1.14629187e-01 -1.01787269e-01  1.14859037e-01 -1.69681057e-01
 -3.43408994e-02 -1.51416123e-01  1.53630346e-01 -2.87589699e-01
  1.03002623e-01 -6.34830296e-02 -1.81425348e-01  6.36005998e-02
 -2.07341135e-01  3.91000696e-02 -1.19453199e-01  1.35430217e-01]
