[-0.00716687 -0.04242066 -0.07081669  0.06129147 -0.00769195 -0.05929273]
[ 0.06475639  0.04275655 -0.04046641 -0.16899112 -0.24619225 -0.04934846
 -0.05905904 -0.14422505 -0.07305409 -0.05217056 -0.0875158  -0.13452822
  0.04602543 -0.09317491 -0.09131149  0.05733191 -0.03573582  0.00392426
 -0.03125684 -0.00850113  0.13765632 -0.0428341   0.17858368 -0.02571108
  0.09053881  0.13402742  0.01037699  0.05361894  0.08719904 -0.04819275
 -0.06636317 -0.03795847  0.1023052  -0.16288649 -0.14828828 -0.08786675
 -0.00136251 -0.14630853  0.06197623 -0.06381208  0.06774694 -0.11507812
  0.04706569 -0.17294589 -0.05685905  0.0285729   0.06747127  0.10399827
  0.15824461  0.05550756 -0.01342211  0.09975965 -0.15221877 -0.08600911
 -0.15948066 -0.0982749   0.11549304  0.15658407 -0.20853567  0.10507976
  0.1445703  -0.03359617 -0.14617562 -0.13815236 -0.10901947 -0.08457134
  0.06823026  0.17013402  0.12903285  0.04292157 -0.28118086 -0.11269388
  0.15176481  0.17628993  0.02036588 -0.04827001 -0.03875316  0.07216246
  0.03719454  0.16089469  0.08864079 -0.10235147 -0.2653896   0.07927812
  0.06852594  0.14604095  0.02292429  0.11722155 -0.0703054   0.00554125
 -0.31376192  0.10518919 -0.12299293 -0.1587711  -0.18578365 -0.14093342
 -0.23302601 -0.02731401 -0.15821348  0.00361443 -0.16525503  0.15869638
 -0.16482373  0.00524858  0.05814352  0.10274798 -0.17818138  0.1432457
  0.07752916  0.05185272  0.06280913  0.05662652 -0.04778832 -0.1130366
  0.00653698  0.08763819 -0.03482668 -0.12564687  0.07103898  0.01434571
  0.13324319  0.04116305 -0.02233357 -0.0213283  -0.17700188  0.08029466
 -0.07183981 -0.0044719  -0.18774427  0.05609233 -0.21210177 -0.167622
 -0.23267026  0.12605089  0.07841554  0.11446936  0.11793796  0.05971703
 -0.20368925 -0.09393771  0.14446    -0.13849883 -0.00306871 -0.09555896
  0.02669449 -0.19649477  0.00126554 -0.15150593  0.20122352  0.15657593]
[-0.00508704 -0.02927982 -0.03463122 -0.02058539 -0.00072415  0.05860934
 -0.01999768 -0.02753413 -0.02455887 -0.01882144  0.01983621 -0.01596968
 -0.02852186 -0.0976667  -0.07494666 -0.03861572]
[ 0.04829171  0.04479818  0.03084106 ...  0.00331674 -0.03966941
  0.07854736]
[ 0.01153845  0.00728497  0.0236899  -0.00995307  0.01479097 -0.0120077
 -0.0045532  -0.02422038  0.00987277 -0.0275347  -0.01048818  0.00835452
  0.00603534 -0.02924141 -0.02322402  0.01964046  0.00160618 -0.02242023
 -0.00825387 -0.01142759 -0.00827492  0.0172631  -0.00376834 -0.02155142
 -0.0454578  -0.00916892  0.00035818  0.01047567 -0.0074456  -0.00646059
  0.01131475 -0.02414863 -0.0028219  -0.03606755  0.02544868 -0.03892548
  0.0132488   0.00434354  0.03380034 -0.02443682 -0.01311404 -0.01774283
  0.00819385  0.0062822  -0.00600887 -0.00584972 -0.00125248  0.01096405
 -0.00470808 -0.00338718  0.02313955 -0.02451778  0.01880361 -0.01035378
 -0.02302507  0.0053298  -0.02702234 -0.0134987  -0.01751234  0.01807345
 -0.01113223  0.02942063 -0.03873134 -0.01457721  0.01552072 -0.01297581
  0.01421633  0.006803    0.01219215 -0.01627028 -0.00885141 -0.00991718
 -0.013338   -0.00346812 -0.0272635  -0.01633386 -0.01012211 -0.03137035
  0.00745375  0.04085726 -0.01384545 -0.02282882 -0.02108249 -0.00834316
  0.02558913 -0.0240802   0.00035028  0.0218702  -0.00299791 -0.00788335
  0.00734726 -0.01674192 -0.02351446 -0.01916229 -0.00346924  0.0030043
 -0.0172357  -0.01290403 -0.00125032  0.0029488   0.01749223  0.03095743
 -0.013873    0.0113013  -0.00142318 -0.03718087 -0.03042475 -0.02081086
 -0.01610113 -0.01832455 -0.03337305 -0.02539228  0.01215252  0.01086816
  0.00143234  0.00596631 -0.01920708 -0.02761963 -0.02374654  0.03655374]
[ 0.01833312 -0.06791019 -0.08936077 ...  0.08068815 -0.09039588
  0.05085982]
[ 0.01119504  0.0039633  -0.01031403  0.02388686  0.02171214  0.03383166
 -0.03823847  0.00137438  0.05183635  0.0455424  -0.04320586 -0.03214091
 -0.03866193  0.01313335 -0.00402616 -0.00595865 -0.03279334 -0.01302176
  0.04196159  0.02187103 -0.02581758 -0.00983011 -0.02382546  0.05117668
  0.00372282  0.01281159 -0.02174313  0.01598939  0.00144791  0.02355014
  0.02557641  0.00742494  0.00745862 -0.03368842  0.02723654 -0.03881416
  0.01393863 -0.02539997 -0.01310822 -0.01762914 -0.01301964 -0.00252494
  0.02547097 -0.0233913   0.02918167  0.01984019  0.02656296  0.00078331
 -0.06383261  0.01012416 -0.02309038  0.01862737 -0.01847774 -0.01252159
 -0.03342642 -0.02047971  0.00785491 -0.003952   -0.05009905  0.0078686
  0.03086709 -0.02519279  0.00776555 -0.01477309 -0.03823498  0.00667203
  0.00095116 -0.021843   -0.00685738 -0.04991348 -0.00419897  0.04966042
 -0.02288882 -0.0098885   0.02801976 -0.0195859   0.01883418 -0.02041794
 -0.02542657 -0.05018745 -0.01493882  0.01023822  0.01056005 -0.01169735]
[ 0.12391588  0.03856088 -0.14375083 ...  0.0879803   0.090173
 -0.0467437 ]
[-0.00064997 -0.0158628  -0.02287709 -0.00796045 -0.01662296  0.01719598
 -0.01851944 -0.01002276  0.03152964  0.03709313]
[ 6.18489571e-02 -2.74394840e-01  4.18041386e-02 -2.27101207e-01
 -1.50483996e-01  2.15502784e-01  8.50637928e-02 -1.81184545e-01
 -1.37310401e-01 -2.09881123e-02  1.18993871e-01 -1.17907248e-01
  4.62396219e-02  2.55110748e-02 -1.46964192e-01  1.34181723e-01
 -4.88408618e-02  1.05952002e-01  6.16674088e-02 -1.52839288e-01
  1.72814466e-02 -1.50390282e-01 -2.25678712e-01  1.37837941e-03
 -5.01575842e-02  8.83097127e-02  2.23744154e-01  3.13757285e-02
 -1.25389665e-01 -1.33266211e-01 -2.67961919e-01 -5.50101660e-02
 -9.50141102e-02  2.84836113e-01 -1.05808519e-01 -2.27279738e-01
 -2.92345107e-01  2.24084601e-01  1.69244021e-01  1.21417977e-01
 -2.18178928e-01  3.19602937e-01 -7.24619254e-02 -1.50701880e-01
  1.39687791e-01 -1.05976999e-01 -7.49430209e-02 -5.86148538e-02
  1.60179660e-01 -3.72858420e-02  5.75774834e-02 -2.33531505e-01
 -2.04643846e-01 -2.03663170e-01 -1.49104297e-01 -2.10717514e-01
 -6.81064092e-03 -2.00434532e-02  6.20244145e-02 -1.13850124e-01
  6.85636327e-02  1.88795611e-01 -1.19631723e-01 -1.36287836e-02
 -7.40104243e-02 -1.18687563e-01  1.98018178e-02  5.34819718e-03
 -1.80846304e-01  8.89265686e-02 -9.46302339e-02  5.72914332e-02
  3.38418782e-02 -2.17078343e-01  1.48924679e-01 -1.43393993e-01
  1.33965164e-01 -7.51972646e-02  4.88312617e-02 -1.94068268e-01
 -1.97020590e-01  2.23542228e-01 -1.20687492e-01 -3.43918987e-02
 -2.02981874e-01  2.84192860e-02  1.27343252e-01 -3.45362909e-02
  2.12057203e-01  8.99312943e-02  1.48506025e-02 -2.59139180e-01
 -1.97117195e-01 -6.82663396e-02 -2.40463614e-01 -7.67932925e-03
  5.00013381e-02 -9.76286680e-02  7.10020587e-02 -1.42373204e-01
  8.81805718e-02 -2.27238059e-01 -1.45536467e-01 -1.61745578e-01
  1.65392518e-01  2.69370116e-02  3.44427451e-02  2.20018864e-01
 -2.13133633e-01  1.66620836e-01  8.61476585e-02 -2.94918497e-03
  4.83757406e-02  1.99804068e-01 -1.50677398e-01 -1.38776809e-01
  1.56152904e-01 -4.22771834e-02  2.04075873e-02 -7.97929615e-02
  6.20397106e-02 -2.04856634e-01 -3.20230961e-01 -1.05979685e-02
  9.40397307e-02  9.32988077e-02  1.22703671e-01  5.89165650e-02
  1.67099256e-02 -1.26809925e-01 -7.28290826e-02  2.94389546e-01
 -1.03323497e-01 -7.92495459e-02 -1.65624365e-01 -3.10631637e-02
 -2.55131442e-02 -2.02041060e-01  2.53571179e-02 -1.70785233e-01
 -1.02283724e-01  2.32391372e-01  1.53574958e-01  2.50150636e-02
 -1.51206523e-01  1.70638442e-01 -2.27774113e-01  7.59271234e-02
  1.47988543e-01  1.52861014e-01 -3.82031612e-02  5.64567298e-02
  2.61353761e-01  1.47585586e-01 -4.60905097e-02  5.87217659e-02
  1.05066359e-01  8.46897587e-02  1.88577682e-01  1.54126063e-01
 -1.65994644e-01  2.38374725e-01 -1.79391280e-01 -8.85881670e-03
 -2.02574462e-01 -1.12318639e-02 -1.52869210e-01  1.13049380e-01
 -8.17379802e-02 -1.85843691e-01  1.44160211e-01  2.26496041e-01
  1.89171880e-01  2.13141337e-01  1.53331906e-01  2.24745184e-01
  1.85966846e-02  1.46635368e-01 -6.82635084e-02 -3.47458385e-02
  1.32709682e-01 -8.23037475e-02  1.16633028e-01 -4.01795283e-02
 -2.35562846e-01 -4.56547625e-02 -2.25173652e-01  6.97031543e-02
  1.36563461e-02  2.18274593e-01  2.08933264e-01  9.04517770e-02
 -1.47017762e-01  2.03474373e-01  1.70228779e-01 -1.17866909e-02
  1.01499341e-01 -1.45324782e-01  1.92645177e-01  9.65384394e-02
  1.35453984e-01 -1.56751305e-01  1.91793084e-01 -1.79189742e-01
 -5.78743871e-04  6.36260062e-02  1.46290153e-01 -1.42299086e-01
 -1.18889615e-01  1.70160040e-01 -2.68053021e-02  1.52202398e-01
  2.43799482e-02 -2.05161166e-03 -2.38005489e-01  2.44473875e-01
  5.62508125e-03  1.19486019e-01 -1.52681991e-01  1.46542564e-01
 -1.97929680e-01  1.40404522e-01  8.87245536e-02  1.60370931e-01
 -2.25630626e-01 -1.34682477e-01 -2.52189972e-02 -3.19084749e-02
  2.36650467e-01  2.04208851e-01  5.25432527e-02 -1.31609499e-01
  5.71195036e-03 -2.28103280e-01 -1.12871513e-01 -4.02834732e-03
 -3.85343544e-02  3.26736867e-02  9.69136059e-02  3.67558822e-02
  2.26130009e-01 -7.22838938e-02  2.48322368e-01  1.76703379e-01
 -1.72379300e-01  1.67297482e-01 -1.28795967e-01  9.39998105e-02
  1.30181894e-01  2.11058453e-01  1.11823790e-01  1.94612339e-01
 -1.81400925e-01  2.37441108e-01  7.10761398e-02 -8.51358995e-02
  1.63873315e-01 -2.19179705e-01  1.04578733e-01  1.11296110e-01
 -1.83400512e-01 -7.29891434e-02 -2.30386019e-01 -7.31919706e-02
 -1.85974762e-01  2.00601742e-02 -1.98860213e-01  1.35310575e-01
 -4.07074317e-02 -1.03091784e-01 -4.12699506e-02  1.87206164e-01
  8.25256854e-02  1.77947730e-01 -1.28893331e-01  1.33158192e-01
  3.31925452e-02  1.22572511e-01 -7.15686083e-02  2.10464969e-01
  3.83054703e-01 -8.20364356e-02  1.51525550e-02  4.09362800e-02
 -6.39688745e-02 -1.50819803e-02  6.43732166e-03  1.78224981e-01
  3.74732129e-02  5.03494665e-02 -1.14168361e-01 -1.69094548e-01
  3.04662548e-02 -7.04562962e-02 -1.23629468e-02  8.56881216e-02
  3.32083143e-02 -2.06675157e-01  7.25903362e-02  1.56269178e-01
 -3.46750133e-02 -1.41110241e-01 -9.63293165e-02 -2.48679623e-01
 -3.88547219e-02 -1.86846331e-02 -2.11144924e-01  5.80094941e-02
  8.75938237e-02 -2.71979600e-01 -1.46571577e-01  1.65517539e-01
 -8.67615342e-02 -1.01891421e-01  2.31896937e-01  1.75506901e-03
  1.65963486e-01  2.01996461e-01 -2.23265141e-01  2.05565408e-01
  9.48242247e-02 -2.13333920e-01  1.53313845e-01 -1.16764665e-01
 -2.07100272e-01 -8.44909921e-02  1.33049279e-01 -2.67623458e-02
  1.13607578e-01 -2.20828597e-02  1.16189227e-01 -2.30099726e-02
 -6.51386604e-02  8.02999921e-03 -4.84712888e-03  1.24669001e-01
 -6.10269792e-02 -2.46521160e-01  3.79346800e-03 -5.96488379e-02
 -1.86046422e-01  2.65309028e-02 -2.22973675e-01 -1.03829660e-01
 -2.02601999e-01  2.39522219e-01 -1.42360523e-01 -7.98230916e-02
  7.08094910e-02 -5.22578433e-02  3.45787331e-02 -2.92208400e-02
  2.01322958e-01  1.03806637e-01 -1.38320580e-01 -2.26664141e-01
  1.87914610e-01  6.38980418e-02 -8.54765177e-02 -2.48193562e-01
 -1.51967049e-01 -3.84045541e-02  2.15079159e-01 -1.35659173e-01
  1.29503623e-01 -1.05518334e-01 -2.69553065e-01 -5.01230964e-03
  9.52550322e-02  1.27918348e-01  2.44187079e-02  1.70239918e-02
 -2.29426160e-01 -1.54129595e-01  1.94230407e-01  1.77046843e-02
 -9.16179270e-02 -2.74948534e-02 -5.27459271e-02  1.40383644e-02
 -1.20459057e-01  8.23266283e-02 -1.99339911e-01  1.80181235e-01
 -2.06121176e-01  1.87117293e-01  1.62813082e-01 -1.78861432e-02
  2.01282904e-01 -1.25671610e-01  1.98959365e-01 -2.09824238e-02
 -3.51763405e-02 -1.85804829e-01 -1.33569678e-02 -1.79720581e-01
  2.60414369e-02 -2.02356547e-01 -2.39221245e-01  1.32718667e-01
  2.12852247e-02  1.54965580e-01 -1.67892858e-01 -1.06871516e-01
  1.13612503e-01 -2.28535891e-01  4.59075607e-02  1.79856643e-01
 -1.77800074e-01 -6.39220923e-02 -1.97874472e-01  7.83418715e-02
  2.98837330e-02  7.35713989e-02 -2.31032670e-01 -2.45281264e-01
 -5.82702272e-02 -1.66740954e-01  1.05100177e-01 -2.28715748e-01
  9.18613598e-02  7.79829640e-03 -7.09072575e-02 -1.49733290e-01
 -1.64045170e-01  1.57880202e-01 -7.06848549e-03  9.96176600e-02
  7.96299726e-02 -1.55574769e-01 -4.52386012e-04  1.84112206e-01
  1.53995126e-01 -1.71369180e-01  7.39545375e-02  6.27593845e-02
  2.16565728e-01  1.68238282e-01 -8.72964010e-05  2.03659490e-01
  1.48153871e-01  2.81363484e-02 -6.75724372e-02 -1.77091379e-02
 -5.29651679e-02 -3.01800221e-01 -2.70862937e-01 -5.78846186e-02
  1.56366155e-01 -2.11473837e-01 -4.93924022e-02  8.67755190e-02
 -8.51648971e-02 -1.40201943e-02 -3.82639095e-02  3.62580009e-02
 -5.99030331e-02  1.42498419e-01 -4.42734128e-03  2.18332648e-01
 -1.17706358e-01 -1.11732274e-01 -2.04524279e-01 -1.17946945e-01
 -6.83631599e-02  1.02703355e-01  9.86448526e-02  1.53479889e-01
  7.68496990e-02  2.10504368e-05 -1.15326248e-01 -2.48154432e-01
  2.35014632e-01 -2.76484694e-02  1.02282092e-01 -1.58986166e-01
  4.75292243e-02 -1.87852025e-01  1.28191739e-01  1.27877353e-03
 -1.46313831e-01 -1.74843460e-01 -1.80346258e-02  1.17495365e-01
 -1.94950089e-01  2.08485544e-01 -1.40782088e-01  6.75350204e-02
  1.40629128e-01 -2.57102668e-01  2.11656690e-01 -1.36911184e-01
 -8.35428014e-02 -3.35964672e-02  2.14912668e-01 -1.77169800e-01
  7.72294477e-02 -3.55125405e-02  1.38308972e-01  8.96980688e-02
 -6.14416339e-02  2.15039223e-01  1.84453487e-01  2.19300911e-01
  5.03110364e-02  2.08533317e-01  9.61157978e-02 -9.95375514e-02
 -9.41720232e-02  1.26439944e-01 -8.76368675e-03 -1.90194532e-01
 -1.54157788e-01  2.38018870e-01  1.74659461e-01  2.36615583e-01
  9.29189995e-02 -4.47085910e-02  2.10837826e-01 -1.01353094e-01
 -1.78303078e-01  1.84836283e-01 -5.47259524e-02  7.65299350e-02
  1.08720876e-01 -1.37672424e-02 -2.03656286e-01  2.15429142e-01
 -5.22824861e-02  3.85945588e-02 -1.53747937e-02 -1.48692966e-01
  9.85363312e-03 -4.49680611e-02 -9.21711177e-02 -5.27321361e-02
 -1.57786742e-01 -4.45456058e-02 -1.10690370e-01 -1.93192467e-01
 -3.24483588e-02  8.41661170e-02  2.13908449e-01  4.15509716e-02
 -4.38330248e-02  9.26313251e-02  1.12002879e-01  1.66382007e-02
 -8.80470276e-02 -2.14206889e-01 -2.07647666e-01 -1.53230518e-01
 -3.65797244e-02 -1.76172983e-02 -1.09483235e-01  6.00318462e-02
  1.66158915e-01 -1.21982113e-01 -1.49033353e-01 -8.95466134e-02
 -8.92861262e-02 -2.44284511e-01  7.97976777e-02 -1.12960882e-01
 -7.90325180e-02 -1.70352057e-01 -1.85102150e-01  1.00107111e-01
 -7.49274418e-02  1.84271142e-01  1.90756321e-01  6.28480734e-03
  9.79870111e-02  6.03335239e-02  1.57812148e-01  1.30898565e-01
 -1.40364423e-01 -8.83581955e-03  2.40937814e-01 -8.49345252e-02
  1.29444689e-01  1.02912076e-01 -1.67291060e-01  2.44628862e-02
 -2.34320894e-01 -1.41430423e-01  9.91858914e-03  2.47637346e-01
  1.21586286e-01  1.83543876e-01  2.04505950e-01  1.19386651e-01
  1.85771927e-01 -2.50571847e-01 -3.32488529e-02 -1.64414402e-02
 -1.26024574e-01 -1.37578696e-01 -1.38287470e-01  1.12031125e-01
 -1.14231929e-01  1.69384241e-01  2.02313736e-01  1.10438829e-02
 -4.57605273e-02 -2.15901822e-01 -1.58117384e-01  2.17062920e-01
  1.07047670e-01 -1.96666285e-01  2.27693871e-01 -9.71552879e-02
  3.22085842e-02 -2.28661910e-01  2.07086250e-01  5.50764836e-02
 -1.66361079e-01 -2.04673499e-01  1.45304784e-01  7.77833536e-02
 -1.04822978e-01  1.31316081e-01  1.15897484e-01  2.55720198e-01
  1.62506372e-01  1.22874416e-01 -1.88217640e-01  2.21417934e-01
  1.63694561e-01 -1.79853767e-01 -4.03881706e-02  2.03173440e-02
  8.32707509e-02  4.96396348e-02  1.89043462e-01  1.45939082e-01
  2.33788207e-01  1.85386706e-02 -2.82983743e-02 -3.69462818e-02
 -1.71761438e-01  1.78619653e-01  1.22027129e-01 -4.46270145e-02
 -9.48450342e-02 -2.13088647e-01 -2.41406828e-01 -1.95833161e-01
 -5.59180006e-02 -1.60778955e-01  1.30397290e-01  1.60685807e-01
 -1.20372437e-01 -3.99530586e-03 -5.10009788e-02  1.29191488e-01
 -4.33533266e-03  4.16544452e-02 -1.04206137e-01  2.47278228e-01
  5.97932748e-02 -1.79577932e-01 -1.99531198e-01  1.71821997e-01
 -1.84560627e-01  2.33090356e-01  5.16479276e-02 -2.56679088e-01
 -4.29573655e-02  1.50751159e-01  2.55498201e-01  8.48622918e-02
  5.21470942e-02 -2.76192930e-02  7.89047852e-02  2.85081893e-01
 -2.73357183e-02 -2.24671528e-01  1.52109623e-01  1.37642860e-01
  1.70812830e-01  1.55469254e-01  2.14899406e-01 -1.62423715e-01
 -8.20173994e-02  1.21990740e-01 -1.00671172e-01  5.46751767e-02
  8.85137618e-02  1.83948085e-01  1.88655809e-01 -6.85297623e-02
  3.65222991e-02  7.16911629e-02 -1.96466684e-01 -7.48996735e-02
 -1.97632909e-02 -1.19811654e-01 -2.26121709e-01  7.36691505e-02
 -1.59555122e-01 -9.47070047e-02 -7.64571279e-02  1.34094134e-01
  1.25840023e-01 -2.82176938e-02 -8.26369748e-02  5.85838081e-03
 -2.33590510e-02 -2.01981112e-01 -8.70614052e-02  7.32593462e-02
 -1.61070287e-01 -8.90927762e-02  1.01456642e-01 -1.90196484e-01
 -2.08533123e-01 -8.43285955e-03  9.63921547e-02 -3.34107727e-02
 -1.46270365e-01  1.61681354e-01  8.50405078e-03 -1.46915138e-01
  1.14016950e-01 -2.41082534e-01 -5.25610819e-02 -1.40372381e-01
  1.11398563e-01  1.50630683e-01  1.05027102e-01  1.96311146e-01
 -4.28745635e-02  1.80210546e-01 -1.70482039e-01  1.14345467e-02
  1.84485540e-01  2.33375043e-01  7.76438089e-03 -7.88200870e-02
 -2.04468463e-02  9.61257145e-02  1.13106437e-01 -2.13486642e-01
  1.61910966e-01  1.05935313e-01 -2.74360627e-01  2.48938143e-01
 -1.05475642e-01  1.90288782e-01 -1.07315825e-02  1.40442222e-01
 -1.02583423e-01 -5.17524108e-02 -2.43470203e-02 -1.01143546e-01
  2.32927144e-01 -2.22513974e-01 -6.75542727e-02  1.64893270e-01
 -9.38815251e-02  6.90482631e-02 -1.69929594e-01  2.29334846e-01
 -2.82970220e-02 -1.31214902e-01 -1.42686531e-01 -6.10979013e-02
 -1.31245494e-01  2.77342379e-01 -1.32616848e-01  8.82544518e-02
  1.79815978e-01 -1.26110122e-01  7.79570863e-02  1.47723511e-01
 -7.19919205e-02  1.30200058e-01  1.66514754e-01 -1.36349320e-01
 -2.13317797e-01  1.83375791e-01 -2.15169430e-01  1.01370169e-02
  2.54221141e-01 -1.52688935e-01 -1.84929505e-01  2.47678366e-02
 -1.50497317e-01 -7.39171058e-02  1.96727335e-01 -6.69030100e-02
  1.16416588e-01  3.48138064e-02  1.64462745e-01 -1.23889774e-01
  1.30272537e-01  1.13457449e-01 -1.91185907e-01 -1.10629089e-01
 -5.64768258e-03 -2.53563821e-01  9.88647342e-02 -7.31425434e-02
  1.85887367e-01 -1.33500680e-01 -6.56261528e-03  7.58288503e-02
 -1.20189264e-01 -1.34171307e-01  4.95227911e-02 -1.73128217e-01
 -2.06102476e-01  1.70856103e-01 -5.81546016e-02  1.39997765e-01
 -4.29684259e-02  1.77650645e-01 -2.13541806e-01  2.12049574e-01
  2.15076655e-01 -1.99594676e-01  1.19195553e-03  1.90716307e-03
  2.37604767e-01  1.30695492e-01 -1.91929266e-01 -3.05808522e-03
  4.78728628e-03 -7.41240103e-03  2.16701746e-01 -1.31434098e-01
  7.14627188e-03 -4.74569276e-02 -2.29059517e-01 -1.51644692e-01
  1.75748065e-01  1.86585769e-01 -1.32266432e-01  2.75118411e-01]
